{
  "inputs": [
        {
          "name": "Evt_pt",
          "offset": -8.17471,
          "scale": 0.189476476495
        },
        {
          "name": "Evt_eta",
          "offset": 0.0367212,
          "scale": 0.718163798799
        },
        {
          "name": "Evt_mass",
          "offset": -0.955607,
          "scale": 1.61865205132
        },
        {
          "name": "Evt_d3d",
          "offset": -1.05605,
          "scale": 0.338156573257
        },
        {
          "name": "Evt_d3dsig",
          "offset": -17.6224,
          "scale": 0.0232001874575
        },
        {
          "name": "Evt_dxy",
          "offset": -0.540834,
          "scale": 0.752604009874
        },
        {
          "name": "Evt_costhetaSvPv",
          "offset": -0.951156,
          "scale": 3.5024306869
        },
        {
          "name": "Evt_ndof",
          "offset": -2.05918,
          "scale": 0.537209839535
        }
      ],
  "defaults": {
        "Evt_pt": 0.0,
        "Evt_eta": 0.0,
        "Evt_mass": 0.0,
        "Evt_d3d": 0.0,
        "Evt_d3dsig": 0.0,
        "Evt_dxy": 0.0,
        "Evt_costhetaSvPv": 0.0,
        "Evt_ndof": 0.0
  },
  "layers": [
    {
      "activation": "rectified",
      "architecture": "dense",
      "bias": [
 -2.2909352779388428, -2.0425381660461426, -0.3282434344291687, -2.0511767864227295, -1.884926438331604, -4.172196865081787, -4.198524475097656, -2.0356967449188232, -0.612377405166626, -3.5912790298461914, 1.024940013885498, -3.2736833095550537, -7.40139627456665, -2.463092803955078, -1.390784502029419, -2.3225085735321045, -2.6867105960845947, -1.3846021890640259, -5.334014892578125, -3.883700132369995, -0.7128101587295532, -3.01564884185791, -2.146944999694824, -4.215615272521973, -0.9966924786567688, -3.133493423461914, 0.8264968395233154, -5.544766426086426, -3.6343624591827393, -3.2602615356445312, -3.0197865962982178, -2.5764012336730957, -0.051429834216833115, -4.962522029876709, -3.1214489936828613, -1.2050137519836426, -1.5230542421340942, -1.3352396488189697, -2.7235915660858154, -0.7897986769676208, -2.5031180381774902, -1.1341336965560913, -3.5772593021392822, -1.9811842441558838, -0.472577303647995, 0.022528447210788727, -3.359027624130249, -1.3352445363998413, -2.0346872806549072, -1.0619679689407349, 0.4402410387992859, -0.35291409492492676, -1.6763362884521484, -2.0016119480133057, -1.3104442358016968, -2.167875051498413, -1.9950929880142212, -3.526963472366333, -2.591749906539917, -1.6930981874465942, -3.5215024948120117, -2.1172001361846924, -0.8605141043663025, -1.2643455266952515, -1.973594069480896, -2.4084060192108154, -0.1024646982550621, -1.3321791887283325, -2.8514411449432373, -7.516547203063965, -2.2593276500701904, -3.8585805892944336, -4.105868339538574, -3.3998827934265137, -1.4246258735656738, -0.08522655069828033, -3.6954872608184814, -1.3520549535751343, -1.589049220085144, -0.6633523106575012, -0.6659436821937561, -1.319758415222168, -2.117528200149536, -2.0068297386169434, -1.9836612939834595, -5.088932991027832, -5.1584930419921875, -3.4612348079681396, -1.8337109088897705, -2.2063512802124023, -1.1423085927963257, -1.9179258346557617, -1.6875133514404297, -1.7392666339874268, -2.2825043201446533, -1.6770743131637573, 0.19957879185676575, -0.47323310375213623, -0.7415686845779419, -1.8409475088119507
       ],
      "weights": [
 -0.017454296350479126, -0.014679613523185253, -0.008975142613053322, -7.593698978424072, 0.659652590751648, 0.7170855402946472, 3.0244898796081543, -0.0007890372653491795, 0.009367748163640499, 0.0028004294726997614, 0.005352241452783346, -0.2007598578929901, -0.006429312750697136, 0.10008856654167175, 12.372941970825195, -0.005581957753747702, -0.012504094280302525, -0.014276602305471897, 0.024287564679980278, -0.0417112372815609, 0.005254810675978661, 0.1119820848107338, 0.07313011586666107, 0.6568248867988586, -0.2032054215669632, -0.01525131519883871, 0.26462098956108093, 0.8471892476081848, 1.2683348655700684, -7.397892951965332, -0.00632497388869524, -0.011186748743057251, -0.0009381660493090749, 0.0019570747390389442, 0.08664014935493469, -0.0193194393068552, -5.9225029945373535, 1.0428667068481445, 3.2498505115509033, -0.030341964215040207, -0.009564409963786602, -0.007183300331234932, 0.025134343653917313, -5.171230316162109, -1.1966029405593872, -4.741357803344727, -0.0016802483005449176, 0.003354697721078992, -0.009379255585372448, -0.009646492078900337, 0.023442013189196587, -4.9734344482421875, -2.0540695190429688, -4.115113258361816, 0.0060284435749053955, -0.0043160757049918175, -0.04712056741118431, -0.01737269200384617, 1.5512933731079102, -0.18323607742786407, -0.04007428139448166, 0.19456802308559418, -0.1354258805513382, 0.061269987374544144, 0.049137361347675323, 0.6909919381141663, 0.0018024039454758167, -2.976651668548584, -0.02598782442510128, 1.7646392583847046, 0.05100556090474129, -0.05045292153954506, -1.3052477836608887, -0.011267085559666157, 0.6518908739089966, -0.34530016779899597, -5.357736110687256, -2.3868765830993652, -0.05191287398338318, 0.10628072917461395, -0.023300105705857277, -0.003496557706966996, 0.15136362612247467, -2.0320537090301514, -4.543293476104736, 8.668089866638184, 0.006208755075931549, -0.01851794682443142, -1.6985372304916382, -0.07117407023906708, -2.0691721147159114e-05, 0.004275926388800144, 0.02512831799685955, -0.20903123915195465, 0.12999378144741058, 0.11142383515834808, 0.8053922057151794, 0.16520212590694427, 0.6363499164581299, 0.45409291982650757, 0.7640584707260132, -1.1027966737747192, -0.13128326833248138, -0.5094600319862366, 0.0031494651921093464, 0.0009578621247783303, 0.057169631123542786, -1.2344738245010376, -6.5452494621276855, 0.7983865141868591, 1.3362963199615479, -0.019507313147187233, 0.012840457260608673, 1.2492159605026245, -0.07541939616203308, -7.389611721038818, 0.06305249035358429, 5.855957508087158, 0.009143875911831856, -0.01165236346423626, -0.08345111459493637, -0.01111543644219637, -4.11570405960083, 0.02436084859073162, -0.011805050075054169, 0.34989994764328003, -0.0015910485526546836, 0.973410964012146, 0.25875818729400635, 0.03359351307153702, -1.6261674165725708, -1.4461753368377686, 1.4376745223999023, -4.177940368652344, -0.01151768397539854, -0.9530102610588074, 0.05071098357439041, 0.005511668976396322, 0.024632608518004417, -5.290579795837402, -1.5992611646652222, 2.243429660797119, 2.426503896713257, -0.021726394072175026, -0.027338430285453796, 0.001563452766276896, 0.04869390279054642, 0.18977384269237518, 0.1632314920425415, -1.8555433750152588, -0.7383784055709839, -0.0242732223123312, 0.02144869789481163, 1.9233615398406982, 0.23525887727737427, -0.511121392250061, -0.019690746441483498, -2.0920865535736084, 0.09369990229606628, 0.003586116712540388, 0.04106020927429199, -0.011012893170118332, -0.0317327119410038, -1.0267614126205444, 0.9497377872467041, 1.3836560249328613, 8.74935245513916, 0.001242862781509757, -0.07782658189535141, 0.025697918608784676, 0.09572242945432663, 1.0214678049087524, -7.386055946350098, -1.7071424722671509, 0.1816217005252838, 0.04221243038773537, -0.020090989768505096, 0.0007863694918341935, 0.2116696834564209, 0.25164929032325745, 0.03282511234283447, 0.14983104169368744, 12.983633041381836, -0.03958578407764435, 0.2424558848142624, -0.00970551185309887, -0.34694769978523254, -6.068224906921387, -1.7451115846633911, -3.510822296142578, -0.01199234277009964, 0.07033038884401321, -1.0629477500915527, -0.02817673794925213, -0.09905073791742325, 0.49156588315963745, 0.12250369042158127, 1.081371545791626, 5.305804252624512, 0.34457674622535706, -0.025423191487789154, 0.03033728152513504, -0.018552208319306374, -4.7695488929748535, -1.5574640035629272, -2.7613365650177, -0.10029170662164688, 0.03811696916818619, 0.04711544141173363, -0.028950011357665062, 0.02460297755897045, -0.13580498099327087, 1.2000237703323364, 2.2661919593811035, 0.05903371796011925, 0.09586767107248306, -4.165907859802246, -0.0012774633942171931, 0.022690651938319206, 0.024047357961535454, 0.08861380815505981, 0.05954795330762863, -0.002476747613400221, -0.005058577284216881, -0.013921519741415977, -0.01761004701256752, 0.032654959708452225, -5.705361366271973, -1.1394299268722534, -3.3000192642211914, -0.025513047352433205, 0.011769531294703484, -4.173727989196777, -0.019655216485261917, 2.034877300262451, -0.0913722962141037, -0.11161461472511292, 0.5071083307266235, 0.0023431461304426193, -0.3805876076221466, -0.056101035326719284, -0.009867358952760696, 0.031787265092134476, -4.929604530334473, -3.009392023086548, -0.8073883652687073, 1.2952688932418823, 0.00121788599062711, -1.3206499814987183, -0.14530831575393677, -0.00026681568124331534, -0.15303292870521545, 0.02822890691459179, -0.24892498552799225, 0.30719754099845886, 0.24553273618221283, 0.5378681421279907, 0.020894154906272888, -0.2770678997039795, -1.8118122816085815, 0.18842117488384247, 0.8429365754127502, 0.3464379608631134, 0.014721996150910854, -4.416167736053467, -0.006400462705641985, -0.0016595367342233658, -0.036281339824199677, -0.10360661149024963, 0.3062072694301605, -0.003541741520166397, 0.15710940957069397, -0.02771655283868313, 0.0011646166676655412, 0.016703862696886063, -0.32703813910484314, -0.3945859968662262, 1.1651431322097778, 0.005471189972013235, -5.390439510345459, 0.22452566027641296, -0.011471464298665524, -0.018558230251073837, -0.8297755122184753, -6.196634769439697, 4.0648579597473145, 0.0027287101838737726, -0.6454628705978394, 0.11575695872306824, -0.030962472781538963, -0.04926164448261261, 0.4819733798503876, 0.3053557276725769, -4.236116886138916, 0.3376283645629883, -0.8942944407463074, -2.7632951736450195, -0.02136300504207611, 0.5954705476760864, 0.13887013494968414, 0.5929126143455505, 0.9297958016395569, -0.06468047946691513, 0.14524608850479126, 0.019999872893095016, -0.021957308053970337, -0.05429617315530777, -0.10397762805223465, -8.755121231079102, 1.773931622505188, -0.0020920024253427982, 0.018917087465524673, 0.094152070581913, -0.8466890454292297, -0.08767405897378922, -4.478920936584473, 0.03977983444929123, 2.490553855895996, 0.02158791571855545, -0.07394309341907501, -0.010333456099033356, 2.0937182903289795, -0.9362246990203857, -3.1378424167633057, 0.21398316323757172, 3.9048335552215576, -0.010618225671350956, 0.25674113631248474, 0.017926737666130066, -0.02000783570110798, -0.02736830897629261, -5.022231101989746, -0.2022836059331894, 4.060983657836914, 7.562022686004639, -0.022059183567762375, -0.038462743163108826, 0.017823442816734314, 0.02749014087021351, -3.8223533630371094, -2.1827404499053955, -4.352818965911865, -0.015615432523190975, 0.004897363018244505, 0.01976015232503414, -0.7478331923484802, 0.018195657059550285, -2.7461864948272705, -2.942277431488037, 0.46330103278160095, 0.03675048425793648, -0.0394408255815506, -0.004541299771517515, 0.036913830786943436, 0.04208868741989136, 2.726926326751709, 0.5323907732963562, -2.2586097717285156, 0.1058136448264122, 0.028218470513820648, 0.8452333211898804, 0.015653159469366074, -0.558782696723938, -0.3629400134086609, -1.5402675867080688, 0.9607335925102234, 0.002759998431429267, 0.04101104289293289, -2.8029098510742188, 0.043038807809352875, 1.0542176961898804, 0.5766168832778931, 0.1060006394982338, 1.4723950624465942, -0.3613070547580719, -0.18582358956336975, -0.733534038066864, 0.006021703593432903, -0.043627556413412094, -0.08415564149618149, 0.002686119172722101, -0.11318482458591461, 0.08330100774765015, -0.06816227734088898, -0.020924413576722145, 0.02404169738292694, 1.5395982265472412, -0.1733018457889557, 0.06446944177150726, 0.07717572897672653, -0.3399970531463623, 0.04105749726295471, 0.007352947723120451, 0.007517755031585693, -0.01121748611330986, -7.353306293487549, -0.026760365813970566, 3.817425012588501, 0.9843909740447998, 0.0001936842018039897, -0.11326112598180771, -0.017347101122140884, 0.5268992781639099, -0.27755481004714966, -1.0139238834381104, 2.6213736534118652, -0.026072736829519272, -0.291369765996933, 0.15061631798744202, 0.00892986822873354, 0.356987327337265, -0.6859490871429443, -0.17396710813045502, 1.8219865560531616, 2.138805627822876, -0.6394129991531372, 0.8002298474311829, -0.02282896265387535, -0.7155759930610657, -0.1885114163160324, -6.411252975463867, 1.6904845237731934, 0.00467284070327878, 0.017255809158086777, 0.00039243121864274144, 0.0006530209211632609, 0.0040301973931491375, -0.004378159064799547, 0.003500085324048996, 0.027370493859052658, 11.859621047973633, 0.0006769992760382593, -1.007185459136963, 0.018459171056747437, 0.21421468257904053, -0.4225504994392395, 0.28342539072036743, 0.5788849592208862, 4.438000202178955, -0.7484835982322693, -0.4461384415626526, 0.006461101118475199, 0.25514161586761475, -1.6178534030914307, 0.11119232326745987, 0.6950339674949646, 11.293203353881836, -0.008880202658474445, -0.0013966597616672516, -0.0023393677547574043, 0.00953928753733635, -0.176813542842865, -0.08225107938051224, 0.306755006313324, 12.756282806396484, 0.0004269214696250856, -1.6443232297897339, -0.24449270963668823, -0.0025050004478543997, -0.1960294544696808, 0.01562514901161194, 0.03825407102704048, 0.1692616194486618, 0.10218004137277603, -0.03782453015446663, 0.010489148087799549, -0.01832168735563755, -6.755026340484619, -0.32323116064071655, -0.5090925097465515, 0.16216932237148285, 0.0017125706654042006, -1.3448665142059326, -0.02302667126059532, 0.38779717683792114, -0.020098622888326645, 0.16317743062973022, 1.9276108741760254, 0.43092796206474304, -0.9455742239952087, 0.0013872142881155014, 0.007433815393596888, 0.02165498025715351, -5.713541507720947, 0.8346409797668457, -4.753373622894287, -0.007948753423988819, 0.010466182604432106, 0.019763512536883354, 0.005682023242115974, -0.03184204921126366, -1.5868968963623047, -0.01754748821258545, 0.7272586822509766, 12.787847518920898, -0.020420016720891, 0.1480802446603775, 1.3405684232711792, -0.011831535026431084, -0.9262081384658813, 0.04508599266409874, 0.964310348033905, 0.000757710775360465, -0.0004322084423620254, -0.018313731998205185, -1.233290672302246, 0.04100235551595688, -0.6136553883552551, -1.3888493776321411, 0.7212330102920532, 0.00458180159330368, -0.00881276000291109, -0.04982861503958702, 0.02378406561911106, 0.0288316048681736, -0.38091763854026794, -7.430878162384033, 1.8282732963562012, 0.2263602465391159, -0.0035679745487868786, -0.8799858689308167, 0.033387403935194016, 0.2553562521934509, -0.3083992600440979, -0.05592425912618637, 1.6950331926345825, 0.7957176566123962, -2.9915378093719482, -0.5010387897491455, 0.0002859526430256665, 0.6748987436294556, -0.1725340634584427, 0.6686384677886963, 2.7877862453460693, -0.11866199225187302, 0.02808651141822338, -0.026720328256487846, -1.1182116270065308, -0.029196524992585182, -7.639053821563721, -0.07197170704603195, 5.747868061065674, 0.01121197734028101, 0.000166439451277256, -0.04417082294821739, -0.003902183845639229, 0.04083602875471115, -5.6407060623168945, -1.4671838283538818, -0.4648650884628296, 3.616194009780884, -0.007322785444557667, 0.0003338131355121732, 0.004063962493091822, 0.006353702396154404, -1.0334210395812988, 0.1387241631746292, 0.4643514156341553, -1.101722240447998, 0.0194037277251482, -0.10906785726547241, -0.054471954703330994, 1.5128134489059448, -0.2349572330713272, -0.014272984117269516, 1.2647544145584106, 0.11875586211681366, -0.5638343095779419, -0.025343282148241997, -0.005450661294162273, 0.017394162714481354, -5.510831832885742, -1.7529900074005127, -3.2883565425872803, 0.00012968573719263077, -0.010453739203512669, -0.061601053923368454, -2.1456046104431152, 0.2709995210170746, -3.157555103302002, -0.4676046371459961, 1.159278392791748, 0.2752181589603424, 0.1163010224699974, -0.06556515395641327, 0.0033634419087320566, -4.06214714050293, 0.023014293983578682, 0.03007899597287178, 0.13769623637199402, 2.0905840396881104, -0.21838471293449402, 0.0024697298649698496, 0.003247311804443598, -0.1067817211151123, 2.3553712368011475, 3.885493755340576, -9.483796119689941, -0.01827278360724449, 0.04324899986386299, 0.05257463827729225, 0.0027746392879635096, -0.06467500329017639, -3.98368239402771, 0.8136935234069824, 3.8904266357421875, 4.9309468269348145, -0.009506925009191036, -0.6616448760032654, 0.09294462203979492, 1.1215492486953735, -1.928348183631897, -0.8192793726921082, -2.842170000076294, -0.11109428107738495, -1.4720993041992188, 0.019521985203027725, 0.7290368676185608, -0.036700207740068436, -4.282324314117432, -2.9358463287353516, 3.4881253242492676, 0.023747559636831284, -0.001699968590401113, 0.07805636525154114, -0.7789557576179504, 0.014186019077897072, -4.782293319702148, 0.29175370931625366, 0.5660421252250671, 0.1688118427991867, -0.043553583323955536, -0.02770315110683441, 0.009699142538011074, 0.3593541979789734, -0.5564669370651245, -0.3521023392677307, 2.1667463779449463, 0.024962719529867172, -2.1976382732391357, 0.32897186279296875, -1.1398606300354004, -0.007109892554581165, -1.8783578872680664, 0.2153017520904541, 2.5617971420288086, 0.08905605226755142, -0.10969950258731842, 0.43554070591926575, 1.8034518957138062, 0.07703451812267303, 0.20616325736045837, 0.5411233305931091, 1.9323716163635254, -0.03716937452554703, -0.19986486434936523, 0.2231757491827011, -0.005797675810754299, 0.08620009571313858, -3.6211068630218506, 0.6605973243713379, -0.24924619495868683, 7.996842861175537, -0.05787388235330582, 0.001938295434229076, 0.0006916221464052796, 0.004247858189046383, -0.011339351534843445, 0.012086868286132812, 0.014895276166498661, 11.861279487609863, -0.0028951799031347036, -0.003233973402529955, 0.0021623997017741203, 0.003692216705530882, -0.07620970159769058, -0.0014745020307600498, 0.0508386604487896, 11.866963386535645, -0.005086574237793684, 0.01065750140696764, -0.008068515919148922, 0.006641799118369818, 0.07124466449022293, 0.7650163173675537, 0.8468120694160461, -0.8622075319290161, -0.010710550472140312, -3.3873701095581055, -0.002091004280373454, -0.023921700194478035, -0.04002302139997482, -0.06648385524749756, -0.041325293481349945, 0.11014921963214874, 0.12665872275829315, 0.011917619965970516, 0.017970114946365356, -4.357089519500732, -0.10868570953607559, 0.019803917035460472, -0.07873981446027756, 0.04591315612196922, -0.22599035501480103, -0.9904355406761169, -0.04398719221353531, 0.004549834877252579, -0.09808589518070221, 0.005909850355237722, -0.03982330113649368, 0.032415345311164856, -0.08583620190620422, -0.021305561065673828, -2.072345018386841, -0.7595230937004089, -3.7801597118377686, 0.14495640993118286, 4.778995037078857, -0.04973306506872177, 0.21006475389003754, -0.12259873002767563, -0.003168689552694559, -3.1551315784454346, 0.11687705665826797, 0.03853335976600647, 0.31263279914855957, 0.03541760519146919, 1.8685386180877686, 0.5000013709068298, -0.03623092919588089, -0.23666971921920776, 0.40711429715156555, 0.13317713141441345, -5.374301910400391, 1.0941623449325562, -0.0634860098361969, -1.854293704032898, 0.007918444462120533, 1.361052393913269, -0.01486262958496809, 0.20654833316802979, 0.4180082678794861, 5.176072597503662, -0.20895808935165405, 0.29132279753685, -1.3304275274276733, 0.16502103209495544, -0.11570993810892105, 0.7059820294380188, -0.787869393825531, 0.32505300641059875, 0.06909074634313583, 0.0817520022392273, 0.8239226937294006, 0.03130773827433586, -3.4925553798675537, 0.7340832352638245, -2.551110029220581, 0.20732247829437256, -0.013952613808214664, 0.8871333003044128, -0.09192978590726852, -3.425048589706421, -2.949172258377075, 0.6517375707626343, 2.480724334716797, 0.07014741003513336, 1.359139084815979, -0.03744886815547943, 0.0024788943119347095, 0.11957297474145889, -1.7605334520339966, -5.989696025848389, 7.668879508972168, 0.01169695146381855, 0.007131713442504406, -0.3018791079521179, -0.0018375236541032791, -0.08610124886035919, 0.26723000407218933, -0.07563627511262894, 0.47260645031929016, -0.02288924530148506, 0.9101117849349976, 0.863704264163971, -0.0016429440584033728, -1.4170770645141602, -0.01743282563984394, 0.3423645496368408, 0.3676234781742096, 5.249448776245117, 0.5217888355255127, 0.38074347376823425, -1.92021644115448, 0.09286118298768997, 0.35364091396331787, 0.22693924605846405, 1.7198796272277832, -0.040399741381406784, -0.3621574640274048
       ]
    },
    {
      "activation": "rectified",
      "architecture": "dense",
      "bias": [
 -0.7774549722671509, -0.8089370131492615, 0.08105751872062683, -1.8218235969543457, 0.205520361661911, 0.12018901854753494, 1.453794240951538, -0.3399948179721832, 0.5808697938919067, -0.7211431264877319, -2.2650885581970215, 0.6198114156723022, -2.4473559856414795, -0.41056862473487854, -5.295419216156006, -1.1828417778015137, -0.07828616350889206, 0.6285682916641235, 0.7668479084968567, -1.1495434045791626, -5.037840843200684, -0.6491572856903076, 2.5577898025512695, 0.5519213080406189, -0.3661656379699707, 0.17057682573795319, 0.9228970408439636, -0.16055640578269958, -0.19513817131519318, 0.2721131145954132, 0.841216504573822, -0.2480551153421402, 0.08369875699281693, 0.7803485989570618, -2.6697239875793457, 0.14735841751098633, -0.27777528762817383, -0.3923422694206238, 0.31498271226882935, -0.32300063967704773, 0.4852828085422516, 0.7079085111618042, -1.6178995370864868, -0.46569347381591797, 1.4212743043899536, 0.18158620595932007, 0.36565548181533813, -0.2768612504005432, 0.03482324630022049, -0.867435872554779, -2.7125086784362793, 1.6709684133529663, 0.7332702875137329, 0.42621558904647827, -1.9321422576904297, 0.9865038990974426, 1.5974997282028198, 0.5238971710205078, 0.2636868953704834, -3.451714277267456, -0.3468836843967438, 2.452716827392578, -0.9497514963150024, 1.2517963647842407, -0.6851447224617004, 0.2634366750717163, 0.892325758934021, -0.3526478409767151, -0.3985920250415802, 0.4572348892688751, 0.20903055369853973, 0.31720754504203796, 0.45261162519454956, -1.4887137413024902, -1.0661081075668335, -0.2789791524410248, -3.744433641433716, 0.6939471364021301, -2.4823431968688965, -3.3720576763153076, 0.16429433226585388, -0.1801047921180725, -0.9641344547271729, -0.7284696102142334, 1.5172017812728882, -0.17572999000549316, -1.44959557056427, 0.1340659260749817, 0.30174657702445984, -0.9801448583602905, -1.061205267906189, 0.2414376139640808, -0.19736036658287048, -0.4279092252254486, 1.1093918085098267, -6.940669536590576, 0.6810668706893921, 1.7233113050460815, -1.1616154909133911, -0.55809485912323
       ],
      "weights": [
 -0.6278877854347229, -37.56991958618164, -1.4251571893692017, 0.41124704480171204, -2.2598984241485596, 2.4288907051086426, 4.256496429443359, -1.657263159751892, 0.11511244624853134, 0.7453756928443909, 0.4042614698410034, -4.734379768371582, 0.009137677028775215, -3.3199853897094727, -0.04582272469997406, 0.3251272737979889, 0.5254380106925964, -23.905296325683594, 0.0010711976792663336, -1.2788784503936768, -1.390784740447998, -2.393846035003662, -12.101176261901855, -1.1520124673843384, -1.1460275650024414, -0.3934643864631653, 0.2954306900501251, -1.4554829597473145, 0.7473489046096802, -7.040459632873535, -10.926145553588867, -1.2464035749435425, -1.8328351974487305, -0.731306254863739, 0.1739453673362732, 0.14197051525115967, -0.6398881673812866, 0.23255915939807892, 1.136936068534851, -0.582978367805481, 0.6283409595489502, -1.1641560792922974, -0.8106602430343628, -1.1589280366897583, 1.3354074954986572, -0.13927112519741058, -0.9463642835617065, -1.6140419244766235, -1.1085996627807617, -1.6716583967208862, 0.8248674273490906, 0.08887971192598343, -0.10503139346837997, -31.887582778930664, -3.348679542541504, -17.839487075805664, -25.41865348815918, -5.33493709564209, -5.7317938804626465, 1.3476111888885498, 1.145951509475708, -35.457157135009766, 0.5747348666191101, 0.5444687604904175, -0.6831293702125549, -0.6347934603691101, 1.0621551275253296, -0.06509651243686676, -4.675374984741211, 0.24796292185783386, -2.767392873764038, 2.2054083347320557, 0.011219947598874569, -3.3467109203338623, 0.2528682351112366, 0.05991644784808159, -0.06515293568372726, -0.3338111639022827, -3.0265378952026367, 0.2222949117422104, 1.1589930057525635, 0.9783356785774231, -6.479614734649658, -32.42517852783203, -33.22206497192383, 0.9234378933906555, 3.407711982727051, 0.5599159598350525, -1.5347439050674438, 1.1681272983551025, 0.4643731117248535, -0.20812837779521942, -8.031659126281738, 0.46063676476478577, -1.0497454404830933, -0.13456320762634277, -0.013987447135150433, -1.3755393028259277, -2.954705238342285, 0.3309933543205261, -1.385258674621582, 3.743579149246216, -0.1840968132019043, 0.025613131001591682, 0.7286726236343384, 2.677211284637451, 2.90948748588562, -0.02928439900279045, -0.09458588063716888, 1.3839234113693237, 0.5413393378257751, -4.838883399963379, -6.037529468536377, -0.47837457060813904, -0.1147877499461174, -19.26900291442871, -1.8667221069335938, 0.25613340735435486, 0.014603930525481701, -0.1144973635673523, 0.2524827718734741, 0.6965781450271606, 0.16659075021743774, -13.617185592651367, -0.04720598831772804, -0.4014089107513428, -0.15669164061546326, -6.947365760803223, 1.2891207933425903, 0.8403881788253784, 0.8646079301834106, -2.544731616973877, -3.9238765239715576, -1.3628365993499756, 0.4298810362815857, 0.40715616941452026, -1.49740469455719, 0.364774227142334, -3.503068208694458, -0.042716026306152344, 0.38058677315711975, -0.0048087965697050095, 1.1375396251678467, 0.05449613183736801, -6.947925090789795, -7.626685619354248, -3.2573444843292236, 0.07301429659128189, -0.08218506723642349, -0.509296178817749, 0.6619918942451477, 0.44103696942329407, -25.81983757019043, 2.8900949954986572, 0.05692952498793602, 0.6723681092262268, 1.9193471670150757, -4.468577861785889, 1.6517682075500488, 0.5939004421234131, 2.14168381690979, -0.10030987113714218, 0.19912764430046082, 0.15741993486881256, 0.5914694666862488, -0.05035443231463432, 0.4048088490962982, -0.30519673228263855, 1.8538941144943237, 2.828866958618164, 0.36465588212013245, 1.2495732307434082, 0.3716334402561188, -34.87684631347656, -0.31436416506767273, 0.04827110469341278, -0.23676447570323944, 0.027421768754720688, -0.14063285291194916, 0.14860506355762482, -0.025357233360409737, -0.21773552894592285, -0.5989432334899902, 2.987929344177246, 3.582671642303467, -3.6846656799316406, -6.016921520233154, -38.702796936035156, -0.8692646026611328, 0.6660373210906982, 0.02601994387805462, -1.929695963859558, 0.38693076372146606, 0.1265149712562561, -0.05863029137253761, -16.315614700317383, 0.12406016886234283, 0.07440143078565598, -10.795906066894531, -0.2673853635787964, 1.474358081817627, 6.05789041519165, 0.08379794657230377, 0.43528541922569275, -3.5307810306549072, -10.89927864074707, -7.5085768699646, -0.06005454808473587, -0.8051347136497498, -0.6861132383346558, -0.47626790404319763, -0.049711987376213074, -7.161743640899658, -23.808977127075195, -2.146679401397705, 0.08544179797172546, -0.3683248460292816, -0.41264015436172485, -4.443342685699463, -0.054383374750614166, 0.15061673521995544, -25.6468563079834, 2.1255688667297363, -0.5414034724235535, 0.2324739694595337, -2.870854616165161, 0.1557539403438568, -9.256391525268555, -5.933228015899658, 0.040568068623542786, -3.659703254699707, -0.816275417804718, -0.5793982148170471, 0.2789687216281891, -2.249372720718384, -7.629180431365967, -0.52920001745224, 0.00762690557166934, -9.870475769042969, -0.6669109463691711, -0.25370657444000244, 0.39395833015441895, -0.8918130993843079, -1.7766119241714478, 0.24486517906188965, -0.5531669855117798, -2.1741530895233154, -0.35622313618659973, -0.09153634309768677, 1.023806095123291, 0.030893729999661446, 0.028144115582108498, -1.4681925773620605, 22.000471115112305, -0.05673970654606819, 1.2957178354263306, 2.95624041557312, -1.9283123016357422, 4.81956148147583, -1.5376957654953003, -1.554246425628662, 2.148327589035034, -0.05925217643380165, -0.28124165534973145, -28.553001403808594, -1.3222311735153198, -0.15224924683570862, -2.448603868484497, -0.48686856031417847, -3.6311094760894775, -0.2638488709926605, -11.280481338500977, -1.6765127182006836, 0.43612322211265564, -0.0028300657868385315, 0.07434407621622086, -0.01622004806995392, -2.08845853805542, -0.821923017501831, -0.20214347541332245, -0.44476568698883057, 0.0754212811589241, 0.8594114780426025, 22.68783187866211, 11.05624008178711, -6.275858402252197, -6.486698150634766, -0.2458331137895584, -1.0306694507598877, -0.7688735723495483, 0.06579843163490295, -2.252986192703247, 0.11659176647663116, -0.04529958218336105, -0.8060555458068848, -0.2013929784297943, -1.118487000465393, 0.10566318780183792, 0.8255361318588257, 0.13360904157161713, 6.298999786376953, -7.168564319610596, -0.07168017327785492, 0.7494092583656311, 1.449863076210022, 5.470552921295166, 7.173503398895264, -0.043382517993450165, -1.4225623607635498, 0.16696061193943024, -0.22651633620262146, -1.0186046361923218, 2.0054831504821777, 2.108891248703003, -14.991185188293457, 0.1804996281862259, -0.10943334549665451, -0.5075678825378418, 2.847574472427368, -5.821254253387451, -7.182588577270508, 1.4494633674621582, 0.3342755436897278, -0.1737137734889984, -1.4647594690322876, 0.48732486367225647, -0.9380397200584412, -10.63990306854248, 1.104779839515686, -2.217258930206299, 2.63808274269104, -0.19324183464050293, 0.21753722429275513, -8.553165435791016, -0.748227059841156, 0.5049777626991272, 0.07689578831195831, -2.274813413619995, 2.4414820671081543, -1.37204909324646, -17.948522567749023, -2.4997942447662354, 1.3228200674057007, -0.4570443034172058, -4.007671356201172, 0.21406088769435883, -4.114325523376465, -0.11240632832050323, 0.06291109323501587, 2.4776179790496826, 0.33952921628952026, -0.7701914310455322, 0.14106342196464539, 3.8400866985321045, -3.844050168991089, -7.221136569976807, -6.857707977294922, -0.922455370426178, 0.31480735540390015, -0.10339698195457458, 4.654261589050293, -2.138741970062256, -4.772367477416992, -5.819312572479248, 0.9602501392364502, 0.19739915430545807, 0.5614506602287292, -13.730836868286133, 2.861583948135376, 4.854255676269531, -0.06363961845636368, 2.010983467102051, -10.652685165405273, -1.2042514085769653, 0.23302710056304932, -2.0747759342193604, 0.028131306171417236, -0.8244701027870178, -1.2290273904800415, 0.23236167430877686, -3.730318069458008, -15.494976043701172, 1.9916572570800781, 6.091231822967529, -5.381750583648682, 1.3473289012908936, -1.4901264905929565, -0.035285260528326035, -0.5627819895744324, -17.528642654418945, -0.024532007053494453, 0.8084042072296143, 0.018266862258315086, -2.7572264671325684, -0.9133360981941223, -0.12060526758432388, 0.17817281186580658, 0.08077867329120636, 0.10079431533813477, -18.28574562072754, 1.0434306859970093, 4.840081691741943, 0.11689474433660507, -0.028551306575536728, -1.1575260162353516, -6.099491596221924, -14.351004600524902, -0.4475463032722473, 0.45689311623573303, 0.5407373309135437, -2.6854634284973145, -2.245130777359009, -6.264156818389893, -4.136651992797852, -2.7115366458892822, -4.469213962554932, -0.3416934907436371, 0.12362401932477951, -3.027824878692627, -6.708546161651611, 0.06701217591762543, -18.75234031677246, 0.6917853355407715, -0.30525878071784973, 0.2476852983236313, 0.024199290201067924, -1.3046770095825195, -14.45512866973877, -2.613825798034668, 0.36333373188972473, -0.9082472920417786, -1.3269455432891846, -0.36285799741744995, 1.7579386234283447, 0.4181918203830719, -1.11245596408844, -0.14132340252399445, 0.4830065667629242, -4.409552574157715, 0.25749921798706055, -5.469128131866455, 0.2876589298248291, -1.3762127161026, -0.6640301942825317, -18.11414909362793, 1.3846062421798706, -20.018136978149414, -1.0055116415023804, 0.047325097024440765, -1.2597919702529907, -1.3091847896575928, -0.43048083782196045, -0.6289946436882019, 6.526040554046631, 0.05573629215359688, 0.8295473456382751, 3.458381175994873, -3.6627197265625, -2.2571358680725098, -7.511719226837158, 1.4011895656585693, 0.7438490986824036, -0.739866316318512, -0.1727667897939682, -3.225356340408325, 0.3428628444671631, -4.626437664031982, -0.6578394770622253, 0.7724476456642151, -7.626070022583008, -4.5343918800354, -14.700512886047363, -9.59103775024414, -4.4066996574401855, -0.1319589763879776, 0.02587614394724369, -0.5962725877761841, 0.19919970631599426, -0.43852126598358154, -0.21206635236740112, -1.7012641429901123, -9.173138618469238, 0.3460228443145752, 7.029782772064209, 6.310306549072266, -4.748032093048096, -7.9928412437438965, -3.3612406253814697, -1.9449462890625, -18.57487678527832, 0.13654372096061707, -1.8682678937911987, 0.1634705513715744, -8.1710844039917, -0.08186766505241394, 0.8597462773323059, -6.347891807556152, -0.0063023073598742485, -0.006251394283026457, -12.028728485107422, 0.7612470984458923, 2.4305543899536133, -1.0903030633926392, -4.958432197570801, -2.8859357833862305, 1.8667619228363037, -0.36885759234428406, -10.156641006469727, -0.6496380567550659, 0.04228780418634415, 0.1822509765625, -1.476549744606018, -4.05043888092041, -6.61416482925415, -0.38599833846092224, -1.2116646766662598, 0.03825411573052406, 0.2409505844116211, -6.387956619262695, -1.533298373222351, 0.23537340760231018, -13.630707740783691, 0.5536268353462219, -0.6046419143676758, 0.05509819835424423, 0.30286794900894165, 0.4744102656841278, -8.083581924438477, -0.554057240486145, 0.7210167646408081, -15.942303657531738, -0.05922062322497368, -1.3469390869140625, -0.3110244572162628, 0.15754081308841705, 0.015086137689650059, -0.884389340877533, 0.3747074007987976, -1.959761381149292, -0.7818451523780823, -0.36263522505760193, -0.0332549624145031, -3.8918612003326416, -1.0742661952972412, 0.48141250014305115, -0.8234402537345886, 0.06229821965098381, -0.25081008672714233, -11.375893592834473, 0.3022623658180237, 0.0596369132399559, -0.6639222502708435, -1.5441830158233643, 15.829042434692383, 0.045664217323064804, -0.30981263518333435, 1.328157663345337, -6.749661922454834, -14.847784996032715, 0.07941984385251999, -7.970407009124756, 0.7569651007652283, 0.3595936894416809, -0.05667716637253761, -3.8242900371551514, 0.08978628367185593, 0.4014023244380951, -0.7983901500701904, -3.220820188522339, -9.529448509216309, -3.231004238128662, -1.80330491065979, -10.32352066040039, -2.0862433910369873, -0.31212490797042847, -0.18955764174461365, -6.627648830413818, -1.3742519617080688, -2.2000105381011963, -0.02446143515408039, 0.3961072862148285, 0.2534431219100952, -1.3346037864685059, 15.974981307983398, 6.27859354019165, -2.074052333831787, -9.62690258026123, -8.647031784057617, 0.3267247974872589, -0.3901795744895935, -0.5236285924911499, -11.996003150939941, 0.6553587317466736, -1.0142669677734375, -3.629697799682617, -0.9347163438796997, 0.3581756055355072, -1.570029616355896, 0.013707399368286133, 0.5406367778778076, -12.505975723266602, 0.9984416365623474, 0.23910321295261383, 0.20362652838230133, -2.5120532512664795, -19.504453659057617, -16.789020538330078, 0.06275442242622375, -0.5211079120635986, -3.5714802742004395, 0.5179107189178467, -4.315165996551514, -1.1532607078552246, -3.175096273422241, -6.267000675201416, -0.10877083986997604, -2.241567611694336, -5.407634258270264, 0.36073601245880127, 0.28943902254104614, -0.5776748657226562, -1.617889165878296, 1.4797987937927246, -7.311351299285889, -0.1871906816959381, -2.103508472442627, -0.09996799379587173, -9.2724609375, -22.960590362548828, -0.06424278765916824, -0.9733969569206238, -3.037843704223633, -0.9670032858848572, -7.486334800720215, -0.18825209140777588, -0.13837698101997375, -2.647984027862549, -0.38796645402908325, -1.0028592348098755, -0.46988341212272644, -1.1242971420288086, -0.585111141204834, -17.09438133239746, -0.8452975749969482, 0.4921450912952423, 0.3347115218639374, -0.22578087449073792, -1.0887371301651, 0.07533513754606247, -7.240352153778076, 0.4710322618484497, 0.652778685092926, 0.31913191080093384, 6.981837749481201, -0.32973548769950867, 0.1199660450220108, -1.925675868988037, -4.920859336853027, -2.2990150451660156, -0.651924192905426, -13.59117317199707, 1.0303213596343994, -0.1403512805700302, -0.04125424474477768, -3.340129852294922, -0.8311633467674255, 0.05957376956939697, -4.610076904296875, -23.874143600463867, 1.6551657915115356, 0.10796426236629486, -18.15253448486328, 1.102218747138977, 0.05013443902134895, -0.07373673468828201, -0.08510414510965347, -2.1786656379699707, -2.1588428020477295, -0.6945362687110901, 0.33645302057266235, -0.5609124898910522, 0.12997254729270935, -0.8120661377906799, 8.270169258117676, 3.4367103576660156, 2.9236698150634766, -8.602721214294434, -0.6935445070266724, -1.6033045053482056, -0.822270929813385, 0.1777549386024475, -0.32203954458236694, 0.2351171225309372, -0.10464835166931152, -1.2376530170440674, -1.0817612409591675, -0.0013003848725929856, -0.04268193617463112, -0.015392633154988289, 0.3315824270248413, 0.7378441095352173, 6.286291599273682, -0.20453612506389618, 0.5229220390319824, 0.1170862689614296, -23.338695526123047, -24.032407760620117, -0.011228225193917751, -0.3969535231590271, 0.46834927797317505, -0.3902413249015808, -0.6717440485954285, -0.00012474454706534743, -2.4901392459869385, -0.4610864520072937, -0.7994073033332825, 0.3873792290687561, 0.4962809085845947, -1.5063071250915527, -0.16690225899219513, -0.050866611301898956, -8.657414436340332, 0.7039535045623779, -9.950848579406738, 0.4267157018184662, -1.4633227586746216, 0.12188210338354111, -2.8630874156951904, -0.5556362271308899, 0.025169722735881805, 0.33360955119132996, 1.4631571769714355, -0.7874541878700256, -0.10809847712516785, -0.014742850326001644, -7.248887062072754, -0.23229250311851501, -0.12953338027000427, -15.113633155822754, -0.2327447533607483, 0.8251798152923584, 0.1697629690170288, -0.6446849703788757, -0.2701006233692169, 0.4758104383945465, -0.9779770374298096, 0.2850983440876007, -0.5487391352653503, 0.03782344609498978, 0.590925395488739, 0.1891029179096222, 0.1283322125673294, -6.7599663734436035, 27.784626007080078, -0.010750260204076767, 0.340640127658844, 2.7035131454467773, -3.6118764877319336, 2.8721272945404053, -0.26227912306785583, -0.09470546245574951, 1.4373364448547363, 0.04609724134206772, -0.05547775328159332, -2.995915174484253, 0.029836736619472504, -0.09053073823451996, -0.27673473954200745, 0.9973682165145874, -4.017819881439209, -0.07409539073705673, -26.751068115234375, 0.017203733325004578, -1.8442763090133667, 0.10335848480463028, 0.032197505235672, 0.0892045646905899, -0.4648679792881012, -0.3130018711090088, -0.3314701318740845, -0.21694038808345795, 0.03955560922622681, 0.537068247795105, 29.088899612426758, 13.255293846130371, 0.977401614189148, -2.6724541187286377, -11.530112266540527, 0.15304292738437653, 0.49842989444732666, -0.04754374176263809, -1.6557316780090332, -0.045009881258010864, -0.21234630048274994, -0.31674376130104065, 0.42739662528038025, -2.804614543914795, 0.0813373401761055, 0.10273664444684982, -0.13170890510082245, -3.967466115951538, -51.38032150268555, 0.1173836961388588, 0.8892006278038025, -0.11394248157739639, -13.501398086547852, -15.57628345489502, 0.010844024829566479, 0.1307201087474823, -0.20594997704029083, -0.5559268593788147, 4.445390224456787, -13.8778657913208, 0.1567022204399109, 0.9574778079986572, 0.05322174355387688, -0.2166517674922943, -0.49377453327178955, -2.4932425022125244, 1.1683872938156128, -10.502950668334961, 0.3864620625972748, -0.9682733416557312, -0.03763015568256378, -0.6073015928268433, 0.8060338497161865, -3.9323036670684814, 2.0622804164886475, -0.6336057782173157, 0.16160428524017334, 0.25977811217308044, 2.3094687461853027, -0.43397653102874756, -2.5217888355255127, 0.040155909955501556, 0.0972529724240303, -0.3820524215698242, 0.2553311884403229, -0.06997791677713394, 0.24135442078113556, -0.6584253907203674, -9.33005428314209, 0.7151784896850586, 0.6278650760650635, -1.2441774606704712, -0.002935851691290736, 0.17729301750659943, 0.8451947569847107, 0.054007913917303085, -9.299089431762695, 0.02648736536502838, -0.2453576922416687, 0.18276599049568176, -56.6046028137207, 0.575464129447937, -1.7103689908981323, -19.07086753845215, 4.134160041809082, -2.4958395957946777, 1.546852707862854, -2.6745986938476562, -10.213878631591797, 0.4020989239215851, 0.7144832611083984, 0.045208971947431564, -0.1187671422958374, -0.28895246982574463, 0.8690807223320007, 0.0782398134469986, -18.71834373474121, 0.05320628732442856, -5.078242301940918, 1.179828405380249, -0.3312009572982788, -1.0934590101242065, -8.082411766052246, 0.42825451493263245, 0.4433463513851166, 0.3304829001426697, 0.15016494691371918, 0.24991817772388458, 0.09668397158384323, -0.40509411692619324, -57.71282196044922, -62.969093322753906, -8.666937828063965, 5.204006195068359, 0.40544047951698303, 1.2658809423446655, -0.6161202788352966, 0.36354026198387146, 0.4555661678314209, 0.44097787141799927, 0.4009963572025299, 0.9103647470474243, -0.10885734856128693, -0.053605616092681885, -0.2695189416408539, 0.27480870485305786, -0.2132183164358139, -0.4091956615447998, -14.34036636352539, 0.05616907775402069, -0.4071812033653259, 0.4524376094341278, -1.287447452545166, -0.2853034436702728, -0.18254050612449646, 0.17123784124851227, 0.4242035150527954, -0.21955566108226776, -15.110053062438965, -2.4918391704559326, 0.3106101155281067, -0.35025739669799805, 0.15506526827812195, 0.025440119206905365, 0.043043021112680435, 0.8170716166496277, 0.13118255138397217, -6.462522983551025, 0.3197820484638214, -12.139263153076172, 2.1788313388824463, -1.9720109701156616, 0.24803122878074646, -0.10075867921113968, -12.69138240814209, 0.5388206839561462, -4.925886631011963, 0.6917898654937744, -10.462255477905273, -0.04808197543025017, -0.8504876494407654, -0.1748499572277069, 0.960650622844696, 0.12977193295955658, -0.7310308814048767, 2.3800876140594482, -0.03870232030749321, 0.4705292284488678, -1.8387489318847656, 0.3497979938983917, 0.19825021922588348, -0.6907752752304077, 0.007880929857492447, -0.5330281853675842, -2.05294132232666, -0.26394662261009216, -3.781759262084961, -0.41084715723991394, -0.22534628212451935, 0.5939723253250122, -45.22093200683594, 0.33086273074150085, -0.767379105091095, -8.274402618408203, -16.474594116210938, -0.2641720771789551, 0.0986764132976532, -0.5334448218345642, -1.4521797895431519, 0.0861382931470871, 0.10976137965917587, -0.21835900843143463, -0.032611168920993805, 0.0866364911198616, -0.07699576020240784, 1.0023448467254639, 2.4453885555267334, -0.995741069316864, 0.4048841595649719, -0.5989821553230286, -0.48525819182395935, -1.0079203844070435, -1.9989774227142334, -0.23583394289016724, -0.002383154584094882, 0.2478972226381302, -0.17603442072868347, 0.5200551152229309, 0.3132036328315735, 0.6433804631233215, -46.59991455078125, -31.17314910888672, 1.130372405052185, -14.610128402709961, 0.029210256412625313, -5.367892265319824, 0.23353834450244904, -0.09383656084537506, -0.3719642162322998, -0.5665985941886902, 0.1488916277885437, 0.5527787804603577, 0.5477699637413025, 0.08282933384180069, -0.009626378305256367, 0.12105968594551086, 0.2932259738445282, -0.46018943190574646, 3.504399538040161, -0.19105195999145508, -2.0115554332733154, 0.8691964149475098, 3.558354616165161, 3.731806755065918, 0.1839831918478012, 0.008836898021399975, -0.41900765895843506, -0.09267706423997879, -3.5281691551208496, 3.229043960571289, 1.0723341703414917, -1.466632604598999, 0.28893089294433594, 0.1845410168170929, 0.6270365118980408, 1.4585251808166504, -12.957090377807617, 0.19185784459114075, 3.06076717376709, -4.707547187805176, 0.4262244999408722, 0.5658798813819885, 1.35654616355896, -1.103093147277832, -24.300180435180664, 2.06380033493042, -11.357781410217285, 1.3253380060195923, -2.8803985118865967, 0.01959717459976673, -2.4648869037628174, -0.23218771815299988, 0.7693384289741516, 0.5312538146972656, -0.22603288292884827, 0.8097681999206543, -0.015981687232851982, -1.3359636068344116, 0.07400543242692947, 1.0048274993896484, 0.41674578189849854, -7.419226169586182, -0.029777800664305687, -0.5404810309410095, -0.8305747509002686, -0.1318957358598709, 0.6143343448638916, -2.1408638954162598, -1.6602952480316162, 0.07013995945453644, 8.416535377502441, 0.37286269664764404, -0.45852309465408325, 1.5176202058792114, -4.415694713592529, 1.0621589422225952, 0.41444307565689087, 2.0027472972869873, 1.027842402458191, -0.853513240814209, -0.4666133522987366, 0.8238642811775208, -0.29787078499794006, -1.809089183807373, -0.7329627275466919, -0.21166756749153137, 3.3308215141296387, -5.5536417961120605, 1.8208080530166626, -8.961834907531738, 0.10716063529253006, -0.9587371349334717, 0.0506889633834362, -2.406745672225952, 0.2935287654399872, 0.584121823310852, -0.5426316261291504, -0.9510202407836914, -3.4677634239196777, 3.9644625186920166, 7.783121585845947, 4.636050701141357, 2.7950520515441895, -16.750146865844727, 0.09991901367902756, -1.2039543390274048, -1.264080286026001, 0.1720331758260727, -0.45375674962997437, -10.986465454101562, -2.0595860481262207, 0.31798020005226135, -0.06592867523431778, 0.2179379165172577, -0.16374735534191132, 0.6385279893875122, -14.190752029418945, -2.295876979827881, -9.309471130371094, 1.2829595804214478, 0.8753973245620728, -3.885875940322876, -8.43961238861084, -19.31874656677246, 0.2685393691062927, 0.8101328015327454, 1.2065070867538452, 0.20409396290779114, -1.4289097785949707, -2.3145010471343994, -3.4045491218566895, 0.5212451815605164, -0.4382174611091614, 0.306558221578598, -6.647446632385254, -2.284656286239624, -0.5152699947357178, -1.9547464847564697, -2.0562288761138916, 0.8392000198364258, -0.9066382646560669, -5.0719146728515625, -0.5695590972900391, 1.0585469007492065, -6.478915691375732, -4.376510143280029, -0.2687531113624573, -4.997411251068115, -0.23718763887882233, 0.457476943731308, -5.111412048339844, -0.6989161968231201, -0.8689507246017456, -0.4254336357116699, -2.641167163848877, -5.59588623046875, 0.4538601040840149, -0.6805980205535889, -3.0894875526428223, -1.3755916357040405, 0.644136905670166, 0.43532595038414, 0.2091788947582245, -2.1693806648254395, 0.46467500925064087, 0.33076417446136475, -1.2871166467666626, -1.3109393119812012, -2.2154321670532227, 0.13484521210193634, -13.048723220825195, 0.12550662457942963, -10.900062561035156, -10.393798828125, 0.631417989730835, -14.366471290588379, -2.866231679916382, -3.768376588821411, -14.870901107788086, 0.06395768374204636, 0.18181036412715912, -0.9684935212135315, -14.14421272277832, 1.9493416547775269, 0.42160749435424805, -12.6287841796875, -10.351554870605469, 0.11491847783327103, -10.557538986206055, -0.4311864972114563, -5.781439781188965, -0.08051182329654694, -1.2527347803115845, 1.7036018371582031, 0.6073707342147827, 0.5309152007102966, -1.579529047012329, -0.24247944355010986, -0.14783596992492676, -0.6300858855247498, -14.557168006896973, -10.15689754486084, -3.19568133354187, -0.04393444210290909, -0.07986415177583694, -0.3060225248336792, -0.3739255368709564, -0.17081798613071442, -1.94985830783844, -1.1776713132858276, 1.3024349212646484, 1.4129054546356201, 0.5943674445152283, -0.4483785033226013, 0.10195042192935944, 1.1034868955612183, -0.10900599509477615, 2.3474550247192383, -9.203335762023926, 0.09282322973012924, 0.9912948608398438, 0.30563080310821533, 9.067397117614746, 9.248942375183105, 0.12803411483764648, 0.4134741723537445, 0.02524600736796856, -5.670458793640137, -0.9050049185752869, -0.8426424860954285, 0.540229320526123, 0.511782705783844, -0.29146143794059753, 0.5659940838813782, 0.07879188656806946, 1.099836826324463, 2.4233858585357666, -4.928207874298096, 1.026182770729065, -2.156731128692627, 0.4715259075164795, -0.4149799644947052, 0.7767923474311829, -3.6705617904663086, -6.534218788146973, 1.9998029470443726, -8.299906730651855, 1.110547661781311, -0.7617982029914856, -0.5416348576545715, -9.741745948791504, -4.080803394317627, 0.17111878097057343, 0.06844475120306015, -4.911743640899658, -1.4234652519226074, 0.3940558433532715, -0.11409037560224533, -0.9665882587432861, 1.0793890953063965, 0.18151159584522247, -0.23173008859157562, 0.028830507770180702, -1.838201642036438, -0.039414603263139725, 0.219419464468956, -0.18409034609794617, -1.0942533016204834, 0.36205098032951355, 0.06674547493457794, -22.864242553710938, 1.0426510572433472, -1.8061002492904663, -4.728506088256836, -2.3856587409973145, 3.517754316329956, -0.783812403678894, 1.19256591796875, -2.1951112747192383, 0.3844783902168274, 0.4028165340423584, 0.07572434842586517, 0.8604432344436646, -5.802526950836182, 0.5472712516784668, 0.6802127361297607, 6.443057060241699, -2.868492364883423, 5.177085876464844, 3.123749256134033, 0.09158651530742645, 1.2549505233764648, -2.3558664321899414, 0.24738916754722595, 0.21917851269245148, 0.3580070436000824, -0.16687290370464325, 0.3189014792442322, 0.2608701288700104, 0.22248193621635437, -20.67119789123535, -18.492267608642578, 3.4024479389190674, -5.327726364135742, -1.0509037971496582, -0.4703274965286255, 0.283582866191864, -0.976428210735321, -6.839804700575769e-05, -0.8506264686584473, 0.06862574815750122, -0.0010404075728729367, -0.061634909361600876, -3.7694201469421387, -0.17373192310333252, -0.2578185796737671, 0.3434855043888092, 1.0741726160049438, 3.675159215927124, -16.70258140563965, -1.7846444845199585, -0.025787929072976112, 1.136276364326477, -0.9105113744735718, -0.5906436443328857, 0.22655072808265686, -0.7630941271781921, -0.579740583896637, -0.5361900925636292, -7.286868095397949, 0.13474856317043304, 0.42557039856910706, -0.08083895593881607, 0.028150904923677444, 0.14114467799663544, -0.3118836283683777, -0.8922567367553711, 0.22615908086299896, -0.7348443269729614, -4.721980094909668, 0.13046857714653015, -1.654326319694519, -0.16713902354240417, -1.213049292564392, -10.143895149230957, -0.48886120319366455, -18.198287963867188, 0.0027791860047727823, -0.3943701982498169, 0.08649037778377533, -10.510931015014648, -0.02292647212743759, -0.1041281446814537, 0.11600311845541, -16.37175750732422, -0.16583696007728577, 0.19967322051525116, -0.3810230791568756, 0.428341269493103, -0.22525928914546967, 0.31665322184562683, 1.1416480541229248, -0.0012790658511221409, -7.366520404815674, -0.1177147701382637, -0.17916859686374664, 1.4115054607391357, -3.2561676502227783, -1.8738871812820435, -0.0327371209859848, 9.756813049316406, -0.3368173837661743, -2.258211374282837, 1.9416991472244263, -0.21560190618038177, 7.751344203948975, -0.910126805305481, 8.367562294006348, 1.1349163055419922, 0.006365062203258276, 0.0874558761715889, -0.0173459742218256, -7.497230529785156, -22.45686149597168, 0.5382218360900879, 0.40589410066604614, 13.785568237304688, -7.285489082336426, -2.2782468795776367, 0.2364545613527298, -0.019800247624516487, -0.34453457593917847, 0.07383156567811966, -0.24752604961395264, 0.20896552503108978, 0.6053232550621033, -0.45768171548843384, -0.11124242842197418, -0.2018999606370926, 0.15754953026771545, 10.707914352416992, 6.2517313957214355, -1.7962895631790161, -5.6839494705200195, 0.05160113796591759, -0.23757466673851013, -0.6217119097709656, 0.03570336848497391, -0.3014907240867615, -7.232588768005371, -0.3824363648891449, 0.836155116558075, 0.02336963266134262, -0.2860608696937561, -14.576071739196777, 0.4760558307170868, -0.28819432854652405, -2.4213552474975586, 2.6753785610198975, 0.7230063080787659, -3.410332202911377, 0.5654801726341248, -1.159703016281128, -2.0881354808807373, -4.2654876708984375, -0.054788101464509964, -0.5452548265457153, 0.06450211256742477, 4.031306266784668, -4.428845405578613, 0.5441594123840332, 0.094121053814888, 0.022456463426351547, 0.029066653922200203, 0.4586102068424225, 0.6725350618362427, -0.31900468468666077, -0.021435270085930824, 0.1384829580783844, 0.6831823587417603, 2.0778799057006836, -0.06099840998649597, 1.0810375213623047, 0.3081130385398865, 0.18782629072666168, 0.8092741966247559, -4.3605828285217285, 0.9795201420783997, 5.191152572631836, 1.6293597221374512, -0.31950122117996216, 0.1554156094789505, 0.04824773594737053, -0.423406183719635, -0.3321673274040222, -0.2861846685409546, 0.14649495482444763, 0.3663407862186432, 0.13869547843933105, 0.7758136987686157, 0.005841229110956192, 0.011401844210922718, -0.4111332297325134, 0.20246294140815735, 1.5344101190567017, -6.858648777008057, -0.5526512861251831, 0.31863775849342346, -0.42346325516700745, 0.19008809328079224, 6.1966423988342285, -0.3424820601940155, -0.2970665395259857, 0.8208092451095581, 3.7522499561309814, 1.081786036491394, -0.11836472153663635, -1.2194932699203491, -0.15795347094535828, 0.13407474756240845, 0.252239465713501, 0.0063881478272378445, 0.1711457520723343, 0.33958426117897034, -0.3450731337070465, -0.1374513953924179, -3.265300750732422, -4.220249652862549, 0.8997670412063599, 0.0774780660867691, -0.17312265932559967, -0.5009389519691467, -0.11675668507814407, -2.2252469062805176, 0.12486445903778076, 0.399169385433197, 0.21675820648670197, -0.4269871115684509, 0.17465107142925262, -0.4478450417518616, 6.146169185638428, 3.8782641887664795, -1.6289736032485962, 0.7087706923484802, 4.127676486968994, 3.7027759552001953, 0.2421998679637909, 0.06071864813566208, 2.614116907119751, -3.949286937713623, -0.0935664027929306, 0.06914475560188293, -0.11615526676177979, -0.06104585528373718, -0.3667384684085846, 0.030161427333950996, 0.2888931632041931, -0.14806821942329407, -0.27609142661094666, -0.3974086046218872, -0.07846475392580032, 0.33555731177330017, 1.155168890953064, -0.24719449877738953, 3.563413619995117, -0.02362094260752201, 0.2655290365219116, -0.6553376913070679, -4.782855033874512, 0.9737794399261475, -0.06800682097673416, -0.07764258235692978, -0.6434441804885864, -0.8034577965736389, -0.413272500038147, 0.322274386882782, -0.5621353387832642, 0.14269936084747314, 1.226385235786438, 0.2780224084854126, -0.9487947821617126, -0.1715434044599533, 0.5630680918693542, 0.08335189521312714, -3.968597173690796, 0.6641088724136353, -0.10723044723272324, -0.13057637214660645, -3.1527233123779297, 0.17409645020961761, -2.1935715675354004, -0.8248615860939026, -2.048762321472168, 0.5898675918579102, 0.21499761939048767, -2.241532325744629, -0.16920463740825653, 0.32131361961364746, 0.07317515462636948, -0.6022189259529114, -0.2009497731924057, 0.5700671076774597, -0.32751983404159546, -0.4793422818183899, -1.0568350553512573, -1.0406215190887451, 0.09617653489112854, -0.35541000962257385, 0.0038513035979121923, -2.372398614883423, -3.534968376159668, -0.07569195330142975, -0.061601925641298294, 0.007107133511453867, -4.813076496124268, -0.41834375262260437, 0.41451120376586914, -1.418445348739624, 0.03266606479883194, 0.056611187756061554, 0.04447878152132034, 1.0400521755218506, 0.6895568370819092, 0.14593347907066345, 0.4116235673427582, -0.5649859309196472, -1.3961960077285767, -0.9189422130584717, 2.4247138500213623, -1.2135916948318481, -12.27952766418457, 0.05036936327815056, 0.15977340936660767, -0.26192018389701843, 0.4953828752040863, 0.044183939695358276, 2.02848482131958, 0.40308740735054016, -0.041816677898168564, 0.014203391037881374, -3.6157186031341553, -1.1446841955184937, 0.4572240114212036, -2.508495330810547, -5.284796714782715, -1.7367621660232544, 0.5246333479881287, 0.8155810832977295, -1.7837040424346924, 0.005624067038297653, -0.6423013806343079, -0.3839123547077179, -0.5229726433753967, -0.8917704820632935, 0.16500762104988098, 0.1015683114528656, 0.16289234161376953, -19.516931533813477, -3.8053057193756104, -0.24263329803943634, -6.109948635101318, 0.4967534840106964, -20.36083984375, -18.884077072143555, -0.5870924592018127, -0.251979261636734, 0.7602428197860718, -0.15701523423194885, -4.614224910736084, -0.43944376707077026, -2.429955244064331, -0.20665916800498962, -0.09324364364147186, -1.0144643783569336, -0.23501454293727875, 1.3920650482177734, -1.3909552097320557, 0.007728265132755041, 0.25307708978652954, -0.7252160310745239, -2.4540927410125732, 0.01413937658071518, 0.15740936994552612, -0.03364162519574165, -10.5300874710083, -13.71027660369873, -11.003449440002441, -5.782403945922852, 0.4567277729511261, -1.0970485210418701, -1.9128628969192505, 0.10223174095153809, -0.06140880286693573, -2.217128038406372, 0.0044953241012990475, -0.32597655057907104, -0.02789209596812725, 0.21404999494552612, 0.7300158739089966, -3.093820810317993, -0.5899620652198792, 0.023106878623366356, 0.13391117751598358, -0.23384422063827515, -2.3240816593170166, 0.6491848230361938, 1.190881609916687, 1.1470764875411987, 0.3004648983478546, 0.2610722482204437, -11.431132316589355, 0.19824281334877014, -2.496868848800659, -0.9201995730400085, -3.7456417083740234, -4.110443592071533, 0.15981155633926392, -29.387544631958008, -0.3998912572860718, 0.42152589559555054, 0.3013426959514618, -0.09966560453176498, -0.13560602068901062, 0.019407527521252632, 0.05214351788163185, -9.488739967346191, 1.616957187652588, -1.9294681549072266, -11.804367065429688, 0.4317505359649658, -0.27646416425704956, -6.4498701095581055, 0.2726522982120514, -8.46713638305664, 0.6480132341384888, -2.0917646884918213, 0.7911579012870789, -0.045992087572813034, 0.1542862206697464, -1.0263820886611938, -12.29516315460205, -6.492153167724609, 2.0057432651519775, -9.738204002380371, -0.6005967259407043, -1.8647513389587402, 0.19844940304756165, 0.13479147851467133, -6.803672790527344, -2.6137564182281494, -0.3816787302494049, -0.9614983201026917, -0.262946218252182, 0.7347055673599243, 0.22658415138721466, -0.3755533695220947, 0.2503594756126404, -5.858053207397461, -29.117446899414062, -0.1552133858203888, 0.8567031621932983, 0.35295236110687256, -23.043716430664062, -23.062782287597656, 0.10430578887462616, 0.14548897743225098, -0.08851224929094315, -1.699859857559204, -11.696687698364258, -3.668905258178711, 0.7961956262588501, 0.02176402136683464, -0.5043660402297974, -0.13161061704158783, 0.039043836295604706, -4.706850051879883, 0.4786624312400818, -3.3311595916748047, 2.61678409576416, -2.0643322467803955, 0.15616737306118011, -0.5571393370628357, -1.813088297843933, -0.19963312149047852, -31.80876350402832, -4.029964447021484, -1.1907976865768433, 0.46821466088294983, -6.4801506996154785, 0.08401191234588623, -2.1013429164886475, -0.3297628164291382, -0.37997838854789734, 0.5983552932739258, -0.8799239993095398, 0.20470461249351501, 0.11218646913766861, -0.32427069544792175, -6.736203193664551, 0.41996878385543823, 0.10459215193986893, -0.09863090515136719, 0.041258301585912704, 0.1133071705698967, -3.7125329971313477, 0.04085904359817505, -9.474225997924805, 0.4729783236980438, -0.21858663856983185, -0.01939610205590725, -69.76094818115234, -1.056977391242981, -3.0247011184692383, -12.52796459197998, -19.658100128173828, -3.1064889430999756, -2.4581353664398193, -5.065035820007324, -4.930052757263184, -0.05406349524855614, -0.12499149888753891, 1.0641026496887207, -0.2393980175256729, -0.0340779684484005, 0.13227427005767822, -0.19708804786205292, -18.215654373168945, 0.043333593755960464, -9.240737915039062, 1.099587321281433, 0.39313575625419617, 1.7632930278778076, -4.407805919647217, -0.09018883109092712, 0.05479172617197037, 0.431790292263031, 0.7824483513832092, 0.24808329343795776, 0.9361440539360046, -0.5482223033905029, -69.60279846191406, -59.695072174072266, -3.1878767013549805, -31.431499481201172, 0.004111197777092457, -4.857080459594727, 0.06965884566307068, 0.041048504412174225, 0.1745365858078003, -0.017018616199493408, 0.36652565002441406, 0.5727769732475281, 0.4922690987586975, -1.0931426286697388, 0.10854164510965347, 0.09601719677448273, 0.4527125656604767, 0.4360903799533844, 1.057325839996338, 0.05137905851006508, -0.2985636591911316, -0.08421196788549423, -19.0294246673584, -16.989383697509766, 0.07381720840930939, -0.0564899742603302, 0.0780504047870636, -1.2786080837249756, -6.960188865661621, -3.6200125217437744, -0.46217867732048035, -0.9791603684425354, 0.3734516501426697, 0.8274447321891785, -0.08923368901014328, -1.3568122386932373, -0.32207998633384705, 0.1873912662267685, -1.5654606819152832, 1.8993659019470215, -18.209726333618164, 0.38144734501838684, -0.7922805547714233, 0.22355371713638306, 12.060739517211914, -3.2608747482299805, 0.8268172144889832, -0.10076536238193512, -5.318424224853516, -0.7851586937904358, -0.6583898663520813, 0.654616117477417, -5.395229339599609, 0.09347909688949585, 0.03849796578288078, -7.537439346313477, 0.024008817970752716, 0.0059314630925655365, 0.1035323441028595, -0.4086114168167114, -0.13003067672252655, -0.09405767172574997, -0.8509513735771179, -2.254297971725464, -0.7934110760688782, -0.012471196241676807, -0.48357778787612915, -1.581334114074707, -1.622942328453064, -2.28483510017395, 5.609549522399902, 0.47282078862190247, 0.48081472516059875, 0.6837936043739319, -8.429655075073242, -0.23965105414390564, -2.694843053817749, -2.9985949993133545, 0.6385799646377563, -0.11018776148557663, 0.14059962332248688, -0.5274438261985779, 0.11718791723251343, -0.4705182611942291, -0.2059960961341858, 0.21623185276985168, -10.194756507873535, -8.025185585021973, -23.45094108581543, -0.48901981115341187, 0.21850481629371643, 0.697044312953949, 0.2899823784828186, -4.5247907638549805, -0.2690669596195221, -0.345687597990036, -0.522704005241394, -0.38510823249816895, 0.13287082314491272, 0.00707473699003458, 4.805555820465088, 2.0951364040374756, -1.0848275423049927, 9.161892890930176, -0.16191138327121735, -4.363739490509033, 0.47839638590812683, 0.15469753742218018, -4.036065578460693, 0.42513614892959595, -0.13271576166152954, -0.1679278165102005, -3.470879316329956, -2.230272054672241, 0.0973036140203476, 0.1894729882478714, -0.5039427280426025, 0.48188313841819763, 4.519392013549805, -0.429656982421875, -0.7577826380729675, 0.0762951597571373, 1.4675296545028687, 1.8507410287857056, -8.713624954223633, -0.3023201823234558, 1.4759786128997803, -0.07764078676700592, -25.145042419433594, -0.42445501685142517, 1.111817479133606, -0.16111315786838531, 0.27460983395576477, 0.365445077419281, 0.0405084602534771, 0.6584567427635193, 0.9988266825675964, -0.20254850387573242, 0.789362907409668, -1.3452421426773071, -0.22287750244140625, 0.33130115270614624, 0.4058361351490021, -0.9159275889396667, -41.03327178955078, 1.0905464887619019, -0.2765604555606842, 1.01200532913208, -15.129465103149414, -1.615949273109436, -2.920130968093872, 0.7598575949668884, 0.07789528369903564, 0.43906155228614807, 0.23343658447265625, 2.6525561809539795, -0.29730942845344543, 0.8525638580322266, 0.2587726414203644, 0.35511258244514465, -0.17075031995773315, 0.8124252557754517, -0.2162756621837616, 0.41531723737716675, -2.885486602783203, -7.7668561935424805, -0.19055162370204926, -0.7700777053833008, -1.9171030521392822, -0.19356615841388702, 14.691017150878906, -0.19167500734329224, 0.5873358249664307, 1.6771063804626465, -31.887165069580078, 1.6303480863571167, 1.0655971765518188, -1.2221311330795288, 0.7395831942558289, 0.028768936172127724, 0.2706182599067688, 0.8599878549575806, -0.8188947439193726, -0.9124231934547424, -0.3587798476219177, 1.0336254835128784, 1.5567008256912231, -6.265838623046875, 2.1533780097961426, 1.7301396131515503, 0.13687537610530853, -0.9413352608680725, -0.26874861121177673, -0.07240364700555801, -0.28471922874450684, -0.20224900543689728, -0.3540729284286499, -0.32085004448890686, -0.008176738396286964, -0.20975281298160553, 15.446121215820312, 7.890772342681885, 0.7268319129943848, -49.50984573364258, 0.03253842145204544, -8.250153541564941, 0.36498647928237915, 0.47572362422943115, -1.942990779876709, -0.014959368854761124, -0.2056921124458313, -0.4620015025138855, -1.1102923154830933, 1.0409629344940186, -0.2575565278530121, -0.5710344314575195, 0.6229503750801086, -0.04053539037704468, 0.10814351588487625, -7.185358047485352, -1.3777925968170166, 0.020895658060908318, 0.33663222193717957, 0.280118852853775, -6.148462772369385, -0.1349530965089798, -0.007614171132445335, 0.046903423964977264, 15.579268455505371, 0.375767320394516, 0.09710276871919632, -0.1648998260498047, 0.4937617778778076, 0.6330114603042603, -0.08142879605293274, 0.6775597333908081, -0.9643463492393494, -0.7213559150695801, 0.28389447927474976, -1.4902048110961914, 0.1708715707063675, 0.21907766163349152, 0.215794175863266, -0.7119510173797607, 23.633678436279297, 0.08712597191333771, 6.07453727722168, -0.1283865123987198, 9.049280166625977, -8.384685516357422, -0.46454572677612305, -0.435831218957901, 0.15223050117492676, 0.10794828832149506, 0.030606579035520554, 1.7160074710845947, 0.10013016313314438, 0.34343382716178894, 0.3712025582790375, 0.2974741458892822, 0.1254408061504364, 0.04582061246037483, -2.0833141803741455, 0.28944337368011475, 3.7039120197296143, -4.903313636779785, -1.203463077545166, -0.5876489281654358, -1.9577751159667969, -0.533998429775238, -1.5005203485488892, -0.021736443042755127, -0.12870000302791595, -0.720192015171051, 19.74492073059082, -0.890855610370636, 0.6901787519454956, -0.2986334562301636, 0.17261482775211334, -0.07475908100605011, 0.11625133454799652, -0.1478082835674286, 0.6630710959434509, -0.5006529688835144, -0.04655832052230835, -0.04529708996415138, 0.8174394965171814, -7.270735263824463, 1.196747064590454, -0.29312771558761597, 0.11817333847284317, 0.7320752143859863, -0.3757726550102234, -0.7756437659263611, -0.15732328593730927, 0.018311217427253723, -0.4219476878643036, -0.17445731163024902, -0.4255370795726776, -13.091153144836426, -0.9070742130279541, 0.2538989186286926, 0.26372572779655457, 26.136089324951172, 0.6606108546257019, 7.3473663330078125, 0.12474557012319565, 1.0088496208190918, -2.2165544033050537, -0.7474942207336426, -1.177564263343811, -0.06636518985033035, -1.2145767211914062, 0.22193031013011932, -0.568427324295044, -1.6120432615280151, -0.1403277963399887, -0.8196129202842712, 1.5571181774139404, 1.112661600112915, -1.615108847618103, -0.11227484792470932, -0.36813947558403015, 1.6035248041152954, 0.03885491192340851, -0.3663617670536041, 0.29963794350624084, 0.0592179000377655, 15.254921913146973, -0.09454057365655899, 0.309166818857193, -0.5175950527191162, -0.11938945949077606, 0.08465874940156937, -0.1294790506362915, -1.9190430641174316, -0.5231919288635254, 0.529367208480835, 1.6648269891738892, -1.7850325107574463, 0.5722238421440125, -0.6585648655891418, -0.6358141899108887, -0.09736611694097519, 27.342273712158203, -1.002463698387146, -0.2896929383277893, -0.4589787423610687, 7.545757293701172, -3.2407233715057373, -0.8572949767112732, -1.4128822088241577, -0.830928385257721, -0.08572825789451599, 2.2987594604492188, -0.6504393219947815, -0.21437709033489227, -0.1394917219877243, 0.33978012204170227, -0.9841524958610535, -0.3053285777568817, 0.236902117729187, -2.186030864715576, 0.21365690231323242, 2.5736076831817627, -0.34517762064933777, 0.7341509461402893, -0.36634525656700134, -1.1874070167541504, -3.309575080871582, 8.140499114990234, -0.3063824772834778, -0.4399974048137665, 1.104817271232605, 15.532448768615723, -4.96560525894165, -1.3502955436706543, -4.729590892791748, 0.21158424019813538, 0.032963383942842484, -0.13577985763549805, 0.3007831573486328, -0.6518735885620117, -1.1467342376708984, -0.31107109785079956, -0.6047283411026001, -2.7440786361694336, 0.043660517781972885, 1.2163207530975342, -4.536627292633057, -0.1090368926525116, -0.22454895079135895, 0.07102582603693008, 0.4774008095264435, -0.1405828446149826, -0.7139771580696106, -0.7231194972991943, 0.37271636724472046, 0.26060038805007935, -2.1423757076263428, 8.788008689880371, 3.397278070449829, -2.6383309364318848, 21.686702728271484, -0.017078112810850143, 5.4393439292907715, -0.12019848078489304, -0.11591651290655136, -1.0416914224624634, -0.41087934374809265, -0.4265094995498657, -0.6486763954162598, -1.011810064315796, -0.05214604362845421, -0.8959916830062866, -0.43553006649017334, -0.0784609317779541, -33.58912658691406, -42.080726623535156, -9.91248607635498, -0.2948891520500183, 1.2971186637878418, -11.298355102539062, -11.473485946655273, 0.014750279486179352, 0.1476881504058838, -1.1712794303894043, 0.29504773020744324, -2.800992250442505, -4.131911277770996, -0.3923090100288391, -0.13554655015468597, -8.36992359161377, -1.6432794332504272, -0.04431915283203125, -1.1798417568206787, 0.1532035768032074, -10.335315704345703, -1.2106395959854126, -3.160323143005371, -0.33976247906684875, -10.796894073486328, 0.24297663569450378, 0.5299063920974731, -3.7940821647644043, -1.8107943534851074, -0.33668678998947144, -2.219350814819336, -1.0123229026794434, -0.15124641358852386, -5.954808235168457, -0.14370685815811157, 0.1700848937034607, 0.5737945437431335, -5.678020000457764, -1.2868964672088623, 0.16888538002967834, -1.6072404384613037, -23.35173797607422, -0.3834244906902313, 0.2011980563402176, -2.586670160293579, -0.0056665632873773575, -1.8587208986282349, -0.5788755416870117, -0.10385438799858093, -19.302980422973633, -0.24503307044506073, 0.0495741069316864, 0.11627335846424103, -50.90817642211914, -3.559727191925049, -9.43917465209961, -17.369943618774414, -1.5078823566436768, -6.288606643676758, 0.6027458906173706, -3.368939161300659, -24.627506256103516, 0.21564242243766785, -0.03879214823246002, -0.9529953598976135, -0.28878384828567505, -0.4544939398765564, 0.27524298429489136, -3.69533634185791, -6.307645320892334, 0.17408999800682068, -5.557655334472656, -1.7928872108459473, -7.453450679779053, -6.0760178565979, -9.643558502197266, -0.28515392541885376, 0.07082077115774155, 0.014997441321611404, 0.0537838339805603, 0.056780099868774414, 0.005083119496703148, -0.40307843685150146, -49.95033264160156, -53.73072814941406, -2.8713393211364746, -2.357482433319092, -6.633275985717773, -0.9744065403938293, -0.9405081272125244, -3.1978726387023926, -0.4766850769519806, -1.0540592670440674, 0.37208542227745056, 0.3696100115776062, -8.835721015930176, -0.12071267515420914, -10.816797256469727, -0.2673119008541107, 0.06331640481948853, 0.9212818741798401, -1.2308440208435059, -19.694080352783203, 0.5792970657348633, -2.3716750144958496, 5.272927284240723, 2.792426109313965, -16.214271545410156, -0.1403203010559082, -0.5648044943809509, -2.3262927532196045, -4.297043323516846, 0.14881105720996857, -4.081694602966309, -0.5619133710861206, 0.2881444990634918, 0.5608984231948853, -0.7837837934494019, 0.7513740658760071, -0.9871105551719666, 0.33354368805885315, -8.661596298217773, -5.9706525802612305, -0.803026556968689, -0.61123126745224, 0.7546344995498657, 0.6972795724868774, -6.436336994171143, -1.6052672863006592, -0.8612374663352966, -10.594008445739746, -3.9553074836730957, 0.08364319056272507, -4.940663814544678, -5.462457180023193, -0.23755589127540588, 0.37503865361213684, -0.5056622624397278, -2.170351028442383, -0.020496610552072525, 0.006251475773751736, 0.9500779509544373, -1.1266496181488037, -0.7588773965835571, 0.4080921411514282, 0.1597311645746231, -3.2423229217529297, -1.0603259801864624, -0.5375626683235168, 0.9524855613708496, -5.739665985107422, -3.579298973083496, 0.3418639600276947, -5.733148097991943, -4.783881187438965, 0.2565068006515503, -1.0917363166809082, -5.2421369552612305, -19.691593170166016, -0.30380135774612427, -2.0503666400909424, -0.11895545572042465, 0.25714683532714844, 0.001113950158469379, -2.655338764190674, -13.820236206054688, 0.24399389326572418, -0.09059671312570572, -1.6426899433135986, 0.7984017133712769, -4.122533321380615, -0.4181758761405945, -0.9695707559585571, 2.8603172302246094, 0.15804554522037506, 0.6461357474327087, -1.1928904056549072, -0.4363650977611542, -1.030268907546997, -2.1059987545013428, 0.4296337366104126, 0.562680184841156, 0.05996197834610939, -5.659529685974121, -2.478015422821045, 1.175173282623291, -8.962231636047363, 0.255929559469223, -2.178520679473877, -0.057902321219444275, -0.6885110139846802, -0.41924160718917847, -0.2537649869918823, 0.3635556995868683, -0.1549813449382782, 0.36296600103378296, -2.4775757789611816, -5.477632999420166, 1.780582308769226, 0.17546018958091736, -0.052396953105926514, 0.0855071023106575, -0.13609734177589417, -0.36939728260040283, -0.17790383100509644, -0.12473699450492859, -0.10971446335315704, -0.18923643231391907, -0.08164475113153458, -0.1804545372724533, -0.06701092422008514, -0.1460258513689041, 0.02089240774512291, -0.2071232795715332, -0.06861565262079239, -0.08073674142360687, 0.09899000823497772, 0.06321808695793152, -0.03522605076432228, 0.020740337669849396, -0.20489241182804108, 0.012250727973878384, -0.24420849978923798, -0.29195719957351685, -0.0497966893017292, -0.021789368242025375, -0.19602011144161224, -0.17030464112758636, 0.007108459714800119, -0.14089353382587433, -0.17455826699733734, 0.006291691679507494, -0.2556069493293762, -0.15033067762851715, -0.04173921421170235, 0.0005875588394701481, -0.1800108700990677, -0.2544570863246918, 0.08444540202617645, -0.2875756025314331, 0.051859211176633835, -0.07550275325775146, -0.07846041768789291, 0.014415924437344074, -0.06136855110526085, -0.17579953372478485, -0.23214681446552277, 0.05919964611530304, -0.003312395652756095, 0.10765137523412704, -0.2567428946495056, -0.16227339208126068, -0.29240545630455017, 0.13104021549224854, 0.003742219414561987, -0.18907317519187927, -0.01235736720263958, 0.10445177555084229, -0.062325213104486465, -0.21959935128688812, -0.36469581723213196, -0.18818573653697968, -0.40785831212997437, -0.1695014089345932, -0.008980750106275082, -0.04144349694252014, -0.00943363644182682, -0.11343584209680557, -0.16188475489616394, -0.22128301858901978, 0.005009136162698269, -0.19744755327701569, -0.11127538979053497, -0.10222291201353073, -0.1568373441696167, -0.058200255036354065, -0.08411259949207306, 0.013313044793903828, -0.1665523797273636, -0.17732921242713928, 0.098200723528862, -0.07494436204433441, -0.0005073891952633858, -0.07381299883127213, -0.14916788041591644, -0.3294662833213806, -0.054504089057445526, -0.14741039276123047, -0.0754799097776413, 0.012048672884702682, -0.23539882898330688, -0.24305585026741028, 0.02689509652554989, -0.23712806403636932, 0.047279778867959976, -0.24522705376148224, -0.26334214210510254, 0.07198965549468994, -0.1496182680130005, -0.2654382288455963, 0.7574421763420105, 4.1558098793029785, -0.40871942043304443, -0.5368220210075378, 0.09108029305934906, -19.969329833984375, -20.757150650024414, -0.1848815530538559, -0.5339051485061646, 0.23909883201122284, -0.06765241920948029, -1.4993635416030884, -2.627002477645874, -1.6628451347351074, -1.3880327939987183, -0.04533304274082184, -0.02415532059967518, -0.05142819508910179, -4.6953935623168945, -0.5077955722808838, 0.03280434012413025, -4.919061660766602, 2.842153787612915, -6.446066379547119, -0.020616665482521057, -3.309812307357788, -0.21260833740234375, -5.519295692443848, -6.659982681274414, 0.1676844358444214, -0.2952973246574402, 0.1887878179550171, -3.3843231201171875, 1.4963361024856567, 0.08311843872070312, -1.6511565446853638, -0.18218505382537842, 0.03701832890510559, -10.73522663116455, -0.37642571330070496, -0.6864851117134094, -0.015611453913152218, -1.28373122215271, -0.485595166683197, -0.08056869357824326, -3.908484697341919, -0.8641149997711182, 1.827410101890564, -0.22354722023010254, -0.8589265942573547, 0.1306294947862625, 0.8471100926399231, -18.15670394897461, 18.742704391479492, 0.3384796679019928, 1.9279481172561646, 1.762616753578186, 0.07346337288618088, -1.8855314254760742, -0.1805984377861023, -0.5650733113288879, 0.42262014746665955, -0.24577012658119202, -0.02881050854921341, -1.0325932502746582, -0.22451229393482208, -0.3970957100391388, -2.0690414905548096, 0.22226519882678986, -2.3807475566864014, -0.13028281927108765, -17.305192947387695, -0.31071656942367554, -0.23582491278648376, 0.37939396500587463, -0.164902463555336, -0.4060029983520508, -0.19480648636817932, -0.4543698728084564, -0.0570831298828125, -0.6531537175178528, -0.32746079564094543, 0.3943745493888855, 19.58365249633789, 8.970930099487305, -2.709731101989746, -6.3307318687438965, -0.2228326052427292, 1.8332788944244385, -0.9480607509613037, 0.2899430990219116, -3.177325963973999, 0.26574161648750305, -0.1088862195611, -0.5251480937004089, 0.4455101191997528, -0.17879122495651245, -0.012510161846876144, -0.4898381531238556, 0.03703601658344269, -0.18012751638889313, -12.188897132873535, 0.03860175237059593, 0.09401813894510269, -3.154232978820801, -28.0826358795166, -17.33147621154785, -0.033639904111623764, 0.7809211015701294, -3.6900930404663086, 0.16071747243404388, -3.8421988487243652, -5.944857120513916, -8.347701072692871, 0.41354405879974365, -0.189694344997406, -0.42925870418548584, -1.806714653968811, -3.8561666011810303, -0.05146985873579979, 0.20563346147537231, -16.887266159057617, 0.331222265958786, -5.896491050720215, -0.08081638067960739, -0.829378604888916, 0.10415806621313095, -3.124048948287964, -7.953512668609619, -0.0594785176217556, -10.967020988464355, -2.666187047958374, 0.179719939827919, -0.9507830739021301, -0.11988627165555954, 0.1369486004114151, -1.1071101427078247, 0.073228619992733, -2.639206647872925, 0.8356395363807678, 0.07423289865255356, -0.16033917665481567, -2.653820753097534, -1.539910078048706, -0.22871392965316772, -0.3438257873058319, -0.9005220532417297, -0.4966621994972229, 0.07362309843301773, 0.04532308503985405, 0.21088287234306335, 0.25708943605422974, -1.7251198291778564, -45.423336029052734, -0.17396345734596252, -0.4610964059829712, -3.235288143157959, -7.273428916931152, 4.596482753753662, -0.14099113643169403, -0.39030760526657104, -2.245133638381958, 0.1858747899532318, -0.13712333142757416, -1.997037410736084, 0.5401843786239624, 0.0393393337726593, 0.7295396327972412, -8.037413597106934, -11.961312294006348, 0.14574986696243286, -20.943851470947266, -1.028184175491333, -0.03393952175974846, 0.12217468023300171, 0.07045997679233551, 0.26724547147750854, -0.9023906588554382, -0.30024921894073486, -0.1677718609571457, 0.48062166571617126, 0.15937013924121857, 0.1229737177491188, -48.472652435302734, -24.95290184020996, -1.4297183752059937, -5.490204811096191, 0.3466842770576477, -0.595528244972229, 0.1877308338880539, -0.13025793433189392, -2.1954357624053955, -0.005764204077422619, 0.6616201400756836, -0.03627147153019905, -0.14659364521503448, 0.3430282473564148, 0.09988760948181152, 0.5271506309509277, -0.1598394364118576, 4.6013875007629395, 0.9517524838447571, 0.18187743425369263, 0.07865352928638458, 0.3346106708049774, -5.495450019836426, -10.184711456298828, 0.08452939242124557, -0.039013516157865524, 0.39872464537620544, -0.003927816171199083, -7.0354228019714355, -2.9298295974731445, -0.046302832663059235, -0.3805414140224457, -0.2842065989971161, 0.23072761297225952, -0.1597788780927658, 1.1264506578445435, -2.0163073539733887, -1.5318934917449951, -0.9094753265380859, 3.910649299621582, 0.23869551718235016, -0.9401077032089233, 0.38145211338996887, -4.61023473739624, -31.80471420288086, 0.7321299314498901, -0.3578212559223175, 0.589751124382019, -2.9026784896850586, 0.42501041293144226, -7.7228546142578125, -17.882854461669922, -0.4452652931213379, 0.12184461206197739, -0.5986827611923218, -3.2429394721984863, -0.1258731484413147, -0.8916934728622437, 0.6096242666244507, -0.4655182659626007, -0.21105064451694489, -7.922623634338379, 0.11627066880464554, 1.1332662105560303, -0.6966618895530701, 0.04923732951283455, 1.9880090951919556, 0.19715097546577454, 0.28508836030960083, -0.13403165340423584, -0.27324917912483215, 0.5092406272888184, 0.6939645409584045, 0.434754341840744, -10.242815017700195, 4.1304216384887695, -1.983495831489563, -1.1385953426361084, 2.002997875213623, -0.5384705066680908, -0.47126632928848267, -0.5498499274253845, -16.7124080657959, -0.11465537548065186, -0.3245536983013153, 1.3698519468307495, -3.780109405517578, 0.21604347229003906, -0.7129485011100769, -1.3178846836090088, 0.5773620009422302, -7.726201057434082, -0.4209233522415161, -0.4564611613750458, -0.0924949124455452, -0.03059559501707554, 0.35573574900627136, -0.4309084713459015, -1.0751330852508545, 1.4557231664657593, 0.966754138469696, 0.6187670230865479, -3.2699484825134277, -28.515464782714844, -0.315634161233902, -1.5013357400894165, -2.6310994625091553, 0.12822285294532776, 0.06094291806221008, 0.26222437620162964, -0.23001855611801147, 0.01580728217959404, 0.37945836782455444, -0.591116189956665, 0.2071211338043213, 0.7416491508483887, -1.4737907648086548, -0.17361435294151306, 0.0054647536017000675, -0.12002282589673996, -0.10924676805734634, 0.08595907688140869, 0.020854104310274124, 0.020120786502957344, -0.12013250589370728, -0.10058257728815079, 0.030570948496460915, -0.12491778284311295, -0.02068178728222847, -0.15653519332408905, -0.0362478643655777, -0.020068377256393433, -0.13375791907310486, -0.20265765488147736, -0.07753053307533264, -0.008979306556284428, -0.21878620982170105, -0.15584999322891235, -0.001134003628976643, -0.2121918499469757, -0.11084064096212387, -0.1510719358921051, -0.22001005709171295, -0.2044275552034378, -0.31367844343185425, -0.08514746278524399, -0.24198473989963531, 0.080663301050663, -0.33666089177131653, -0.07554993778467178, -0.06545157730579376, -0.18326446413993835, -0.09662764519453049, -0.23118451237678528, -0.02459038235247135, -0.05104266479611397, -0.20020535588264465, -0.09801607578992844, -0.23865732550621033, -0.07584342360496521, -0.030360620468854904, -0.13929085433483124, -0.06719791144132614, 0.05340760946273804, 0.09290304780006409, -0.12468045204877853, 0.08204465359449387, -0.4138493537902832, 0.04719967022538185, -0.05905323848128319, -0.1575222611427307, -0.2460181713104248, -0.11987490952014923, -0.15271417796611786, 0.05144450068473816, 0.027781233191490173, -0.042264413088560104, -0.05882231146097183, 0.022246139124035835, -0.283928781747818, -0.0970185324549675, -0.10073214769363403, 0.013531412929296494, 0.07459911704063416, 0.014276775531470776, -0.05185134708881378, 0.04069224372506142, -0.06678734719753265, 0.11212151497602463, -0.03154679015278816, -0.003389825811609626, -0.12290581315755844, -0.0013457220047712326, -0.1292802393436432, -0.06109093129634857, -0.23367191851139069, 0.008927488699555397, -0.09569598734378815, -0.35199472308158875, -0.12208177894353867, -0.010312298312783241, 0.06582929193973541, -0.1298680305480957, -0.01670061983168125, -0.15542154014110565, -0.06411121040582657, 0.017161501571536064, -0.13109497725963593, -0.07503137737512589, -0.2921985387802124, -0.26162204146385193, 0.012312342412769794, -0.1724613457918167, -0.0832260474562645, -0.03591597452759743, 0.0005616844282485545, -0.07951726764440536, 0.9804216027259827, -0.14637790620326996, 0.41145703196525574, 1.3378421068191528, -0.34730494022369385, -7.3388671875, -9.777270317077637, 0.20837099850177765, 0.1803867518901825, 0.817196249961853, -0.012608951888978481, 5.366636276245117, -0.5582548379898071, -0.8579987287521362, 0.25791895389556885, 0.2963625192642212, 0.1545344740152359, -0.0813092365860939, 0.06345915049314499, 0.4164353311061859, -0.1476980745792389, -0.3215760886669159, 1.635176181793213, -9.089829444885254, 0.4040455222129822, -0.25843581557273865, -0.6980175375938416, 16.19111442565918, -1.135751724243164, -0.5506379008293152, -0.5645924210548401, 2.977018356323242, -2.784658193588257, 0.5805653929710388, 0.5123379826545715, -3.420217275619507, 0.3810306489467621, -0.024501856416463852, -7.073812961578369, -0.0033329068683087826, 0.40616708993911743, 0.49066436290740967, 0.2748575806617737, -0.10608719289302826, -0.004643390886485577, -7.089216709136963, -0.2853635549545288, 2.089115619659424, 0.08814916759729385, 1.505954623222351, 0.2834642231464386, -0.6547396183013916, -10.728148460388184, -5.553907871246338, 0.010449646040797234, 0.5647984743118286, 0.5528726577758789, 6.296539783477783, -0.9198740720748901, 0.36512142419815063, 2.7949302196502686, 0.7978072762489319, 0.08845672756433487, -0.03553410619497299, -0.6178950071334839, 0.20905688405036926, -0.8142527341842651, 0.18945838510990143, 0.32861629128456116, -3.768259286880493, -2.279928684234619, -2.9437291622161865, -0.32040679454803467, 0.6847891211509705, -0.5307978987693787, 0.06817750632762909, -0.2769130766391754, 0.04085613414645195, -0.09438629448413849, 0.38965800404548645, -0.0681627169251442, -0.10273675620555878, -0.3044513165950775, -5.220713138580322, -1.7146631479263306, -0.41852518916130066, 10.042088508605957, 0.1977819800376892, 3.9019291400909424, 0.6983102560043335, 0.29712459444999695, -1.4168784618377686, 0.045735299587249756, 0.8471483588218689, -0.07943537086248398, -0.5155507922172546, -0.5559563040733337, 0.13498277962207794, -1.3581541776657104, -0.17518888413906097, -2.1656830310821533, 1.0959737300872803, 0.7732350826263428, 0.6767377853393555, 0.9000177979469299, -12.836143493652344, -11.762001037597656, -0.1714867502450943, 0.05716174840927124, -3.1377041339874268, -0.156871497631073, -3.04658579826355, -5.889760494232178, -7.502649307250977, -1.1013035774230957, -0.4148845970630646, -2.958400249481201, -1.0273500680923462, -5.050388813018799, 0.533123254776001, 0.35910773277282715, -1.4836024045944214, 1.7234538793563843, -7.601312637329102, 0.40997132658958435, -13.12302303314209, 0.5133081674575806, -5.174952030181885, -19.272539138793945, 0.0384301133453846, -13.193007469177246, -2.407172679901123, 0.7622864246368408, -4.99367618560791, -6.063896656036377, 0.15279211103916168, -1.7323811054229736, 0.10895845293998718, 0.15284471213817596, -0.33232051134109497, -0.9584070444107056, 0.31870514154434204, -18.28724479675293, -0.9673000574111938, -0.34218740463256836, 0.15050479769706726, -1.9582257270812988, -0.9106924533843994, -0.05610809102654457, -0.4566696882247925, -0.1178176999092102, 0.05777299031615257, -0.0009029842913150787, 1.376237392425537, 0.2529650032520294, -0.06759100407361984, 0.8848676681518555, -2.8552796840667725, -11.94357967376709, -0.9469811320304871, -14.16258430480957, 0.10251028835773468, -0.07907822728157043, -0.2310071885585785, -2.109445095062256, -2.7470529079437256, 0.640669047832489, -1.6449530124664307, -7.709568500518799, -15.199837684631348, -2.595458984375, -14.223881721496582, -1.4766995906829834, -22.979177474975586, -0.2670908272266388, 0.3024959862232208, -1.4161149263381958, -0.4732685983181, -0.8398701548576355, -1.2883632183074951, 0.1960553675889969, 0.24704211950302124, 0.6144336462020874, 0.5215691328048706, 0.6165904998779297, -4.048495769500732, -4.405394077301025, -18.2978572845459, -2.1151368618011475, -1.3676785230636597, 0.046324968338012695, 0.2344464808702469, 0.16756893694400787, 0.5184028744697571, -0.4295404553413391, 1.1569411754608154, -0.11891424655914307, 0.21162407100200653, 0.10658719390630722, 0.014778858050704002, 0.8395243883132935, 4.1406121253967285, -0.19605779647827148, 0.8230276107788086, -0.39452874660491943, -4.38917875289917, -10.897506713867188, -0.4779285192489624, 0.1035730391740799, 0.7259737253189087, -4.9595465660095215, 3.4510657787323, -2.660527229309082, 0.0805584043264389, -0.07206392288208008, 0.17750665545463562, 1.4620627164840698, 0.11431683599948883, -7.225665092468262, 0.32240602374076843, -0.14200319349765778, -0.20545674860477448, 0.2444620579481125, -5.842386245727539, -0.23576688766479492, -0.7825870513916016, -0.864406406879425, -33.77581787109375, 0.03199860453605652, 0.16341985762119293, 1.2616726160049438, 4.389835357666016, 0.014006593264639378, -1.9007583856582642, -6.357926845550537, -4.704524993896484, 0.6678081154823303, 0.3834855556488037, -8.875706672668457, 0.0607774443924427, -0.3997536599636078, 0.01073899120092392, 0.7593733072280884, 0.25220122933387756, -7.717097282409668, -0.7689796686172485, 0.1345994621515274, 1.4731864929199219, -0.43690261244773865, 0.9294302463531494, -0.29716211557388306, -0.2745257318019867, -1.63236665725708, 17.416847229003906, 0.7470463514328003, 0.2902616858482361, 0.9190821051597595, 5.838820934295654, 3.9526355266571045, -18.883983612060547, 0.20445813238620758, 0.939281702041626, -0.15274591743946075, -0.04585617035627365, 0.09911809116601944, -4.2310919761657715, -1.0100386142730713, 0.10707613080739975, 0.259090781211853, -4.566839218139648, -8.502338409423828, -0.1148725152015686, -0.7450182437896729, 0.07119184732437134, 0.19337370991706848, -0.30333369970321655, -0.2407255619764328, 0.07638639956712723, 0.0885949581861496, 0.27839985489845276, 0.22224244475364685, -0.392848402261734, -0.026688776910305023, 18.269685745239258, 7.915994644165039, -3.700864791870117, -27.829545974731445, -0.2037149965763092, 4.190724849700928, -0.5032492280006409, -0.6045802235603333, 0.6217045783996582, -0.025148892775177956, -0.17969131469726562, 0.23458103835582733, -13.434834480285645, -4.424899578094482, -0.10372611880302429, -0.8612194061279297, 0.5378074645996094, 0.7350536584854126, 4.956498146057129, 0.017491444945335388, 0.14685943722724915, -2.120877981185913, -7.905025005340576, -7.742734432220459, -0.0038402280770242214, -0.19531990587711334, -0.09642098844051361, -4.881731986999512, -3.0188043117523193, -3.091322422027588, -6.400249481201172, -1.1585578918457031, -31.885478973388672, -1.9512935876846313, -0.17396534979343414, -1.7528982162475586, 0.17583036422729492, 0.08984658867120743, -20.9676513671875, 0.325221449136734, -5.685568332672119, 0.21169224381446838, -1.2355693578720093, 0.04609984904527664, -2.926011562347412, 2.7140016555786133, 0.06291510164737701, -0.5467590093612671, -1.891710877418518, -0.7592171430587769, -1.3278862237930298, -6.32149076461792, -17.047040939331055, 0.045803844928741455, 0.17679761350154877, -5.730078220367432, -0.11280341446399689, -0.5781728029251099, 0.7171341180801392, 0.647855281829834, -0.6367376446723938, 0.29749950766563416, -1.2445906400680542, 0.09128710627555847, -0.36936962604522705, -0.016654735431075096, 0.07935646176338196, -0.05131043866276741, 0.058447759598493576, -6.100564002990723, 24.229772567749023, 0.2448783665895462, 0.5335416793823242, 2.2083499431610107, -0.16252149641513824, 3.471250295639038, -6.276398658752441, 2.930870771408081, 2.0095903873443604, -0.029938621446490288, -0.12873604893684387, -11.085399627685547, -3.0793519020080566, -0.0038411470595747232, -1.3959980010986328, -0.25910088419914246, -4.848044395446777, -0.027254097163677216, -4.391726970672607, -0.3472374975681305, -34.957733154296875, -0.05971943959593773, 0.055261652916669846, -0.019298763945698738, -0.7884057760238647, -0.3072444200515747, -0.1750541776418686, -0.22394531965255737, -0.0654803216457367, 0.33372873067855835, 24.752737045288086, 10.911892890930176, -1.4183582067489624, -1.0927674770355225, -31.927257537841797, -1.2983297109603882, -0.7312836050987244, -0.1158970519900322, 0.12714774906635284, 0.08653433620929718, -0.06595341116189957, -0.153394415974617, -1.3468241691589355, -41.82333755493164, 0.04676515981554985, -0.5277999639511108, 0.0021414440125226974, -1.51725172996521, -19.355667114257812, -0.03339051827788353, 0.49096259474754333, 0.35812148451805115, -2.983635902404785, -3.7577593326568604, 0.0217073205858469, 0.5895917415618896, 0.5878830552101135, -2.0119123458862305, -12.172972679138184, -7.5817389488220215, 0.2327149212360382, 0.449140727519989, 0.44174250960350037, -0.03464614972472191, 0.22696977853775024, -1.0212886333465576, 1.02506422996521, -2.415222644805908, 0.9498686194419861, -0.2782924473285675, -0.17592251300811768, -0.458789587020874, 0.34080183506011963, -1.2591984272003174, -53.0952033996582, -0.2998177707195282, -0.1068154126405716, 0.07638318091630936, -5.71817684173584, -0.1821802854537964, -1.4071674346923828, 0.1799653321504593, -0.5989524126052856, 0.11071144044399261, -0.4524858593940735, -1.2921838760375977, 0.2640436291694641, 0.6182453036308289, -3.4511072635650635, 0.06437685340642929, 0.2557770609855652, -7.6064629554748535, -0.005680312868207693, 0.6606664657592773, -0.863660454750061, 0.047033004462718964, -4.0508294105529785, 0.5777637362480164, 0.2045285552740097, -0.2771684229373932, -75.97773742675781, 0.02495446801185608, -1.0173310041427612, -7.92995548248291, -17.85613441467285, -1.5909993648529053, 0.6188180446624756, -0.6859443187713623, -3.526726722717285, 0.207723006606102, 0.35892191529273987, 0.18775343894958496, -1.8713546991348267, 0.14839690923690796, 0.5124741792678833, 0.16939282417297363, -8.256875038146973, 0.1478576511144638, -1.5459977388381958, 0.6160852313041687, -0.01906648464500904, -0.014258995652198792, -1.9187272787094116, -0.19965051114559174, 0.2733578383922577, 0.41157570481300354, 0.020053265616297722, 0.4726584255695343, 0.11482834070920944, -0.05480273813009262, -79.36383819580078, -44.09040832519531, -3.1649250984191895, -47.52180862426758, -0.14217038452625275, -4.313290596008301, 0.33342626690864563, 0.34886276721954346, -0.18161466717720032, 0.16661131381988525, 0.2522094249725342, 0.24966216087341309, 0.4504511058330536, -1.5571022033691406, 0.06868910789489746, 0.2452293485403061, 0.3007507026195526, 0.9300908446311951, 6.236314296722412, -0.04059956595301628, 0.6311715841293335, 0.8716610074043274, -20.04220199584961, -17.59879493713379, -0.5103862881660461, 0.17392487823963165, 0.916644811630249, 0.1892365664243698, -1.9451605081558228, 0.7080647945404053, 2.002784252166748, -0.03316999226808548, 0.34472954273223877, 0.24046581983566284, 0.8287475109100342, -2.578089952468872, -0.08435288071632385, 0.17846553027629852, -0.858815610408783, 0.29590681195259094, -4.279317855834961, 0.124616339802742, -1.9112786054611206, 0.06303269416093826, -1.947880506515503, -2.8608343601226807, 0.04982868954539299, 2.376185178756714, -0.44209620356559753, -0.6108877062797546, -1.3816204071044922, -0.08004110306501389, 0.06844786554574966, 0.211068257689476, 0.11338776350021362, 0.42667722702026367, 0.364114373922348, 0.22217397391796112, 0.2022833228111267, -0.0660712867975235, -0.2854698896408081, 0.17548277974128723, -0.31436747312545776, 0.03572846204042435, 1.604207158088684, -0.5492010712623596, -0.10794226080179214, 0.12492257356643677, -0.334524542093277, -0.16536970436573029, 22.857196807861328, 0.39121341705322266, 0.2743421196937561, 2.599263906478882, -8.932156562805176, 4.518970489501953, 0.5904299020767212, -1.8695405721664429, 1.385945439338684, 0.05605606734752655, 0.15363359451293945, -0.22918400168418884, 1.118658423423767, -0.15947817265987396, -0.5325838327407837, 1.0463634729385376, -3.2733254432678223, -1.5460548400878906, -13.791788101196289, -5.64886999130249, 0.26698553562164307, -0.16426639258861542, 0.04135020822286606, -0.32115769386291504, 0.0007518699276261032, -0.8437957167625427, 0.029901472851634026, -0.09524283558130264, 0.028658926486968994, 0.48063334822654724, 24.19573211669922, 11.950033187866211, 0.30311518907546997, -5.4067912101745605, 0.09382595121860504, 0.9912548661231995, 0.35314467549324036, -0.13103719055652618, -0.1836693435907364, 0.04880440980195999, -0.34153732657432556, 0.3416498005390167, -0.5623792409896851, 0.2390255481004715, -0.1944178342819214, 0.33108678460121155, 0.28083643317222595, -7.348265647888184, 1.6398192644119263, -0.33614298701286316, -0.21265597641468048, 0.47356629371643066, -3.6978230476379395, -0.7276518940925598, -0.02250049263238907, -0.9572828412055969, -0.13235431909561157, 0.22561156749725342, -4.709248065948486, -0.287258118391037, -0.2893470525741577, -2.1909239292144775, -0.29605546593666077, 0.1844111979007721, 3.7829580307006836, 0.22556942701339722, -10.43950366973877, 0.5229280591011047, -0.20036286115646362, -3.0988926887512207, 0.860247790813446, -0.6687808036804199, -0.35444319248199463, -0.12171928584575653, -1.5190064907073975, 3.141601085662842, -0.33299654722213745, -0.6842575073242188, -2.268787145614624, 0.08171287178993225, -8.6441650390625, -0.03385407105088234, -0.161710724234581, -0.2785707116127014, -0.30530351400375366, -0.890562117099762, -0.6279895305633545, -6.629745006561279, 1.6360559463500977, -1.049094796180725, -1.1872754096984863, -8.04932975769043, -0.07745418697595596, -0.5758630633354187, -1.0215799808502197, 0.020331289619207382, -3.290226697921753, -0.00813096109777689, 0.3217484652996063, 0.029407119378447533, 2.7103586196899414, -0.36690083146095276, -0.12257152050733566, 3.5279757976531982, -5.720837593078613, 2.797039270401001, -6.205764293670654, -2.138885498046875, -8.039349555969238, -2.653547525405884, -2.261669874191284, -0.4616604149341583, -1.9254059791564941, -0.532066822052002, -2.9762332439422607, 2.68241548538208, -1.6179267168045044, 0.16136351227760315, 4.7740044593811035, -5.784610271453857, 1.364774465560913, -0.4342019557952881, 0.25687944889068604, -0.29891374707221985, -0.8798295259475708, -1.0630046129226685, 0.0343368798494339, -1.4219963550567627, -24.687583923339844, 1.6699360609054565, 1.632853627204895, -0.8770173788070679, -7.850400447845459, -0.03945226967334747, -0.08280759304761887, -3.5558059215545654, -10.554344177246094, -0.1829381138086319, -0.05926966667175293, 0.8842988610267639, -1.9034802913665771, -1.13221275806427, -0.19035561382770538, -0.09190801531076431, -0.11205527931451797, 0.6316291093826294, -9.97649097442627, 0.08059986680746078, -0.047682810574769974, 0.01469228696078062, -0.0424732081592083, -0.007279304787516594, -0.038725998252630234, -0.0370095893740654, -0.1806587427854538, -0.16163231432437897, -0.03884849697351456, -0.15519393980503082, 0.0810336247086525, -0.04206116124987602, 0.07640846073627472, 0.02326003462076187, 0.0057343593798577785, -0.04070531949400902, -0.14335717260837555, -0.14308959245681763, -0.21935045719146729, 0.018052583560347557, -0.16924403607845306, -0.07206890732049942, -0.036117907613515854, -0.2059708535671234, -0.06253799051046371, -0.08425199240446091, -0.10767459869384766, -0.1331026554107666, -0.12859022617340088, -0.14467023313045502, 0.03714365139603615, 0.028301162645220757, -0.009124809876084328, -0.07712253928184509, -0.05018860101699829, 0.036489177495241165, -0.08143240958452225, -0.10892155021429062, -0.07886061072349548, -0.19974492490291595, -0.07708333432674408, -0.1423129439353943, -0.024947363883256912, 0.023351572453975677, -0.07046154886484146, -0.22245940566062927, -0.1989048272371292, 0.005018861033022404, -0.04394402354955673, -0.11750303953886032, 0.03059281036257744, -0.058079347014427185, 0.044443413615226746, -0.14841797947883606, 0.06648613512516022, -0.17369015514850616, -0.03623912110924721, 0.03022337704896927, -0.0015224297530949116, -0.058311428874731064, -0.09619256854057312, -0.02295352704823017, -0.11400488764047623, -0.09969937801361084, -0.1883997619152069, -0.07969383150339127, 0.00045756250619888306, -0.12958945333957672, -0.12189049273729324, -0.13080979883670807, -0.11402734369039536, -0.017512010410428047, 0.10103409737348557, -0.18379390239715576, -0.16851255297660828, -0.03556975722312927, -0.052867744117975235, 0.05893487110733986, -0.1757093220949173, -0.24801191687583923, -0.15041866898536682, -0.19751526415348053, 0.08188694715499878, 0.059343371540308, -0.08891741931438446, 0.04213348403573036, -0.07739122956991196, 0.04547656327486038, 0.09679040312767029, -0.013986470177769661, -0.18645194172859192, 0.06642396003007889, -0.2502932846546173, -0.03876682370901108, 0.058806512504816055, -0.0627213567495346, -0.22516506910324097, -0.07364380359649658, -0.2999422550201416, -3.397462844848633, -3.2618019580841064, 0.37260353565216064, 0.42664262652397156, 0.2571357488632202, 8.381598472595215, 8.19339656829834, 0.1581593155860901, -0.17062486708164215, -1.0360208749771118, -0.5340635180473328, -1.3283634185791016, 0.41155174374580383, 0.6873345971107483, -1.443737268447876, 0.0400935597717762, 0.1786830872297287, 0.2984355092048645, 2.0368778705596924, -0.9822843670845032, -3.0628206729888916, 0.4036644399166107, 0.03142033517360687, 0.8219258189201355, -6.566948890686035, -0.16793197393417358, -2.5340957641601562, 