{
  "inputs": [
        {
          "name": "Evt_pt",
          "offset": -9.18801,
          "scale": 0.189373137042
        },
        {
          "name": "Evt_eta",
          "offset": 0.019406,
          "scale": 0.786336614978
        },
        {
          "name": "Evt_mass",
          "offset": -1.03278,
          "scale": 1.57132149709
        },
        {
          "name": "Evt_d3d",
          "offset": -1.39368,
          "scale": 0.294282964842
        },
        {
          "name": "Evt_d3dsig",
          "offset": -24.5802,
          "scale": 0.0197905369568
        },
        {
          "name": "Evt_dxy",
          "offset": -0.730984,
          "scale": 0.658865696816
        },
        {
          "name": "Evt_costhetaSvPv",
          "offset": -0.996282,
          "scale": 24.3991108964
        },
        {
          "name": "Evt_ndof",
          "offset": -2.20029,
          "scale": 0.502641380454
        }
      ],
  "defaults": {
        "Evt_pt": 0.0,
        "Evt_eta": 0.0,
        "Evt_mass": 0.0,
        "Evt_d3d": 0.0,
        "Evt_d3dsig": 0.0,
        "Evt_dxy": 0.0,
        "Evt_costhetaSvPv": 0.0,
        "Evt_ndof": 0.0
  },
  "layers": [
    {
      "activation": "rectified",
      "architecture": "dense",
      "bias": [
        -1.491007924079895,
        -2.1675102710723877,
        -1.0767494440078735,
        -1.0176568031311035,
        -0.2614729404449463,
        -1.4978476762771606,
        -1.905940055847168,
        0.5707889199256897,
        -0.6854277849197388,
        0.16120904684066772,
        -1.8212125301361084,
        0.07800077646970749,
        -1.1336811780929565,
        -2.0162806510925293,
        -0.6698739528656006,
        -1.621700644493103,
        0.1215771734714508,
        -1.7090272903442383,
        -1.0176624059677124,
        -0.7405973672866821,
        -1.835654377937317,
        -2.323667526245117,
        -0.8334294557571411,
        -0.03242657333612442,
        -3.969536781311035,
        0.0015795525396242738,
        -1.6985284090042114,
        -0.2564111053943634,
        0.28460854291915894,
        -2.494722604751587,
        -3.350191593170166,
        -0.8874130845069885,
        -0.07891210168600082,
        0.19208866357803345,
        -1.1671748161315918,
        -1.3205136060714722,
        -0.7469350695610046,
        0.09697920083999634,
        -2.3565895557403564,
        -0.8256929516792297,
        -1.8552190065383911,
        -0.15748141705989838,
        -1.2458817958831787,
        -0.3159806430339813,
        -0.25936946272850037,
        -1.7405352592468262,
        -0.9495615363121033,
        -1.562801480293274,
        -0.48357072472572327,
        -1.1124945878982544,
        -0.559118926525116,
        -1.2473740577697754,
        -0.9884482622146606,
        -0.8628791570663452,
        0.21258419752120972,
        -0.9463617205619812,
        -1.7915890216827393,
        -2.1495842933654785,
        -1.7889286279678345,
        -0.6958045363426208,
        -1.2136354446411133,
        -0.7547116875648499,
        -0.5887832045555115,
        -0.7239131927490234,
        -0.6810232400894165,
        -0.4128139317035675,
        -1.1955453157424927,
        -0.5628284811973572,
        -1.7452850341796875,
        -3.244016647338867,
        -0.9084951281547546,
        -2.37595272064209,
        -1.3254551887512207,
        -0.2293945699930191,
        -1.2935556173324585,
        -0.5903733968734741,
        -1.4625751972198486,
        -0.6826028227806091,
        -0.14345860481262207,
        -0.9268326163291931,
        -2.1324198246002197,
        -1.2612998485565186,
        -1.049898386001587,
        -1.7026619911193848,
        -1.5452173948287964,
        -0.8507415652275085,
        -0.03843320161104202,
        -1.510884404182434,
        -0.023912550881505013,
        -0.7038632035255432,
        -1.0438059568405151,
        -0.64383465051651,
        0.0027589129749685526,
        -0.8534184694290161,
        -0.42105358839035034,
        -1.4071259498596191,
        0.02087877131998539,
        -1.6722670793533325,
        -0.7234957218170166,
        -0.7259728312492371
      ],
      "weights": [
        -0.023560939356684685,
        -0.0018546206410974264,
        1.2555768489837646,
        -0.14580081403255463,
        -0.041990891098976135,
        0.3566969037055969,
        -0.04892633482813835,
        -0.1024823859333992,
        0.0029400333296507597,
        -0.0019353952957317233,
        -3.097508430480957,
        -0.08324147760868073,
        -0.009966284036636353,
        -0.08168432861566544,
        -0.21036061644554138,
        0.7994796633720398,
        0.1560639888048172,
        -0.01258890237659216,
        -0.007757361512631178,
        0.41113004088401794,
        0.29094749689102173,
        -1.4171576499938965,
        9.597932815551758,
        0.011129050515592098,
        0.0009809192270040512,
        -0.0034507126547396183,
        0.0004958934150636196,
        0.004927739035338163,
        -0.0010399569291621447,
        0.0053571355529129505,
        11.429200172424316,
        -4.069860733579844e-05,
        0.7930014133453369,
        0.015341348946094513,
        -0.6784847378730774,
        -0.1202894002199173,
        -1.6591243743896484,
        0.10872849076986313,
        -0.07282627373933792,
        0.07588149607181549,
        0.08799207210540771,
        -0.006826379336416721,
        -0.05471741035580635,
        -1.0933138132095337,
        -2.291706085205078,
        -1.0671783685684204,
        1.916090726852417,
        -0.03822461515665054,
        -0.013129021041095257,
        0.011046132072806358,
        0.04393937438726425,
        -0.07195450365543365,
        -0.2398831695318222,
        0.7305920720100403,
        -0.4905075132846832,
        0.8971916437149048,
        -0.01275040302425623,
        0.0017823588568717241,
        0.10668474435806274,
        -0.695883572101593,
        -1.7465468645095825,
        3.5158519744873047,
        -0.031226133927702904,
        -0.01452814694494009,
        -0.1399737298488617,
        0.7278478741645813,
        0.02821921557188034,
        -2.818877696990967,
        -0.10353264212608337,
        3.080897092819214,
        -0.5300343036651611,
        -0.037027228623628616,
        0.6290187239646912,
        -0.0009106195066124201,
        -0.7847816348075867,
        0.027283722534775734,
        0.36579638719558716,
        0.061951879411935806,
        -0.08046149462461472,
        0.3254021108150482,
        -0.010220814496278763,
        0.00017708454106468707,
        -0.0009875815594568849,
        0.021737951785326004,
        -0.051253724843263626,
        0.1861143559217453,
        -0.10874582827091217,
        -2.9833054542541504,
        -0.1219504103064537,
        0.0012425846653059125,
        -0.36655592918395996,
        -0.010090397670865059,
        0.03235197439789772,
        -0.07492797076702118,
        0.2362673133611679,
        -0.21865960955619812,
        0.045258231461048126,
        -0.005483988672494888,
        -0.003965606912970543,
        0.25649911165237427,
        -3.6860644817352295,
        0.06883525103330612,
        -0.06323525309562683,
        -0.027288231998682022,
        -0.01226020511239767,
        0.014068862423300743,
        -0.029746538028120995,
        -2.654526948928833,
        0.5451991558074951,
        -2.9960641860961914,
        -0.00559824937954545,
        0.011003219522535801,
        -0.09689036756753922,
        0.000781756010837853,
        0.03789227828383446,
        -0.16409577429294586,
        0.029742419719696045,
        0.18084047734737396,
        8.929853439331055,
        -0.00014731480041518807,
        -0.01618807204067707,
        -0.011973725631833076,
        -0.0689929649233818,
        0.8619067072868347,
        0.8788159489631653,
        -3.765537738800049,
        -0.07831522077322006,
        -1.3047975301742554,
        -0.014514694921672344,
        0.0013381688622757792,
        -0.006292847450822592,
        0.22743189334869385,
        1.078322172164917,
        -0.6404489874839783,
        -0.021430037915706635,
        0.022798147052526474,
        0.1230982318520546,
        -0.7374058961868286,
        -0.07809743285179138,
        -1.8143951892852783,
        0.6446230411529541,
        -2.1882877349853516,
        -0.5163455605506897,
        0.060336269438266754,
        0.004691205453127623,
        0.00027138134464621544,
        0.0018490327056497335,
        0.0009034756221808493,
        0.0036342802923172712,
        0.00903115514665842,
        11.405415534973145,
        -0.00011130799975944683,
        -0.07157433778047562,
        -0.019198423251509666,
        -0.05311044678092003,
        -0.144998237490654,
        -0.36308711767196655,
        1.5695452690124512,
        0.6279608607292175,
        0.8570272326469421,
        0.07864809036254883,
        -0.014084838330745697,
        -0.027003657072782516,
        -2.7379448413848877,
        -0.8942348957061768,
        -1.4463839530944824,
        0.4173308312892914,
        0.016447147354483604,
        -0.003536257427185774,
        0.00992098543792963,
        -2.842222213745117,
        0.06199130415916443,
        0.057318925857543945,
        0.08918818831443787,
        -0.15317562222480774,
        -0.09712032228708267,
        -0.15315411984920502,
        0.002155380556359887,
        0.0360553115606308,
        -2.4708306789398193,
        0.054302483797073364,
        0.9063615798950195,
        6.975955009460449,
        0.0055132475681602955,
        0.000111651788756717,
        0.0016679111868143082,
        0.5029805302619934,
        0.21539437770843506,
        -0.10465855151414871,
        0.0874747484922409,
        -0.07956759631633759,
        -0.4277121424674988,
        -2.7373273372650146,
        -0.0007822909974493086,
        0.12556101381778717,
        0.10133735835552216,
        -0.014789762906730175,
        0.13315868377685547,
        -0.1426481157541275,
        -0.014009506441652775,
        0.8910245895385742,
        -0.00269740866497159,
        -0.8679830431938171,
        0.16682927310466766,
        0.012451274320483208,
        -0.07731060683727264,
        -0.128400981426239,
        -0.30401772260665894,
        -0.036971673369407654,
        -0.003605504985898733,
        1.4058538675308228,
        -0.016697539016604424,
        0.035259779542684555,
        -0.15208233892917633,
        -0.08806584775447845,
        0.06966419517993927,
        0.2187330573797226,
        -0.0006993654533289373,
        0.417010098695755,
        0.07365526258945465,
        -0.15196937322616577,
        0.3733151853084564,
        -0.08798398077487946,
        -0.4139498770236969,
        0.5633171796798706,
        0.0214979350566864,
        -0.3856101930141449,
        0.34259986877441406,
        -0.07046137005090714,
        0.015374241396784782,
        -0.36397385597229004,
        0.05242582783102989,
        -0.04860185086727142,
        -0.005259992554783821,
        0.03885597363114357,
        -2.4765944480895996,
        -1.3497239351272583,
        -2.2568519115448,
        -0.04725887253880501,
        0.021969445049762726,
        -0.06025197356939316,
        -0.043593309819698334,
        -0.10883382707834244,
        0.057892248034477234,
        0.06671447306871414,
        3.7523696422576904,
        -0.8162297606468201,
        0.12156090140342712,
        -0.9915493726730347,
        -0.008239599876105785,
        0.7546045780181885,
        -2.4233851432800293,
        -0.22606293857097626,
        1.4776222705841064,
        -0.06833941489458084,
        -0.19319762289524078,
        -0.14712148904800415,
        0.0020303460769355297,
        -0.45113521814346313,
        -0.06092345714569092,
        0.04363483935594559,
        -0.01528279297053814,
        3.084949493408203,
        -0.06114663556218147,
        -0.07962135970592499,
        0.012319100089371204,
        0.1559499055147171,
        0.289962500333786,
        0.0077996826730668545,
        1.3547887802124023,
        3.298698663711548,
        0.014989547431468964,
        -0.13114237785339355,
        -0.007000512443482876,
        0.032116297632455826,
        -1.2955454587936401,
        0.43125832080841064,
        1.1138378381729126,
        0.30629292130470276,
        -1.8905220031738281,
        -1.5739399194717407,
        0.018781103193759918,
        0.24393442273139954,
        0.8556269407272339,
        0.44829532504081726,
        -0.1517694741487503,
        0.16045667231082916,
        -0.08313316851854324,
        0.034920383244752884,
        0.9584786891937256,
        -0.004844756796956062,
        -1.7826578617095947,
        -0.002175761852413416,
        1.6761884689331055,
        -0.5883046984672546,
        0.0017790822312235832,
        -0.3313964009284973,
        -0.0045240712352097034,
        0.1326795518398285,
        0.5200054049491882,
        0.9089195728302002,
        -0.1286720335483551,
        -0.08034426718950272,
        0.10335049778223038,
        0.23195353150367737,
        1.07304048538208,
        -0.27063193917274475,
        -3.1006698608398438,
        0.5763005614280701,
        -0.6435430645942688,
        -0.5335889458656311,
        -0.059452563524246216,
        0.23752380907535553,
        0.011567571200430393,
        -0.4425341784954071,
        -1.1109530925750732,
        1.1792000532150269,
        -2.7468512058258057,
        -0.15545842051506042,
        0.06316447257995605,
        -0.013176633045077324,
        0.0028159499634057283,
        1.4739246368408203,
        -0.113459512591362,
        0.07022148370742798,
        -0.2278926521539688,
        -0.046957191079854965,
        0.04544302821159363,
        0.01722518727183342,
        -0.019833972677588463,
        0.07467982918024063,
        -1.0408400297164917,
        -1.9772858619689941,
        3.70548415184021,
        -0.044212255626916885,
        -0.9185749292373657,
        0.04809976741671562,
        1.1066392660140991,
        -0.009393230080604553,
        -0.0005806145491078496,
        0.27274078130722046,
        -0.1022409051656723,
        -0.930761992931366,
        0.0020059733651578426,
        0.055891674011945724,
        -0.002480520633980632,
        0.45021650195121765,
        -0.005711400881409645,
        0.11225879937410355,
        -0.16583167016506195,
        -0.07216470688581467,
        0.17112164199352264,
        -0.0034184828400611877,
        0.0006083013140596449,
        -0.0066764275543391705,
        -0.015153707005083561,
        0.0020081375259906054,
        0.014042836613953114,
        0.2574559152126312,
        0.6695128679275513,
        0.030875148251652718,
        -0.0016165374545380473,
        -0.002636454300954938,
        -0.8632510900497437,
        -3.9253907203674316,
        0.3021377921104431,
        0.0055832089856266975,
        -0.012526686303317547,
        0.12367038428783417,
        0.006614556070417166,
        -0.6443144679069519,
        1.4178788661956787,
        -0.6367236375808716,
        -1.0809727907180786,
        -0.6640762090682983,
        0.6852117776870728,
        0.006662089377641678,
        0.0028029419481754303,
        0.020331328734755516,
        -0.10322698205709457,
        -4.118667125701904,
        0.41030386090278625,
        -0.02487051673233509,
        0.0018865243764594197,
        -0.10576336085796356,
        -0.00327132036909461,
        0.5347974896430969,
        -0.11386393010616302,
        0.03246409818530083,
        0.30048707127571106,
        2.480506658554077,
        -0.8860034942626953,
        0.33356380462646484,
        -0.029326196759939194,
        -0.07094872742891312,
        -1.309171199798584,
        -1.120145320892334,
        -1.281479001045227,
        -0.07755451649427414,
        -0.16952583193778992,
        1.2146830558776855,
        0.010428101755678654,
        -2.337543249130249,
        -0.028387879952788353,
        -0.0138480756431818,
        0.0546690970659256,
        -0.15573687851428986,
        0.6019312739372253,
        0.0015074543189257383,
        0.002141085220500827,
        0.03630742430686951,
        -0.16095083951950073,
        -3.8764467239379883,
        0.6633284091949463,
        -0.03671256825327873,
        -0.030453775078058243,
        0.002861862303689122,
        0.0009363718563690782,
        0.004682424012571573,
        -0.0007293379749171436,
        0.0028028052765876055,
        0.0035478821955621243,
        11.205029487609863,
        0.0008420626982115209,
        -0.8388031721115112,
        0.007461924105882645,
        -0.04767771065235138,
        -2.5143918991088867,
        0.14677071571350098,
        1.3704355955123901,
        -0.11863521486520767,
        0.13742892444133759,
        0.07024981826543808,
        -0.0009987138910219073,
        -0.008119593374431133,
        0.6647306084632874,
        0.04362049326300621,
        -0.3766063153743744,
        -3.149409055709839,
        0.0005667817313224077,
        -0.0014161699218675494,
        -0.0018132724799215794,
        -7.729651406407356e-05,
        -0.05328346788883209,
        0.009498312138020992,
        0.07050737738609314,
        11.275142669677734,
        -0.0031149026472121477,
        -0.04675721749663353,
        -0.00649814959615469,
        -1.9988820552825928,
        0.004829868674278259,
        0.06909843534231186,
        0.06935890018939972,
        6.891794681549072,
        0.6881957650184631,
        -2.4993438720703125,
        -0.0014506266452372074,
        1.2811297178268433,
        -0.029190123081207275,
        -0.17624324560165405,
        0.3067817986011505,
        -0.18719616532325745,
        -0.16611149907112122,
        0.36815568804740906,
        -1.0683592557907104,
        -0.28906679153442383,
        -0.5742490887641907,
        -0.2680973410606384,
        -0.524711012840271,
        -0.6940594911575317,
        -0.14887377619743347,
        -0.002040375489741564,
        0.0021874408703297377,
        -0.0034476544242352247,
        -0.007031190674751997,
        0.0014179300051182508,
        -0.0017176615074276924,
        0.0827900841832161,
        1.9259053468704224,
        -0.04619530960917473,
        -0.005300946068018675,
        0.2489819973707199,
        -0.36305609345436096,
        -1.5473495721817017,
        1.4239426851272583,
        -0.06211957708001137,
        -1.960314154624939,
        0.0006868578493595123,
        -0.7066922187805176,
        -0.049760881811380386,
        -3.5713980197906494,
        -0.20707090198993683,
        3.140316963195801,
        -0.36339831352233887,
        -0.003684805938974023,
        0.010092310607433319,
        0.4410150945186615,
        0.03910212218761444,
        -1.1252988576889038,
        -2.3326215744018555,
        1.990173101425171,
        -0.4110655188560486,
        -0.008055435493588448,
        0.0836649239063263,
        0.4831393361091614,
        -0.03323782607913017,
        -3.4709506034851074,
        0.011479188688099384,
        1.7607231140136719,
        -0.2638552188873291,
        0.0063744583167135715,
        -0.8669436573982239,
        0.008188784122467041,
        0.701686680316925,
        -0.1805141270160675,
        -0.06289315223693848,
        0.3743343949317932,
        4.713939666748047,
        -0.10322337597608566,
        0.08481713384389877,
        -0.5175070762634277,
        -0.060396671295166016,
        -1.4571179151535034,
        0.02820407971739769,
        0.5744738578796387,
        -0.4217045307159424,
        0.00384411308914423,
        -0.027825787663459778,
        -1.176249384880066,
        0.05231010168790817,
        -0.2757006883621216,
        0.06550736725330353,
        0.7661269307136536,
        -0.9830150008201599,
        -0.02247970923781395,
        -0.4765623211860657,
        0.018637599423527718,
        -0.6681673526763916,
        -0.01967521756887436,
        -0.01203213818371296,
        0.13423468172550201,
        2.6132984161376953,
        0.5632668137550354,
        -0.2073112279176712,
        -0.004544948693364859,
        0.09443435072898865,
        -1.4052449464797974,
        0.18414126336574554,
        -3.463125228881836,
        -0.03778981417417526,
        -0.018756739795207977,
        -1.0655759572982788,
        -0.033060528337955475,
        -1.6501262187957764,
        -0.487766832113266,
        0.1603878289461136,
        0.7833590507507324,
        -0.09321129322052002,
        -0.6305769085884094,
        0.7913820147514343,
        0.004471110180020332,
        -0.6584406495094299,
        -0.11830786615610123,
        -3.0048205852508545,
        0.3910483121871948,
        -0.05695902556180954,
        -0.06684397906064987,
        -0.017615584656596184,
        0.013002255000174046,
        -2.8052725791931152,
        0.035473816096782684,
        0.05595441162586212,
        0.07319937646389008,
        1.066064715385437,
        -0.03837212547659874,
        -0.13294586539268494,
        -0.017593959346413612,
        1.1008127927780151,
        0.025067195296287537,
        -0.0775952860713005,
        1.1868983507156372,
        1.075901985168457,
        -0.3457294702529907,
        -0.06084843724966049,
        -0.0035914238542318344,
        -0.9837231636047363,
        -0.0676519051194191,
        -0.018331162631511688,
        0.06155496835708618,
        0.025549177080392838,
        0.47345423698425293,
        -0.015061979182064533,
        -0.008958862163126469,
        -0.008087008260190487,
        -4.037720680236816,
        0.011381175369024277,
        1.8253090381622314,
        9.693304061889648,
        0.0008658058359287679,
        -0.3106408715248108,
        -0.009284840896725655,
        -0.24779696762561798,
        -1.4169007539749146,
        0.3184557855129242,
        0.826861560344696,
        5.061285018920898,
        -0.0066634658724069595,
        0.1331123262643814,
        -0.006608065217733383,
        -0.20739412307739258,
        -0.19387832283973694,
        0.3721919655799866,
        -0.9736897349357605,
        -0.11228296905755997,
        -2.06466007232666,
        0.003957497887313366,
        -0.00011670967796817422,
        0.051822662353515625,
        -0.37484997510910034,
        -3.5986530780792236,
        1.9675475358963013,
        -0.02113642543554306,
        -0.004407705273479223,
        -0.6785423755645752,
        -0.0035393452271819115,
        0.2598251700401306,
        0.18579451739788055,
        -0.4748328924179077,
        1.1978412866592407,
        -0.32328715920448303,
        -0.2515358328819275,
        0.0002094153460348025,
        -0.0015608263202011585,
        -0.001602796372026205,
        -0.25385022163391113,
        0.01572936587035656,
        0.22013233602046967,
        11.467987060546875,
        -0.0002430603199172765,
        1.0897550582885742,
        0.028298689052462578,
        0.31217458844184875,
        1.114137053489685,
        -0.8685150146484375,
        -0.6416449546813965,
        -0.16613590717315674,
        0.1940733790397644,
        0.004428131505846977,
        0.0007954883039928973,
        0.03128340095281601,
        -0.0992325097322464,
        -3.9981229305267334,
        0.9328718185424805,
        -0.04689374566078186,
        0.0017664042534306645,
        0.0023033085744827986,
        0.0048654209822416306,
        0.00014425991685129702,
        -1.5053536891937256,
        0.020113760605454445,
        0.8836842179298401,
        12.214287757873535,
        -0.002244667150080204,
        0.10940968990325928,
        0.8176805973052979,
        -0.038791634142398834,
        -2.481917381286621,
        0.6452649831771851,
        -1.1987119913101196,
        -0.7647168636322021,
        0.029216762632131577,
        -0.9670529961585999,
        -0.016285203397274017,
        0.5362911820411682,
        -0.07687219977378845,
        -3.050114154815674,
        0.2895766794681549,
        -0.1798776537179947,
        -0.07475493103265762,
        -0.017372412607073784,
        0.00019509771664161235,
        0.06269029527902603,
        -1.0805577039718628,
        -0.9605633616447449,
        0.027373386546969414,
        6.206925392150879,
        -0.030656911432743073,
        0.1917087882757187,
        0.007771734613925219,
        -0.6168481707572937,
        -0.6368906497955322,
        0.2447574883699417,
        0.3916928172111511,
        -0.23339644074440002,
        0.47519388794898987,
        0.02972554974257946,
        0.31642404198646545,
        -0.028854120522737503,
        -0.5645279884338379,
        0.1442357301712036,
        -0.39118584990501404,
        -0.03873927891254425,
        -1.7994563579559326,
        0.07979906350374222,
        -0.33803290128707886,
        -0.002512985607609153,
        -0.3332165777683258,
        0.03740104287862778,
        0.3641796410083771,
        -4.187467575073242,
        0.004238719120621681,
        0.005984456744045019,
        -0.9277974963188171,
        0.014789373613893986,
        -1.626924753189087,
        0.009003271348774433,
        1.5364652872085571,
        -0.7609663605690002,
        -0.004679693840444088,
        -0.17575563490390778,
        0.0053110490553081036,
        0.04942416772246361,
        -4.01771879196167,
        0.11477337032556534,
        0.7191283106803894,
        1.1401246786117554,
        -0.026194389909505844,
        0.06019646301865578,
        -0.4299371838569641,
        -0.02679964154958725,
        -3.1176106929779053,
        0.029980167746543884,
        1.3642750978469849,
        -0.4462127089500427,
        -0.01077784039080143,
        -0.007333160378038883,
        -0.008697458542883396,
        0.10491366684436798,
        -0.6330393552780151,
        -2.766786575317383,
        3.0160725116729736,
        -0.021587898954749107,
        -0.024037644267082214,
        -0.006230880506336689,
        0.0008675411227159202,
        0.003094838932156563,
        -0.24946662783622742,
        0.0005336509784683585,
        0.3113718330860138,
        11.249833106994629,
        -0.00572382565587759,
        0.08627314865589142,
        0.46296998858451843,
        -0.03246820718050003,
        -1.3110766410827637,
        0.04549257084727287,
        0.2566606402397156,
        -0.8706886768341064,
        0.002416228409856558,
        -0.029468853026628494,
        -0.015536886639893055,
        0.07931817322969437,
        -0.30593442916870117,
        -0.5307754874229431,
        1.4681956768035889,
        -0.03856778144836426,
        -2.7126471996307373,
        0.060843683779239655,
        0.26444441080093384,
        0.002235017716884613,
        -0.1751665472984314,
        0.013237077742815018,
        0.26530495285987854,
        -4.102831840515137,
        0.007658510934561491,
        0.12974300980567932,
        0.014686847105622292,
        -0.051583632826805115,
        -2.623960018157959,
        0.6115041971206665,
        -1.9660184383392334,
        4.572493553161621,
        -0.01109378319233656,
        0.0011560325510799885,
        0.009519609622657299,
        -0.12697936594486237,
        0.5043343305587769,
        0.9979578256607056,
        -2.432814121246338,
        5.377242565155029,
        0.033393893390893936,
        -0.029619993641972542,
        -0.008611472323536873,
        0.027369355782866478,
        -1.441410779953003,
        -0.046818751841783524,
        0.9261583089828491,
        10.163751602172852,
        -0.014628814533352852
      ]
    },
    {
      "activation": "rectified",
      "architecture": "dense",
      "bias": [
        -0.07331165671348572,
        -0.2787332236766815,
        -0.08568325638771057,
        0.5162577629089355,
        -0.16353413462638855,
        0.4960186779499054,
        -0.2995142340660095,
        0.2567806541919708,
        0.36510273814201355,
        0.3796631693840027,
        0.44275540113449097,
        0.12349850684404373,
        0.2743730843067169,
        0.5647176504135132,
        -1.08552885055542,
        0.22995324432849884,
        -0.8268564343452454,
        -0.11567037552595139,
        0.44766122102737427,
        0.39608848094940186,
        -0.7092049717903137,
        -1.0031628608703613,
        -0.9618203639984131,
        0.34245842695236206,
        0.22996871173381805,
        0.16000087559223175,
        0.06010571867227554,
        -0.2189716100692749,
        0.052312299609184265,
        -1.8015738725662231,
        0.30349740386009216,
        0.7302466034889221,
        0.15206508338451385,
        0.014827820472419262,
        -3.5033199787139893,
        0.5537369847297668,
        -1.1024384498596191,
        -0.006153003312647343,
        0.3287942707538605,
        0.07420565187931061,
        -1.271776795387268,
        0.5639510750770569,
        -0.4317062795162201,
        -0.20409542322158813,
        0.049323126673698425,
        0.07366384565830231,
        0.09062405675649643,
        -0.8874045610427856,
        -0.023438289761543274,
        -0.12226781249046326,
        -1.1734981536865234,
        0.4789203703403473,
        0.19944559037685394,
        -0.13681861758232117,
        -0.30369874835014343,
        0.660834789276123,
        0.5165667533874512,
        0.10781562328338623,
        0.12860411405563354,
        0.47283583879470825,
        0.011226539500057697,
        -1.3971540927886963,
        0.2515968978404999,
        -0.4831141233444214,
        0.5579261183738708,
        0.12713496387004852,
        -0.9340762495994568,
        -0.7228174805641174,
        0.15727490186691284,
        0.4081956148147583,
        -0.29554516077041626,
        -0.06310886144638062,
        0.3398844599723816,
        0.21819216012954712,
        0.4829554259777069,
        -1.3501112461090088,
        0.4616915285587311,
        0.43374767899513245,
        0.11966308206319809,
        -0.4595507085323334,
        0.02775461971759796,
        -1.7968130111694336,
        0.2644836902618408,
        -1.579501748085022,
        -2.248239517211914,
        0.6664665341377258,
        0.27253857254981995,
        -1.158200740814209,
        -0.21637405455112457,
        0.7727280855178833,
        0.014528055675327778,
        -0.32778510451316833,
        0.11392101645469666,
        0.45747125148773193,
        -0.22745390236377716,
        -2.881981134414673,
        -0.969075083732605,
        0.002827672054991126,
        -6.0197062492370605,
        -1.1404660940170288
      ],
      "weights": [
        -0.8619670271873474,
        -1.1682904958724976,
        -0.7572100758552551,
        -0.8581083416938782,
        -1.3421070575714111,
        -0.2889249324798584,
        -0.690585732460022,
        0.2837110459804535,
        -0.47758591175079346,
        -0.4359937012195587,
        0.08444484323263168,
        -0.014995723962783813,
        1.355344533920288,
        -2.1360504627227783,
        0.5618624687194824,
        0.026394860818982124,
        0.04232099652290344,
        -0.2175995260477066,
        -0.5176308751106262,
        -0.055578093975782394,
        -1.241356611251831,
        -18.53476905822754,
        -0.07194776833057404,
        -0.1938813179731369,
        -0.6187044382095337,
        -0.24446605145931244,
        -1.1536909341812134,
        1.1222037076950073,
        -0.2508442997932434,
        -2.159496784210205,
        -1.517939805984497,
        -0.002776802284643054,
        0.055674564093351364,
        0.005853184033185244,
        0.24888381361961365,
        0.4163515567779541,
        -0.2513808310031891,
        0.2140139639377594,
        -3.7994909286499023,
        -0.1690971851348877,
        3.542203664779663,
        0.4768825173377991,
        -0.0922582596540451,
        -1.1248852014541626,
        0.02973848767578602,
        -2.211371421813965,
        0.7149875164031982,
        0.9536726474761963,
        0.17202237248420715,
        -0.4659661054611206,
        -11.933077812194824,
        -0.08597824722528458,
        0.2190636247396469,
        0.2471703737974167,
        -0.012266737408936024,
        0.7570854425430298,
        -2.5194950103759766,
        -0.016231246292591095,
        0.6205782890319824,
        -0.00173288700170815,
        -0.4925113320350647,
        -1.4865491390228271,
        0.08194512873888016,
        -0.9034732580184937,
        0.023040587082505226,
        -0.20304973423480988,
        0.018879851326346397,
        0.673439085483551,
        -0.3420192003250122,
        -0.5335555672645569,
        -1.204606294631958,
        -22.253080368041992,
        -1.6651191711425781,
        0.22184185683727264,
        -0.3285464644432068,
        0.13676370680332184,
        0.15288297832012177,
        -0.39150288701057434,
        0.4959801733493805,
        0.08660255372524261,
        -1.0592883825302124,
        1.0981919765472412,
        -0.025622624903917313,
        -0.10766493529081345,
        0.6229419112205505,
        -0.20252063870429993,
        -0.32950666546821594,
        -0.005749411415308714,
        -0.5819975137710571,
        -0.3416022062301636,
        -0.3938524127006531,
        -0.5726029276847839,
        0.07305412739515305,
        0.26780539751052856,
        -0.46666860580444336,
        0.2574920952320099,
        0.12578243017196655,
        -0.7555604577064514,
        0.23467113077640533,
        0.016055937856435776,
        -0.0033228129614144564,
        -0.08142033964395523,
        -0.04454292729496956,
        -0.20196841657161713,
        -0.1796507090330124,
        -0.0852963998913765,
        0.08120114356279373,
        -0.08804088830947876,
        -0.1413530856370926,
        0.023599140346050262,
        -0.13264256715774536,
        -0.08831571042537689,
        -0.134934201836586,
        -0.023780427873134613,
        -0.10773039609193802,
        0.11423937976360321,
        -0.22371862828731537,
        0.02040235698223114,
        -0.05559170991182327,
        -0.1053735762834549,
        -0.06421519815921783,
        -0.17684462666511536,
        -0.10641978681087494,
        -0.14336693286895752,
        -0.19410423934459686,
        -0.15633736550807953,
        -0.05891447514295578,
        -0.09936004877090454,
        -0.07856424152851105,
        -0.11581196635961533,
        -0.06488247215747833,
        0.021123193204402924,
        0.0025479018222540617,
        -0.07614026218652725,
        -0.11944298446178436,
        -0.036434106528759,
        -0.3285529613494873,
        -0.04224018380045891,
        -0.16583828628063202,
        -0.005885780788958073,
        -0.012912199832499027,
        0.08202309161424637,
        -0.15430939197540283,
        -0.18039341270923615,
        -0.00824759155511856,
        -0.12299662828445435,
        -0.21148787438869476,
        -0.017156004905700684,
        -0.08398837596178055,
        -0.04248525947332382,
        0.02690831758081913,
        0.03963082656264305,
        -0.06633790582418442,
        -0.11684642732143402,
        -0.33289986848831177,
        0.07811885327100754,
        -0.24361293017864227,
        -0.1839519441127777,
        -0.13558322191238403,
        -0.024550726637244225,
        -0.163964182138443,
        0.08224677294492722,
        -0.0679384246468544,
        -0.018703976646065712,
        0.061921313405036926,
        -0.13943485915660858,
        -0.032960426062345505,
        -0.07579798996448517,
        -0.23766516149044037,
        0.08689367771148682,
        -0.10994843393564224,
        -0.12062836438417435,
        -0.11499558389186859,
        -0.07507050782442093,
        -0.07183193415403366,
        -0.1974116563796997,
        -0.16589894890785217,
        -0.2254277467727661,
        0.005085845477879047,
        0.11951491236686707,
        -0.22939783334732056,
        0.04521476849913597,
        -0.21289998292922974,
        -0.20778504014015198,
        -0.03225689381361008,
        -0.05840952321887016,
        -0.00440888199955225,
        -0.0845826268196106,
        -0.20570288598537445,
        0.06405936181545258,
        -0.14263944327831268,
        -0.10438495129346848,
        -0.08529525250196457,
        0.034631382673978806,
        0.018707940354943275,
        -0.19821205735206604,
        -0.2946039140224457,
        -0.1371568888425827,
        -0.0026776581071317196,
        -0.13606499135494232,
        -9.082371711730957,
        0.5207968950271606,
        -0.03022693283855915,
        2.1962814331054688,
        -0.13829126954078674,
        0.1430862993001938,
        0.4849327504634857,
        -14.202255249023438,
        0.44507738947868347,
        -0.2176448255777359,
        -2.2585318088531494,
        -0.09076280891895294,
        0.2492787390947342,
        0.8288750052452087,
        -0.16661955416202545,
        0.24975526332855225,
        -0.1548527181148529,
        -0.0029304027557373047,
        2.028148889541626,
        -4.831264972686768,
        0.07664572447538376,
        0.3241552412509918,
        0.12250100076198578,
        0.21270045638084412,
        -0.4198623299598694,
        0.28308892250061035,
        -10.555930137634277,
        -1.3400887250900269,
        -0.026122834533452988,
        2.4287607669830322,
        -0.5894458293914795,
        -0.07364144176244736,
        0.0041860900819301605,
        -0.5897749662399292,
        -0.9404832124710083,
        -2.143129348754883,
        0.1635819524526596,
        -0.7342591881752014,
        -0.3547854721546173,
        0.25163188576698303,
        -9.023114204406738,
        -10.63086223602295,
        0.051893431693315506,
        -2.9012699127197266,
        -2.8020412921905518,
        0.7352396249771118,
        0.37300437688827515,
        2.4491829872131348,
        2.3229780197143555,
        0.3227650821208954,
        -0.4715571403503418,
        1.1867867708206177,
        1.4973200559616089,
        0.172592893242836,
        0.08917707949876785,
        0.01129494234919548,
        -6.3604841232299805,
        0.0628441721200943,
        0.1209389716386795,
        -0.7455722093582153,
        -0.39487776160240173,
        0.7561895847320557,
        0.08157753944396973,
        0.39412131905555725,
        -0.41650593280792236,
        0.3528432846069336,
        -0.02578357420861721,
        -0.2521325349807739,
        0.7836933135986328,
        -0.33816149830818176,
        -0.3870198726654053,
        -0.9564754366874695,
        -4.140707015991211,
        -0.2326798141002655,
        0.04809517413377762,
        -0.21286563575267792,
        1.6930655241012573,
        -1.0048025846481323,
        -0.0324639193713665,
        0.6375207304954529,
        0.47065073251724243,
        1.463296890258789,
        0.1878093183040619,
        -0.13618063926696777,
        0.17445160448551178,
        -0.17873942852020264,
        -1.100353717803955,
        0.08033061772584915,
        0.055097904056310654,
        0.3105921149253845,
        -0.06939834356307983,
        0.35250407457351685,
        -3.5007472038269043,
        0.18162959814071655,
        0.14881189167499542,
        -3.0126726627349854,
        0.07988876849412918,
        0.10862141102552414,
        0.4616844356060028,
        -0.03759819269180298,
        -0.032155003398656845,
        0.20949406921863556,
        0.242574080824852,
        -25.356449127197266,
        0.12159635126590729,
        -0.14670677483081818,
        0.14002878963947296,
        0.24557411670684814,
        0.1353369802236557,
        0.5324816703796387,
        -2.434962511062622,
        -0.11189986020326614,
        -0.054824098944664,
        -1.8891953229904175,
        0.1292366236448288,
        -3.7860829830169678,
        0.2747362554073334,
        -1.9048290252685547,
        -24.42304039001465,
        0.10644055902957916,
        0.10051053762435913,
        0.2610394358634949,
        -0.1371990144252777,
        -2.0310449600219727,
        -1.4145299196243286,
        0.04421355202794075,
        0.04533917084336281,
        -0.3243109881877899,
        0.5244651436805725,
        -6.665844917297363,
        -1.8343079090118408,
        -0.26927879452705383,
        -0.0780624970793724,
        0.5544312596321106,
        -0.5605183243751526,
        -3.5092029571533203,
        -0.7185344099998474,
        0.03287898749113083,
        0.2664490342140198,
        -0.08038011938333511,
        0.03915126249194145,
        0.047618184238672256,
        -1.0871561765670776,
        -0.02195480838418007,
        -0.05288970097899437,
        -0.09268257021903992,
        -0.2153003215789795,
        -1.6282680034637451,
        -5.102120876312256,
        0.025293197482824326,
        0.1409159004688263,
        -0.31300851702690125,
        -21.276077270507812,
        -0.6087769269943237,
        -7.004029750823975,
        -4.415615081787109,
        0.3340914249420166,
        -0.7851571440696716,
        0.3243557810783386,
        -0.0017943353159353137,
        -0.7858090996742249,
        0.9228674173355103,
        0.11858914792537689,
        -1.4239948987960815,
        -0.025966711342334747,
        -0.8985723853111267,
        -1.5920319557189941,
        -0.14514033496379852,
        -0.3118472695350647,
        -2.813462257385254,
        0.004135110415518284,
        0.3407440483570099,
        -1.9038790464401245,
        0.13657963275909424,
        0.1038299947977066,
        -0.46187087893486023,
        -0.918001115322113,
        0.3413203954696655,
        -0.865115761756897,
        -2.6373443603515625,
        -0.8211337327957153,
        -0.8819181323051453,
        -0.4756223261356354,
        -2.6950507164001465,
        -6.355794906616211,
        -0.35699671506881714,
        0.33681896328926086,
        -1.6039457321166992,
        -6.664211750030518,
        -1.7373034954071045,
        -0.07805915921926498,
        -2.116673707962036,
        0.36899515986442566,
        -0.5607137084007263,
        -0.9590866565704346,
        -0.27514123916625977,
        -10.110004425048828,
        0.03241588547825813,
        0.37162572145462036,
        0.3168930113315582,
        0.1784345805644989,
        -2.924557685852051,
        -0.2830560505390167,
        0.1476963311433792,
        -0.8230054378509521,
        -0.021886078640818596,
        0.5570569634437561,
        1.0064396858215332,
        0.4142879545688629,
        -0.48804330825805664,
        -12.305550575256348,
        0.6989844441413879,
        -0.17603182792663574,
        -0.30414023995399475,
        0.14410483837127686,
        -6.016580581665039,
        0.0598406121134758,
        -0.02578323520720005,
        0.2236987054347992,
        0.6118208169937134,
        0.023572660982608795,
        -13.00633716583252,
        -0.008024460636079311,
        -0.47970888018608093,
        -4.3877787590026855,
        -0.6321802735328674,
        0.08222772181034088,
        -2.259977102279663,
        -1.179411768913269,
        0.24595381319522858,
        1.9208333492279053,
        0.04446970671415329,
        0.6338775157928467,
        0.1632256805896759,
        -8.998183250427246,
        0.8885630369186401,
        -0.045316245406866074,
        0.12517261505126953,
        -0.3243931829929352,
        -0.4052937626838684,
        0.24805478751659393,
        -2.8668739795684814,
        0.13752388954162598,
        0.07426360249519348,
        0.11710634082555771,
        1.489087462425232,
        0.42590004205703735,
        4.864746570587158,
        -13.542654037475586,
        -0.8129181265830994,
        0.1470126509666443,
        0.4878445267677307,
        0.8781986832618713,
        0.21932058036327362,
        0.007529816590249538,
        0.6123156547546387,
        0.5574583411216736,
        -0.11793037503957748,
        0.313863068819046,
        0.00808979757130146,
        -12.094047546386719,
        -0.5794823169708252,
        0.1525200456380844,
        -0.34319642186164856,
        -0.013180029578506947,
        -0.009041030891239643,
        0.01609767973423004,
        -0.013898811303079128,
        -0.06572965532541275,
        -6.157687664031982,
        -1.6973971128463745,
        -14.176815032958984,
        -0.7487182021141052,
        0.27292582392692566,
        0.039852384477853775,
        -0.42938539385795593,
        -9.637577056884766,
        1.1790586709976196,
        1.668322205543518,
        0.037593599408864975,
        1.2255035638809204,
        3.137052297592163,
        0.038161467760801315,
        -0.16932111978530884,
        0.09774483740329742,
        -0.041331928223371506,
        0.36358097195625305,
        -7.925065517425537,
        -0.0421307198703289,
        0.21255852282047272,
        -0.04348194971680641,
        -0.4292999505996704,
        1.376664161682129,
        0.03202369436621666,
        -0.06417565047740936,
        -13.382975578308105,
        0.009876200929284096,
        -0.20085984468460083,
        0.040465500205755234,
        0.00037745211739093065,
        0.007875273004174232,
        0.1219005435705185,
        0.7448254227638245,
        -17.294414520263672,
        -5.629062652587891,
        -0.74806809425354,
        -0.11809147894382477,
        0.24091081321239471,
        0.4578480124473572,
        -0.1964421421289444,
        0.06312426924705505,
        -0.06562439352273941,
        -0.6461637616157532,
        -0.3335131108760834,
        -0.7163292169570923,
        -0.5431192517280579,
        0.11939027160406113,
        0.13782814145088196,
        -15.812828063964844,
        0.05701327696442604,
        -0.557740330696106,
        0.49088624119758606,
        -0.7846771478652954,
        0.0993427112698555,
        1.6273168325424194,
        -2.5943198204040527,
        0.030759185552597046,
        0.1720302551984787,
        -1.3604532480239868,
        0.31726720929145813,
        -1.1258448362350464,
        0.19123981893062592,
        -0.0356045700609684,
        0.07447996735572815,
        0.11251584440469742,
        -0.36316704750061035,
        -0.18098503351211548,
        0.02138870768249035,
        0.29207688570022583,
        -0.12645040452480316,
        0.005676668602973223,
        0.22065773606300354,
        0.2773662507534027,
        0.15064071118831635,
        0.03536738082766533,
        2.142444372177124,
        0.2619522213935852,
        4.791840076446533,
        0.020494213327765465,
        -0.3512873947620392,
        -3.8400919437408447,
        0.3616071045398712,
        -13.323986053466797,
        0.03138372302055359,
        -0.002867411356419325,
        -8.81852912902832,
        0.7729598879814148,
        0.035397469997406006,
        -0.27839648723602295,
        0.016891339793801308,
        -0.07860829681158066,
        1.0065232515335083,
        -0.15500785410404205,
        0.46783018112182617,
        0.039050161838531494,
        1.3647823333740234,
        0.04721761867403984,
        -0.15715119242668152,
        -0.13660083711147308,
        -0.40743470191955566,
        -7.513688564300537,
        0.5778394937515259,
        -0.04431396350264549,
        0.12075310945510864,
        -3.2920053005218506,
        -0.06546884030103683,
        0.17066076397895813,
        0.4820947051048279,
        -0.20209598541259766,
        -9.901883125305176,
        -0.019936751574277878,
        1.9102139472961426,
        -5.6120686531066895,
        0.06558319181203842,
        -0.07575886696577072,
        -0.624943196773529,
        0.02352469600737095,
        0.33686012029647827,
        -0.024815615266561508,
        -0.22592337429523468,
        -0.42399853467941284,
        -0.12997189164161682,
        0.05938124656677246,
        -3.5919551849365234,
        1.0726975202560425,
        -0.021784020587801933,
        -0.0030759365763515234,
        -0.11965934187173843,
        0.16119949519634247,
        -0.992095947265625,
        -0.7356122136116028,
        0.33870255947113037,
        2.0402188301086426,
        11.269309043884277,
        0.19013339281082153,
        0.9395355582237244,
        -11.446715354919434,
        -0.35397785902023315,
        -5.911432266235352,
        0.10326369851827621,
        -0.4263424575328827,
        0.24751733243465424,
        0.9480553865432739,
        0.9524956941604614,
        0.6007124781608582,
        1.7670111656188965,
        -0.47984257340431213,
        -0.2972589433193207,
        10.004959106445312,
        -0.0016559567302465439,
        0.6587082743644714,
        0.6627825498580933,
        0.07348994165658951,
        0.04350683093070984,
        -6.647099494934082,
        0.3200814127922058,
        -0.09878475964069366,
        -0.6071489453315735,
        -0.07884951680898666,
        2.679291248321533,
        0.016367189586162567,
        -0.10400308668613434,
        -0.024533279240131378,
        -0.7069212198257446,
        -0.6849386692047119,
        -1.8471330404281616,
        -6.756511688232422,
        -0.40446481108665466,
        -8.29265022277832,
        -0.05390537902712822,
        -0.12356112897396088,
        -0.1769813448190689,
        -10.733429908752441,
        0.09488074481487274,
        0.0006428500637412071,
        2.2183825969696045,
        -1.4489507675170898,
        -0.6979882121086121,
        0.0017869031289592385,
        0.44638776779174805,
        0.06083577498793602,
        0.5071308612823486,
        8.481339454650879,
        -0.27658310532569885,
        0.05084481090307236,
        3.4655377864837646,
        -0.0111196618527174,
        0.4831198751926422,
        -6.555340766906738,
        0.01450920756906271,
        0.182489275932312,
        -5.288640975952148,
        -0.5136808753013611,
        -0.7358983159065247,
        0.10740415006875992,
        -0.660452127456665,
        -10.232622146606445,
        -0.1949329823255539,
        -0.2877883315086365,
        0.637276291847229,
        0.13461889326572418,
        0.279611200094223,
        -3.6744256019592285,
        0.18054892122745514,
        -0.14399123191833496,
        -0.37053507566452026,
        0.5397741794586182,
        -0.22657743096351624,
        -0.3671313524246216,
        1.3061861991882324,
        -0.7104801535606384,
        -1.8185923099517822,
        0.020397134125232697,
        -0.5699668526649475,
        0.02749275229871273,
        0.44412779808044434,
        0.26637738943099976,
        0.16149629652500153,
        0.0386420376598835,
        -4.899270534515381,
        0.06012818589806557,
        -0.44120869040489197,
        -0.33583149313926697,
        0.5677082538604736,
        -0.5195884108543396,
        -0.22459165751934052,
        0.08522792160511017,
        0.9662827849388123,
        -0.006572469137609005,
        0.04986774921417236,
        0.01686299405992031,
        -1.300362467765808,
        0.9328770637512207,
        -23.200302124023438,
        -0.36337462067604065,
        -11.654526710510254,
        0.09216932952404022,
        -0.3276693522930145,
        0.3056448996067047,
        0.10912889242172241,
        -0.23404954373836517,
        -0.09754711389541626,
        -7.018024921417236,
        -0.6374372839927673,
        -2.4090919494628906,
        0.03965449333190918,
        0.07710043340921402,
        0.23089057207107544,
        -22.133419036865234,
        0.06527384370565414,
        -4.774930953979492,
        -0.22434084117412567,
        -2.4311749935150146,
        0.09397631883621216,
        0.7609424591064453,
        0.1446504443883896,
        0.00018825642473530024,
        0.09072871506214142,
        -0.09656824171543121,
        -20.83186912536621,
        0.36766114830970764,
        0.1275389939546585,
        -0.3439304232597351,
        0.05425356328487396,
        0.11255845427513123,
        0.03299342840909958,
        0.40235012769699097,
        0.03052210621535778,
        -0.1878490298986435,
        0.10795052349567413,
        -0.001949175726622343,
        -0.6636788845062256,
        0.11529409140348434,
        0.08019755780696869,
        0.052717506885528564,
        -10.927274703979492,
        0.03633584454655647,
        -16.368797302246094,
        0.04639556258916855,
        -0.8973128795623779,
        0.04130029305815697,
        -11.516881942749023,
        -20.90473747253418,
        -0.3374195396900177,
        0.055922579020261765,
        -16.761920928955078,
        -0.4503396451473236,
        0.064155712723732,
        -0.04609709233045578,
        0.006332124583423138,
        0.11600948125123978,
        0.3237527906894684,
        -0.40914425253868103,
        1.0353577136993408,
        -0.04608774185180664,
        0.2513677775859833,
        0.16205234825611115,
        -0.18893103301525116,
        -0.21911373734474182,
        -1.0808597803115845,
        -4.098771572113037,
        -6.33537483215332,
        0.09311804920434952,
        -0.257699579000473,
        -20.13409996032715,
        -0.43175220489501953,
        0.33666202425956726,
        -10.168649673461914,
        -0.4708210229873657,
        -23.538843154907227,
        -0.3541574478149414,
        -14.798333168029785,
        -17.57303237915039,
        0.1629672348499298,
        -0.36987316608428955,
        -1.6118205785751343,
        0.15995442867279053,
        -0.047706346958875656,
        0.013641552068293095,
        0.18869632482528687,
        -0.7544305324554443,
        0.5682989358901978,
        -4.22908353805542,
        -9.470925331115723,
        0.06871508061885834,
        -0.3054239749908447,
        0.06557726114988327,
        -0.48244374990463257,
        0.27686607837677,
        -3.2801921367645264,
        0.13767564296722412,
        -0.6370735168457031,
        0.6238889098167419,
        -20.776931762695312,
        0.0997454822063446,
        -0.13821358978748322,
        0.2982544004917145,
        -0.7268272638320923,
        -1.5531222820281982,
        0.002982823411002755,
        0.229021355509758,
        0.02667686901986599,
        -0.3077875077724457,
        0.3015478849411011,
        -2.904804229736328,
        0.6316171884536743,
        -1.1489250659942627,
        1.1624287366867065,
        -19.844329833984375,
        -0.19628950953483582,
        0.5703760385513306,
        0.3017706573009491,
        -1.3673807382583618,
        0.2943522036075592,
        -9.053515434265137,
        -0.3499253988265991,
        0.029328731819987297,
        0.23058687150478363,
        -0.0374893881380558,
        1.1172242164611816,
        -4.356852054595947,
        -0.07977340370416641,
        0.313707172870636,
        -2.5660769939422607,
        -0.7081993818283081,
        -0.3326159119606018,
        0.2862193286418915,
        -1.038570523262024,
        1.5837645530700684,
        0.032117292284965515,
        0.08949512988328934,
        -0.9626692533493042,
        -0.394957035779953,
        0.13462288677692413,
        0.06026231124997139,
        -0.3653564155101776,
        0.0073491246439516544,
        -0.4806414842605591,
        -0.019813796505331993,
        0.41756653785705566,
        -0.3590848445892334,
        0.2816241681575775,
        -18.52163314819336,
        -0.06684112548828125,
        -0.007250377908349037,
        -8.44140625,
        -0.17061620950698853,
        -0.23257410526275635,
        1.0185528993606567,
        0.034783780574798584,
        0.17737436294555664,
        -0.02961171418428421,
        0.20349247753620148,
        -0.2896296977996826,
        -0.3674185276031494,
        0.3281390964984894,
        -0.4416457712650299,
        0.17776921391487122,
        -0.02734570950269699,
        -4.3047990798950195,
        -0.19995920360088348,
        -0.3710479438304901,
        0.17602434754371643,
        0.3144398629665375,
        -3.5590977668762207,
        -0.737977921962738,
        0.28722524642944336,
        -1.0429197549819946,
        -0.28661420941352844,
        -6.543145179748535,
        -0.054264575242996216,
        -1.2470930814743042,
        -4.815610408782959,
        1.3473832607269287,
        -0.19953788816928864,
        -0.34403836727142334,
        0.2343628704547882,
        0.3268499970436096,
        -0.028150664642453194,
        0.1926226019859314,
        -0.39101642370224,
        0.11612264066934586,
        -0.9988837838172913,
        -3.0462193489074707,
        0.17530319094657898,
        0.13931787014007568,
        0.022618407383561134,
        -0.47478365898132324,
        -0.4976615905761719,
        -1.387520432472229,
        0.044224899262189865,
        -0.08305323868989944,
        0.8092268109321594,
        -17.9274959564209,
        -0.06051087751984596,
        -0.40043404698371887,
        0.04800545796751976,
        0.09028860181570053,
        0.8969998955726624,
        0.037006549537181854,
        -0.1524302065372467,
        -0.027010532096028328,
        0.05229584872722626,
        -0.2556912302970886,
        -1.5934158563613892,
        -0.21294613182544708,
        0.18216347694396973,
        -0.2877086400985718,
        -17.47902488708496,
        0.04931167513132095,
        -0.7553625106811523,
        0.048979390412569046,
        -1.4658867120742798,
        0.04020152986049652,
        -1.4364442825317383,
        -0.10797429829835892,
        0.025235582143068314,
        0.06732142716646194,
        0.0004990928573533893,
        -3.2719011306762695,
        -0.185832217335701,
        0.13995356857776642,
        -0.020397096872329712,
        0.1447008103132248,
        -0.18795062601566315,
        -0.026442933827638626,
        0.7185485363006592,
        0.134037584066391,
        -1.2352619171142578,
        0.1454823613166809,
        -0.0019647562876343727,
        0.09620879590511322,
        0.03446659445762634,
        0.08268262445926666,
        0.02052835375070572,
        -0.8672056794166565,
        0.14466768503189087,
        2.1581711769104004,
        -0.0932321548461914,
        0.24205879867076874,
        -0.09757986664772034,
        1.0330830812454224,
        -15.350905418395996,
        -0.038854919373989105,
        -0.020075371488928795,
        -11.708976745605469,
        0.12720873951911926,
        -0.08940751105546951,
        -0.573146641254425,
        0.006242186296731234,
        0.13847817480564117,
        0.8983659148216248,
        -0.10113158077001572,
        2.919236421585083,
        0.044594306498765945,
        -0.06260549277067184,
        -0.023311836645007133,
        -0.06507361680269241,
        -0.09583741426467896,
        0.19015762209892273,
        -0.06582692265510559,
        -0.03933541476726532,
        0.06085546314716339,
        0.06438885629177094,
        -8.919748306274414,
        -0.1675010770559311,
        -0.2697816491127014,
        0.18509790301322937,
        -0.0556161105632782,
        -12.678186416625977,
        -0.07020106166601181,
        0.14598366618156433,
        -10.530149459838867,
        -0.27786150574684143,
        -0.34005507826805115,
        -1.326521396636963,
        0.03075924515724182,
        0.2011527270078659,
        0.048753589391708374,
        0.6054080724716187,
        -0.5427532196044922,
        1.434575080871582,
        0.10535776615142822,
        -4.876875400543213,
        -0.3835800290107727,
        -0.025484247133135796,
        0.0014239291194826365,
        -1.0287517309188843,
        0.12227827310562134,
        -2.395738363265991,
        -3.190246105194092,
        -4.175303936004639,
        0.2287621647119522,
        4.54989767074585,
        -0.059680573642253876,
        0.10649320483207703,
        -10.892918586730957,
        -0.3222920298576355,
        -1.8200129270553589,
        0.34562167525291443,
        -0.21724025905132294,
        0.08895544707775116,
        0.2344600409269333,
        0.9933919906616211,
        0.5943646430969238,
        -0.7955226898193359,
        -0.18428935110569,
        0.07918917387723923,
        3.4043426513671875,
        0.21474288403987885,
        0.18936823308467865,
        -13.660930633544922,
        0.06309664994478226,
        -0.055047910660505295,
        -2.3590731620788574,
        0.08818709850311279,
        -0.2827328145503998,
        -0.3389921486377716,
        0.410484254360199,
        6.219978332519531,
        -1.91738760471344,
        -3.946479320526123,
        0.13783639669418335,
        -0.12299709022045135,
        -0.1547127366065979,
        -3.6746535301208496,
        0.0073486194014549255,
        -0.47219738364219666,
        0.081800676882267,
        0.2895222306251526,
        -0.36409449577331543,
        -0.21293167769908905,
        -0.06725583225488663,
        -0.22602859139442444,
        0.016770437359809875,
        -0.24831067025661469,
        -0.6962156891822815,
        -6.734265327453613,
        0.23675686120986938,
        -0.3948729634284973,
        -0.16475220024585724,
        -0.8694836497306824,
        2.766810655593872,
        -0.42128217220306396,
        -1.0324008464813232,
        0.75313800573349,
        -4.899684906005859,
        -9.224325180053711,
        0.07720047235488892,
        -0.003849126398563385,
        0.024587642401456833,
        -1.0972073078155518,
        0.23356229066848755,
        0.24282614886760712,
        -1.1264564990997314,
        0.1983644664287567,
        0.06483930349349976,
        -0.25747916102409363,
        0.12851732969284058,
        0.661726176738739,
        -0.15944652259349823,
        -15.303494453430176,
        -8.087806701660156,
        -0.3876487910747528,
        0.15819330513477325,
        -0.2771677076816559,
        -0.27184972167015076,
        -1.2063733339309692,
        -0.5820554494857788,
        0.5064865350723267,
        0.36318570375442505,
        -4.322277545928955,
        0.34239399433135986,
        -0.06623446941375732,
        -1.322479248046875,
        0.08468835800886154,
        0.18476811051368713,
        -0.015575856901705265,
        -1.0371594429016113,
        0.17625407874584198,
        -0.07498222589492798,
        0.1289142370223999,
        -0.6654961705207825,
        0.6534621715545654,
        -0.05561621114611626,
        -0.02210976369678974,
        -0.7288169264793396,
        0.6219804286956787,
        0.10944892466068268,
        0.2057972550392151,
        -0.005967491306364536,
        1.4791725873947144,
        0.8973434567451477,
        12.99813461303711,
        0.17310582101345062,
        -1.6026430130004883,
        -0.03973136842250824,
        -0.2959783971309662,
        -0.17344039678573608,
        0.09054727107286453,
        -12.628216743469238,
        -26.192407608032227,
        -36.30941390991211,
        0.8560764789581299,
        1.0666141510009766,
        -4.130713939666748,
        0.22329704463481903,
        0.0323910117149353,
        11.478282928466797,
        0.021786276251077652,
        0.5233577489852905,
        -6.902163982391357,
        0.09679912775754929,
        -0.04778044670820236,
        -2.6369729042053223,
        -0.3198966085910797,
        -0.01612037792801857,
        0.08661705255508423,
        0.42953211069107056,
        -0.25606080889701843,
        -7.779141426086426,
        -0.029671980068087578,
        -2.1603331565856934,
        0.33131280541419983,
        -3.306366443634033,
        0.23433542251586914,
        -0.009556068107485771,
        0.15211009979248047,
        0.14654694497585297,
        -0.18513642251491547,
        0.02480234205722809,
        1.3979425430297852,
        -0.16761928796768188,
        0.06828439235687256,
        -0.056902870535850525,
        -11.913738250732422,
        0.1964210420846939,
        -7.516007900238037,
        -0.05799204856157303,
        -0.6300379037857056,
        -0.9891489744186401,
        -19.25904083251953,
        7.636385917663574,
        0.10067477822303772,
        -1.8607655763626099,
        2.122286796569824,
        1.2937167882919312,
        0.35190069675445557,
        0.15664544701576233,
        0.0023414583411067724,
        0.58552086353302,
        -5.377609729766846,
        -0.5879868268966675,
        -0.47917354106903076,
        -0.25896891951560974,
        -0.23773549497127533,
        -0.05361596494913101,
        -0.2958078682422638,
        0.48164963722229004,
        -2.807888984680176,
        -2.321425437927246,
        -7.383440017700195,
        -0.08379245549440384,
        0.47611358761787415,
        0.10019005835056305,
        -1.1680176258087158,
        -10.180400848388672,
        -22.496761322021484,
        -1.3373357057571411,
        1.8728865385055542,
        0.23320063948631287,
        -8.585966110229492,
        0.8760034441947937,
        -0.24420200288295746,
        0.14615020155906677,
        -0.02655351348221302,
        -0.05138077214360237,
        -1.7828342914581299,
        -2.099240303039551,
        -0.20416149497032166,
        0.07743217796087265,
        -0.4088819622993469,
        -7.846908092498779,
        1.7699980735778809,
        -0.21619735658168793,
        -2.1516833305358887,
        -3.3672702312469482,
        0.15276643633842468,
        0.05791249871253967,
        0.4409492015838623,
        -0.0417957529425621,
        -3.175841808319092,
        0.10152430087327957,
        -16.205671310424805,
        0.04223301634192467,
        -0.8897820115089417,
        0.5609893202781677,
        0.012897839769721031,
        -0.49865788221359253,
        0.07588928937911987,
        -0.5447013974189758,
        -1.9305342435836792,
        -7.934360027313232,
        -0.330983966588974,
        -0.6074506640434265,
        0.45998066663742065,
        0.1366240382194519,
        -0.12425737828016281,
        -14.357048034667969,
        -0.1672319918870926,
        -0.9079989790916443,
        -2.5831143856048584,
        -0.2986249029636383,
        0.25066065788269043,
        -2.062629222869873,
        0.05604246258735657,
        -0.2245418280363083,
        0.19636569917201996,
        0.06087400019168854,
        -0.3293208181858063,
        -5.489294052124023,
        0.012279612012207508,
        -10.654070854187012,
        1.1171557903289795,
        0.47552770376205444,
        0.013171667233109474,
        -0.008533580228686333,
        -0.1073627918958664,
        1.0891621112823486,
        -0.09669254720211029,
        -0.17894364893436432,
        0.0528038814663887,
        -0.13837505877017975,
        1.7015340328216553,
        -0.08060543984174728,
        -4.8073530197143555,
        0.31301483511924744,
        -7.456142425537109,
        0.261064350605011,
        0.16677851974964142,
        -0.1251544952392578,
        -14.740762710571289,
        -10.135536193847656,
        0.42535457015037537,
        -1.3747330904006958,
        -3.2697882652282715,
        -11.841144561767578,
        -0.034020181745290756,
        0.010295365937054157,
        -0.03776225820183754,
        0.15952759981155396,
        -0.7959145903587341,
        0.04310784861445427,
        0.3014565706253052,
        0.07105840742588043,
        0.4022989571094513,
        -0.3526672422885895,
        0.28371158242225647,
        -0.38881444931030273,
        -2.2513749599456787,
        0.09351206570863724,
        -2.1667802333831787,
        0.47570496797561646,
        0.12379466742277145,
        -0.6066952347755432,
        -1.1779874563217163,
        0.27674150466918945,
        -12.32526683807373,
        -0.772125780582428,
        -1.78727126121521,
        -0.15178236365318298,
        -6.996737957000732,
        -0.7627530694007874,
        -0.0022290877532213926,
        -0.6651037335395813,
        -0.33584120869636536,
        -0.11060839146375656,
        0.1118762195110321,
        -0.8353124856948853,
        0.2916596233844757,
        -0.23149961233139038,
        0.03939967229962349,
        0.11486214399337769,
        -1.0362015962600708,
        0.3855285048484802,
        -0.17781877517700195,
        -0.6218233704566956,
        -0.2500320076942444,
        0.26166826486587524,
        -0.3148561418056488,
        0.09600168466567993,
        -2.8952441215515137,
        0.09943639487028122,
        -15.024923324584961,
        -0.00799209251999855,
        -0.34964093565940857,
        -12.245660781860352,
        -0.013823901303112507,
        -0.9424704909324646,
        -0.32336023449897766,
        0.4528295695781708,
        -4.262618064880371,
        -0.3995192348957062,
        -0.6198978424072266,
        -0.5323532819747925,
        0.05693129450082779,
        0.605193018913269,
        0.061827052384614944,
        -13.252886772155762,
        -3.8493967056274414,
        -0.4688737392425537,
        -4.041754722595215,
        -0.17307603359222412,
        0.28614968061447144,
        -4.583557605743408,
        0.07440998405218124,
        0.24610361456871033,
        -0.050258129835128784,
        0.21506507694721222,
        -4.221004009246826,
        0.3235618472099304,
        -0.01589357480406761,
        -17.3924617767334,
        0.2377329170703888,
        0.1676890254020691,
        0.2668677270412445,
        0.16208407282829285,
        -0.22432279586791992,
        -0.7416242361068726,
        -0.5038023591041565,
        -0.0964532345533371,
        -0.6403217315673828,
        0.2251279354095459,
        0.0924178883433342,
        -0.011012324132025242,
        -6.7977213859558105,
        -1.0772298574447632,
        -10.177059173583984,
        0.10795321315526962,
        0.16713275015354156,
        -3.664644718170166,
        -2.2025363445281982,
        -9.343072891235352,
        -1.3978148698806763,
        0.1648746132850647,
        -3.450591564178467,
        -2.7763547897338867,
        0.1695324033498764,
        -0.17093488574028015,
        -0.0005230259848758578,
        0.188625305891037,
        -1.103821039199829,
        0.03093412145972252,
        0.27325698733329773,
        -0.05350233614444733,
        0.07086820155382156,
        0.24495387077331543,
        -8.05703067779541,
        -0.18279163539409637,
        -3.0352303981781006,
        0.16937653720378876,
        -1.0913501977920532,
        1.1793091297149658,
        -9.454947471618652,
        -0.3629781901836395,
        1.8387528657913208,
        -0.5529131889343262,
        -2.1923604011535645,
        -0.43254354596138,
        -1.6255463361740112,
        0.7805092930793762,
        -9.10503101348877,
        -0.3601413369178772,
        0.20712397992610931,
        -0.36020219326019287,
        -0.09523574262857437,
        -2.876370429992676,
        -0.04250103235244751,
        0.06658709794282913,
        0.18484660983085632,
        -0.3349757194519043,
        0.26411986351013184,
        -0.16315411031246185,
        -0.6818593144416809,
        0.1513826698064804,
        -0.3221983313560486,
        0.14728312194347382,
        -0.023844538256525993,
        -0.14380471408367157,
        -0.06530322879552841,
        3.927447557449341,
        -1.2571632862091064,
        -0.12022141367197037,
        -0.5959157943725586,
        -1.3256644010543823,
        -0.019232019782066345,
        0.11708804965019226,
        0.16969840228557587,
        0.006725893821567297,
        -0.4229903221130371,
        -0.025439294055104256,
        0.44215989112854004,
        -0.06455311924219131,
        0.026310475543141365,
        0.02661188505589962,
        0.49518340826034546,
        -0.013626431114971638,
        -0.04918903857469559,
        -0.23803453147411346,
        -0.6680220365524292,
        -0.020276334136724472,
        -3.489997386932373,
        0.009505903348326683,
        0.04880435764789581,
        0.6562539339065552,
        -2.649174928665161,
        -0.2515753209590912,
        0.09434511512517929,
        -2.1269593238830566,
        -0.6935365796089172,
        0.18371839821338654,
        0.03148292005062103,
        0.14334753155708313,
        0.35564208030700684,
        0.7869358658790588,
        1.152655005455017,
        -0.013314362615346909,
        -0.05254829674959183,
        0.10304829478263855,
        -0.07333076000213623,
        -0.12318533658981323,
        -0.06551708281040192,
        -0.09502425789833069,
        -0.005479131825268269,
        0.0107665890827775,
        -0.9996127486228943,
        0.17308272421360016,
        1.3902559280395508,
        -0.02815389074385166,
        0.22976277768611908,
        -1.059443473815918,
        0.6298914551734924,
        -0.2619723379611969,
        -0.010524241253733635,
        -0.04761136695742607,
        0.09857825189828873,
        2.609821081161499,
        -0.04583658650517464,
        -0.332732230424881,
        0.506472647190094,
        0.6169293522834778,
        0.24158574640750885,
        -0.06174773350358009,
        -0.0035709363874047995,
        -0.004450174979865551,
        0.015143766067922115,
        -0.19003619253635406,
        -0.03126760572195053,
        0.005443009547889233,
        -1.8927979469299316,
        -0.501582682132721,
        -2.441134452819824,
        1.4379397630691528,
        0.03715623915195465,
        -0.01897619478404522,
        0.042511507868766785,
        -0.051336634904146194,
        -0.1126709058880806,
        -0.027826445177197456,
        -0.03326128423213959,
        -1.7950257062911987,
        1.2277966737747192,
        -0.04688771441578865,
        0.05516704544425011,
        0.02856244333088398,
        0.006100616883486509,
        0.015249322168529034,
        0.17427952587604523,
        -0.054409950971603394,
        0.026208175346255302,
        -0.006354065611958504,
        -0.0405619814991951,
        -0.2832587659358978,
        0.032345663756132126,
        -0.02295834757387638,
        0.05019441246986389,
        0.016469359397888184,
        -0.013769876211881638,
        0.052475590258836746,
        -0.023064663633704185,
        0.08069591224193573,
        0.15794715285301208,
        0.8005967140197754,
        -34.94221115112305,
        -0.04396045580506325,
        0.269803524017334,
        -0.08193422108888626,
        0.024166420102119446,
        0.25130388140678406,
        0.09535547345876694,
        -0.1226014643907547,
        0.14742349088191986,
        -0.22992397844791412,
        0.6300394535064697,
        -4.258077621459961,
        0.4754346013069153,
        0.3642521798610687,
        -0.13721513748168945,
        -35.42911911010742,
        -0.05071833357214928,
        0.11969798058271408,
        0.12543819844722748,
        -3.3419699668884277,
        0.20399411022663116,
        -0.5335476994514465,
        0.23638774454593658,
        0.029257647693157196,
        0.07080676406621933,
        0.014244386926293373,
        -3.8483176231384277,
        0.1842428743839264,
        -0.07953879237174988,
        -0.0037414967082440853,
        -0.04330606758594513,
        -0.32309091091156006,
        -0.7877640724182129,
        0.2854321599006653,
        0.21777604520320892,
        0.036256369203329086,
        -0.023287979885935783,
        0.0044028982520103455,
        0.14495749771595,
        0.1392451524734497,
        0.0958700031042099,
        0.009650024585425854,
        -2.276747465133667,
        -0.07191220670938492,
        -2.716174364089966,
        0.018368735909461975,
        0.029011419042944908,
        0.15270878374576569,
        -0.7200325131416321,
        -35.001583099365234,
        -0.7408661842346191,
        0.0010397032601758838,
        -38.13808059692383,
        0.16114600002765656,
        -0.058874454349279404,
        -0.09429236501455307,
        0.011096788570284843,
        -0.05290572717785835,
        0.2714066505432129,
        -0.1215168759226799,
        -0.632194459438324,
        -0.09893464297056198,
        0.15343031287193298,
        0.14425140619277954,
        0.2268477976322174,
        -0.3001736104488373,
        -0.6015099883079529,
        0.02356342412531376,
        0.12850795686244965,
        -0.0538729690015316,
        0.26179513335227966,
        -21.165210723876953,
        -1.9622422456741333,
        0.3215431571006775,
        0.48862725496292114,
        -0.6932206749916077,
        -41.00697708129883,
        -0.18465739488601685,
        -0.5390177369117737,
        -30.643962860107422,
        0.03798768296837807,
        -3.170440196990967,
        -0.6991654634475708,
        -0.0019232113845646381,
        0.16849566996097565,
        -0.036138106137514114,
        0.22114433348178864,
        -0.6426548957824707,
        -0.38078901171684265,
        -0.17376191914081573,
        -17.61904525756836,
        0.06713405251502991,
        -0.10324539989233017,
        -0.01400324422866106,
        0.02097233757376671,
        -0.1371433287858963,
        -3.9619760513305664,
        0.7851621508598328,
        -0.18882888555526733,
        0.6000545024871826,
        1.6367179155349731,
        -0.3025813102722168,
        0.17734313011169434,
        -0.18032397329807281,
        -0.21494072675704956,
        -5.137068748474121,
        -0.06806527823209763,
        0.455779492855072,
        0.1643526554107666,
        0.23855264484882355,
        -0.10408134013414383,
        0.05432073399424553,
        1.0943351984024048,
        0.007070962805300951,
        -0.24399597942829132,
        1.951819896697998,
        -0.11286890506744385,
        -0.04520855098962784,
        -0.09884913265705109,
        0.013373896479606628,
        0.024799123406410217,
        0.9604986906051636,
        -0.6142750382423401,
        0.32168859243392944,
        -0.4452654719352722,
        0.19597157835960388,
        -1.4921907186508179,
        -2.9196736812591553,
        0.045428089797496796,
        0.07119933515787125,
        0.3743508458137512,
        0.597277820110321,
        0.23092053830623627,
        -0.3299964368343353,
        -0.06582320481538773,
        -3.9371893405914307,
        0.0014134867815300822,
        0.30717673897743225,
        -0.03136283904314041,
        -0.09079079329967499,
        0.948358952999115,
        0.047589801251888275,
        0.1857406049966812,
        -1.5962687730789185,
        0.4472636282444,
        0.02159360982477665,
        0.0016990716103464365,
        0.4092353284358978,
        0.2119598388671875,
        1.5153902769088745,
        0.02852524258196354,
        -0.04458428546786308,
        0.15793271362781525,
        0.15494993329048157,
        -0.07726110517978668,
        -3.069704055786133,
        -0.015103300102055073,
        1.1907413005828857,
        -1.8351012468338013,
        0.06163245067000389,
        -0.4385041892528534,
        -0.004737220238894224,
        -0.3273346424102783,
        -0.4481203258037567,
        -0.058829933404922485,
        0.08045067638158798,
        -1.441454291343689,
        -0.4823177754878998,
        -0.049455612897872925,
        3.5934877395629883,
        -0.06710421293973923,
        0.07270073890686035,
        0.06293501704931259,
        0.8398892879486084,
        -0.03720702975988388,
        0.2253149300813675,
        -0.23760531842708588,
        -0.7983892560005188,
        0.02008477970957756,
        -0.16583682596683502,
        0.06260309368371964,
        0.04833152890205383,
        -0.07898392528295517,
        -0.5480295419692993,
        0.13728982210159302,
        0.09122543036937714,
        -0.5075849294662476,
        0.17801712453365326,
        -0.3313964307308197,
        -0.06544121354818344,
        -0.2530428171157837,
        -0.21641390025615692,
        0.2923707664012909,
        -0.033451586961746216,
        -0.10487397015094757,
        -0.08081310987472534,
        -0.058336321264505386,
        -0.030418504029512405,
        -0.006466700229793787,
        -15.071965217590332,
        -29.09242820739746,
        -0.2245936244726181,
        0.1034000962972641,
        -2.6717936992645264,
        0.11038713902235031,
        0.06992631405591965,
        -0.22918647527694702,
        0.347054660320282,
        0.009431198239326477,
        0.2851652204990387,
        -29.223440170288086,
        -0.10385815054178238,
        -1.3297802209854126,
        0.10546474158763885,
        -1.786485195159912,
        -26.312082290649414,
        -0.5758123993873596,
        -17.532285690307617,
        -0.019897151738405228,
        0.047469254583120346,
        0.06610412895679474,
        2.670625686645508,
        -0.13765542209148407,
        0.04343747720122337,
        0.15980154275894165,
        -0.22577425837516785,
        -10.493630409240723,
        -0.1906396597623825,
        0.2545746862888336,
        0.02975974604487419,
        0.16114768385887146,
        0.2995034456253052,
        0.2220287024974823,
        0.3629014790058136,
        0.2583004832267761,
        -3.179208517074585,
        -4.624595642089844,
        -0.028402237221598625,
        0.04376285895705223,
        0.13380935788154602,
        0.09873849153518677,
        -6.029134750366211,
        2.573963165283203,
        -6.242639541625977,
        -0.031061720103025436,
        0.1256876289844513,
        -0.8678051829338074,
        -0.20931023359298706,
        0.6316550970077515,
        -23.212411880493164,
        0.336639404296875,
        0.10387252271175385,
        -0.943332850933075,
        0.0346531867980957,
        0.46549543738365173,
        -7.926815509796143,
        -18.696569442749023,
        0.22879408299922943,
        -0.09752795845270157,
        0.3735988438129425,
        2.0396735668182373,
        -0.5265887379646301,
        -0.3358941078186035,
        -0.6400242447853088,
        0.05288843810558319,
        -13.163676261901855,
        -0.39457574486732483,
        -0.12865857779979706,
        -0.11286716163158417,
        -0.29199084639549255,
        0.04993231222033501,
        0.3731978237628937,
        0.21783997118473053,
        -0.3673126697540283,
        -0.22743010520935059,
        0.13028299808502197,
        0.19268150627613068,
        0.3554111421108246,
        -0.02685823105275631,
        0.3001325726509094,
        -0.7698621153831482,
        -0.9349403977394104,
        -0.7185862064361572,
        0.040935732424259186,
        -0.10225910693407059,
        0.15572898089885712,
        0.5649817585945129,
        -1.4476356506347656,
        1.1867177486419678,
        0.04335890710353851,
        0.32885053753852844,
        -0.21923945844173431,
        0.20384445786476135,
        0.039268992841243744,
        -8.214461326599121,
        -0.9410385489463806,
        0.13706213235855103,
        0.06388292461633682,
        0.3776531219482422,
        0.5058679580688477,
        -36.46279525756836,
        0.11861037462949753,
        0.012768526561558247,
        0.06077209860086441,
        -0.1335553526878357,
        -2.766571521759033,
        0.07392571121454239,
        -0.06613073498010635,
        -0.008611667901277542,
        0.3774014413356781,
        -2.703693389892578,
        -1.6013959646224976,
        0.5158979296684265,
        0.03916757553815842,
        0.6856402158737183,
        -36.29233169555664,
        0.03712349757552147,
        -2.324101448059082,
        0.07122619450092316,
        -0.7160704135894775,
        0.05158267542719841,
        1.910094976425171,
        0.12848185002803802,
        0.025164876133203506,
        0.050480470061302185,
        0.11128048598766327,
        -4.550662040710449,
        -1.7620302438735962,
        -0.08973590284585953,
        0.017514022067189217,
        0.013768034987151623,
        -0.3042007386684418,
        -0.05098796635866165,
        -0.2208043485879898,
        0.07022266834974289,
        -1.2957539558410645,
        -0.1651047319173813,
        0.024265335872769356,
        -0.20539647340774536,
        0.14384660124778748,
        0.07924363762140274,
        0.02523096464574337,
        -1.5880608558654785,
        0.09004532545804977,
        -0.27915528416633606,
        0.05009806156158447,
        -0.26109325885772705,
        0.28716176748275757,
        0.27498096227645874,
        -36.221771240234375,
        -0.23054155707359314,
        0.09046358615159988,
        -19.250080108642578,
        0.07486248761415482,
        0.14124560356140137,
        -0.47208231687545776,
        0.021854905411601067,
        0.1781182885169983,
        -2.7362403869628906,
        -0.07830969989299774,
        -0.7650302052497864,
        0.04075862094759941,
        0.19529315829277039,
        0.0690825954079628,
        -0.03200720623135567,
        -0.3414119482040405,
        -1.2174009084701538,
        0.14992210268974304,
        0.2496706247329712,
        0.025688504800200462,
        0.08700572699308395,
        -3.375053644180298,
        -0.03429533168673515,
        0.1754283607006073,
        -0.49632728099823,
        -0.06722281128168106,
        -14.520469665527344,
        -0.2386736422777176,
        -0.2866988778114319,
        -6.104448318481445,
        0.4944186210632324,
        -0.09532756358385086,
        -0.5540598034858704,
        0.056677546352148056,
        0.024342194199562073,
        0.06368007510900497,
        -0.0846419706940651,
        -0.9273614287376404,
        0.09053738415241241,
        -0.20537272095680237,
        -6.294993877410889,
        0.7432109713554382,
        -0.18982723355293274,
        0.050823502242565155,
        -0.6454346776008606,
        0.3140326738357544,
        -0.9497126936912537,
        0.07654823362827301,
        0.06440231949090958,
        1.2885844707489014,
        12.626347541809082,
        -0.12166877090930939,
        0.2489214539527893,
        -0.10495321452617645,
        -0.3834226131439209,
        -1.5520144701004028,
        -0.1107722669839859,
        -2.7671048641204834,
        0.08778651803731918,
        0.08336872607469559,
        0.19527891278266907,
        0.8279984593391418,
        -0.11145210266113281,
        -0.6290022134780884,
        0.06964197009801865,
        12.04946517944336,
        0.060982055962085724,
        0.27559641003608704,
        0.4357703626155853,
        -0.09659822285175323,
        0.11303778737783432,
        -4.793548107147217,
        -0.2328004390001297,
        0.08945189416408539,
        -0.20898911356925964,
        -0.3164689838886261,
        -0.3377603590488434,
        -4.013805866241455,
        -0.05088725686073303,
        0.034748345613479614,
        0.12433752417564392,
        -1.4059697389602661,
        0.23268917202949524,
        -0.0031838719733059406,
        -0.2528565227985382,
        -0.17949573695659637,
        -0.19408804178237915,
        0.04985789582133293,
        -0.6824021339416504,
        -0.21944034099578857,
        0.1400672346353531,
        0.034718845039606094,
        -2.5748167037963867,
        0.6649218201637268,
        -11.223761558532715,
        -0.17439232766628265,
        -0.0881432294845581,
        -0.16163437068462372,
        -1.2304208278656006,
        9.623614311218262,
        -0.26887351274490356,
        -1.3494935035705566,
        3.7304508686065674,
        0.16491730511188507,
        0.1943371742963791,
        0.0020266915671527386,
        0.009787769988179207,
        -1.458457589149475,
        -1.9314038753509521,
        -0.006796755362302065,
        0.022099517285823822,
        0.19245050847530365,
        0.06190108507871628,
        -0.116576187312603,
        -0.10583709925413132,
        0.1861511617898941,
        0.1378229409456253,
        -0.6233678460121155,
        0.3816923201084137,
        -0.3684045970439911,
        -0.030616194009780884,
        -0.5805514454841614,
        0.38580507040023804,
        -0.2821265757083893,
        -2.2689969539642334,
        0.5216773152351379,
        2.7413735389709473,
        -0.07391803711652756,
        -6.462253093719482,
        0.4883135259151459,
        -0.022880252450704575,
        0.04778950288891792,
        0.1655752956867218,
        0.007345608435571194,
        0.06395559757947922,
        -1.749613642692566,
        0.02180464006960392,
        -0.4900292754173279,
        -0.06584742665290833,
        -0.9146090745925903,
        1.323646068572998,
        0.0031386748887598515,
        -1.5371686220169067,
        -1.0436315536499023,
        -0.00608556903898716,
        0.2871379852294922,
        0.288145512342453,
        0.05862073972821236,
        0.39953428506851196,
        -11.49007511138916,
        -11.470832824707031,
        0.1621199995279312,
        -4.246905326843262,
        0.18314383924007416,
        -0.16148976981639862,
        1.8962585926055908,
        -0.057516880333423615,
        0.18735302984714508,
        -0.04557168483734131,
        0.14807884395122528,
        -1.028135895729065,
        -10.862123489379883,
        -0.201139897108078,
        0.04915937781333923,
        -5.196301460266113,
        -12.24528694152832,
        0.3833518922328949,
        -2.35628080368042,
        0.25215423107147217,
        -4.4983320236206055,
        0.06558404117822647,
        -1.820737600326538,
        0.23603571951389313,
        0.02811388671398163,
        0.09216967970132828,
        0.5165418386459351,
        -0.258879154920578,
        -1.4261059761047363,
        -0.23146440088748932,
        -1.626424789428711,
        -1.0477038621902466,
        -0.8047184348106384,
        0.9182050824165344,
        0.7741836309432983,
        -0.18698672950267792,
        3.0445053577423096,
        -0.36651113629341125,
        0.031936146318912506,
        -0.009088189341127872,
        1.9533166885375977,
        0.055594637989997864,
        0.03464604914188385,
        -0.1633339375257492,
        0.10538249462842941,
        2.559826374053955,
        -0.1419893056154251,
        -0.5420228242874146,
        0.08975045382976532,
        0.3604312241077423,
        -12.11418342590332,
        -2.6072113513946533,
        0.3518039286136627,
        -17.075658798217773,
        -4.245609760284424,
        -0.2706418037414551,
        -4.192065238952637,
        -0.002238702494651079,
        0.05310814082622528,
        -2.826779842376709,
        0.2734454572200775,
        0.37028974294662476,
        -0.20434927940368652,
        -5.912720680236816,
        -4.289034843444824,
        -0.2695958912372589,
        0.01493215374648571,
        -0.016745276749134064,
        -0.04922863095998764,
        0.02992183342576027,
        0.38942426443099976,
        -0.40362077951431274,
        -7.146953582763672,
        -3.396023988723755,
        -0.13206729292869568,
        -0.5811901688575745,
        0.30269068479537964,
        -14.600451469421387,
        -0.18862384557724,
        1.1169060468673706,
        -8.110709190368652,
        0.21137595176696777,
        -0.3478819727897644,
        -5.565025806427002,
        -0.11818908900022507,
        0.45456090569496155,
        -0.1025119200348854,
        -5.421237945556641,
        -5.53816032409668,
        -5.755062103271484,
        -0.7549747228622437,
        -16.05335807800293,
        0.7433632612228394,
        0.30963611602783203,
        0.13045082986354828,
        -10.006369590759277,
        -9.440732955932617,
        -15.385566711425781,
        -0.01386566273868084,
        -0.9987676739692688,
        1.8605605363845825,
        -1.428953766822815,
        0.30856677889823914,
        -1.0496336221694946,
        0.4821966588497162,
        -0.7177654504776001,
        0.6074326038360596,
        0.4196188151836395,
        0.07322637736797333,
        -1.9673399925231934,
        0.7167136669158936,
        -3.4949471950531006,
        -0.15164253115653992,
        1.5330443382263184,
        -1.1714162826538086,
        0.24486495554447174,
        -1.5014268159866333,
        0.04829971492290497,
        -1.8110519647598267,
        -0.3491298258304596,
        -4.130851745605469,
        0.14156916737556458,
        -4.864315509796143,
        0.22045689821243286,
        -0.021043449640274048,
        0.10193303972482681,
        0.49856075644493103,
        -3.8810009956359863,
        -2.0914483070373535,
        -0.016100827604532242,
        -1.595833659172058,
        0.7401171326637268,
        -1.1572736501693726,
        -2.266700506210327,
        0.5386332273483276,
        -1.422487497329712,
        -1.505919337272644,
        -0.26142024993896484,
        -0.01706651784479618,
        -1.3211896419525146,
        -0.2056666612625122,
        0.3797096908092499,
        0.11871325224637985,
        -1.6290950775146484,
        -0.66355961561203,
        0.15458765625953674,
        -0.26224663853645325,
        0.04023660719394684,
        0.21732749044895172,
        -0.03315938636660576,
        0.2633183002471924,
        -2.1635589599609375,
        0.07620000839233398,
        2.409879684448242,
        2.4480631351470947,
        -0.34975919127464294,
        -0.7788015604019165,
        0.07036688923835754,
        0.4536251425743103,
        -0.1419053077697754,
        0.5484505295753479,
        1.1549242734909058,
        0.06838337332010269,
        1.2215813398361206,
        0.04848947748541832,
        -0.8527472615242004,
        0.052645616233348846,
        -1.9927531480789185,
        0.22154691815376282,
        -14.683675765991211,
        0.0386338010430336,
        -0.24952884018421173,
        -4.118198394775391,
        -3.8128304481506348,
        -0.6415987014770508,
        -0.764272153377533,
        -0.06093153730034828,
        0.5287919640541077,
        0.20285779237747192,
        -0.29435276985168457,
        -2.3107893466949463,
        0.370677649974823,
        0.680976927280426,
        -0.4573207497596741,
        0.21408894658088684,
        0.510608971118927,
        0.18197664618492126,
        0.4355586767196655,
        -8.925207138061523,
        0.7761977910995483,
        -0.4516926109790802,
        1.7531003952026367,
        0.5590841770172119,
        0.04586442932486534,
        0.17970387637615204,
        -1.88057279586792,
        -1.5064975023269653,
        -0.45544373989105225,
        -0.05744699016213417,
        0.8217878341674805,
        -0.22999894618988037,
        9.440740585327148,
        -0.00718424329534173,
        0.4150012135505676,
        -3.1582207679748535,
        0.16476279497146606,
        0.29415154457092285,
        0.2953246533870697,
        -0.013384012505412102,
        -0.157430037856102,
        1.8206700086593628,
        -0.17584502696990967,
        0.1425674706697464,
        -0.016893411055207253,
        0.21417075395584106,
        0.006330281030386686,
        8.793251037597656,
        0.010883068665862083,
        1.8485902547836304,
        -0.14158748090267181,
        -0.1352570801973343,
        0.06885574012994766,
        -1.5676594972610474,
        -0.05788741260766983,
        -0.21071116626262665,
        -0.2778942584991455,
        0.3654003441333771,
        0.11929302662611008,
        0.4180411994457245,
        -2.824873924255371,
        -0.16235361993312836,
        0.3483900725841522,
        -0.11034423857927322,
        0.5977097153663635,
        0.17840631306171417,
        0.12928542494773865,
        -0.4844966232776642,
        0.42214715480804443,
        -0.16284653544425964,
        0.1178644523024559,
        -0.1896338015794754,
        -0.03822215646505356,
        -0.02151123434305191,
        1.8892383575439453,
        -0.08790247142314911,
        2.7484073638916016,
        0.42026859521865845,
        0.25112679600715637,
        -0.0010968532878905535,
        3.042786121368408,
        7.310236930847168,
        -0.3889610767364502,
        -0.6441202759742737,
        2.497563600540161,
        0.03259258717298508,
        -7.855833053588867,
        0.0007076254696585238,
        -0.018324363976716995,
        0.7131231427192688,
        -0.17003749310970306,
        0.44132429361343384,
        0.14756572246551514,
        -0.9286215305328369,
        -0.021328555420041084,
        0.11673787981271744,
        -0.7081741690635681,
        -1.7244738340377808,
        0.5496682524681091,
        -0.05045272782444954,
        -0.11568526923656464,
        -0.05739123746752739,
        -0.5856057405471802,
        0.27439722418785095,
        -0.11800765246152878,
        -0.14826145768165588,
        0.852730393409729,
        0.4536929428577423,
        1.5539082288742065,
        -0.4686020016670227,
        1.0375996828079224,
        1.1388019323349,
        -0.2589041590690613,
        -0.9427992105484009,
        0.24989959597587585,
        0.030949492007493973,
        -0.33023056387901306,
        -1.2700366973876953,
        0.2577440142631531,
        -1.7559763193130493,
        0.15489205718040466,
        0.11928661912679672,
        1.0387699604034424,
        0.1913258135318756,
        0.1528976857662201,
        -0.8585513234138489,
        0.7125715613365173,
        -0.11558151990175247,
        0.4520944654941559,
        0.19848790764808655,
        -1.835424780845642,
        0.20551522076129913,
        -9.833027839660645,
        -0.23180508613586426,
        -5.567144870758057,
        0.1538941115140915,
        -13.354445457458496,
        -0.618976891040802,
        -0.06055706739425659,
        -3.3585119247436523,
        -3.0265233516693115,
        -11.982990264892578,
        -2.3022377490997314,
        -0.371110200881958,
        1.1961127519607544,
        -0.06781468540430069,
        0.039051659405231476,
        -8.717680931091309,
        0.4680512845516205,
        -3.283339500427246,
        -2.2895641326904297,
        -0.16250044107437134,
        0.372501939535141,
        0.1720118224620819,
        -3.569667100906372,
        0.18285909295082092,
        0.09843890368938446,
        0.08720803260803223,
        -13.693876266479492,
        0.31316298246383667,
        0.05855441465973854,
        -6.114498615264893,
        -0.3080829083919525,
        -0.5039525628089905,
        0.7395292520523071,
        0.016910379752516747,
        0.6088844537734985,
        -2.0184152126312256,
        0.327694296836853,
        0.04299037903547287,
        -9.505453109741211,
        -0.10431838780641556,
        0.1669047474861145,
        0.10577548295259476,
        -7.156609535217285,
        -0.6101338863372803,
        -5.018798351287842,
        0.04028252512216568,
        -0.03599335625767708,
        -0.4140212833881378,
        -8.606287956237793,
        -6.0972514152526855,
        -0.8849433064460754,
        0.1779850572347641,
        -2.2385611534118652,
        -3.423186779022217,
        -0.10184858739376068,
        -0.32955455780029297,
        0.02786259353160858,
        0.05650307238101959,
        -6.895594120025635,
        -7.68463659286499,
        0.3267831802368164,
        -0.025970278307795525,
        -0.0601869560778141,
        0.22726662456989288,
        -0.7765061855316162,
        -0.403856098651886,
        -1.8629156351089478,
        -0.33967047929763794,
        -2.0499777793884277,
        0.2525227665901184,
        -1.1557011604309082,
        -0.15410026907920837,
        -0.3628249168395996,
        -1.619666337966919,
        -12.2197904586792,
        0.16112051904201508,
        -1.0121564865112305,
        0.797481119632721,
        -5.627768039703369,
        -0.24198724329471588,
        0.05150118097662926,
        -0.9342564940452576,
        -0.48977023363113403,
